{
  "instance_id": "code2nl_001",
  "timestamp": "2025-08-07 14:37:30",
  "task_type": "CODE2NL",
  "failure_classification": {
    "failure_category": "Incomplete Explanation",
    "confidence_score": 0.6,
    "sub_categories": [
      "low_severity",
      "simple_failure",
      "llm_validated_Incomplete Explanation"
    ],
    "attention_weights": [
      0.0006792523781768978,
      0.0021776228677481413,
      -0.0034426171332597733,
      -0.0018988882657140493,
      -0.0001721085573080927,
      -0.005364507902413607,
      -0.0003759237879421562,
      -0.0021825828589498997,
      -0.0051169805228710175,
      -0.0045400261878967285,
      -0.0017442743992432952,
      0.0012190283741801977,
      0.006917837541550398,
      -0.0006823439034633338,
      -0.001526520005427301,
      0.0028074083384126425,
      -0.0032861349172890186,
      0.001354822888970375,
      0.002511042170226574,
      -0.00013401317119132727,
      0.0007671801140531898,
      0.0031073959544301033,
      -0.0013851630501449108,
      0.0009205107344314456,
      -0.0027480844873934984,
      -0.004402606748044491,
      -0.00026761097251437604,
      -0.0019039756152778864,
      0.0017465919954702258,
      -0.0045365639962255955,
      0.0031974948942661285,
      0.00233450741507113,
      0.004512481391429901,
      0.0018633779836818576,
      -0.00022024544887244701,
      0.0020248969085514545,
      -0.004715101793408394,
      -0.003233197145164013,
      0.00234277849085629,
      0.001229368499480188,
      -0.005613937042653561,
      -0.0028423285111784935,
      -0.003155621001496911,
      -0.0023850570432841778,
      -0.0025958216283470392,
      0.006076740566641092,
      0.0008105686283670366,
      0.006356510333716869,
      0.004778070375323296,
      -0.002815693849697709,
      -0.0030804441776126623,
      9.790453623281792e-05,
      -0.0018370648613199592,
      0.0026704277843236923,
      0.0035754977725446224,
      -0.0018871377687901258,
      0.00012315700587350875,
      -0.002144911792129278,
      0.0025051285047084093,
      -0.0016525668324902654,
      0.0030164807103574276,
      -0.002092967974022031,
      -0.0035784102510660887,
      -0.005590942222625017,
      0.0022200855892151594,
      -0.002451107604429126,
      0.0004249440098647028,
      -0.005703969392925501,
      0.0010499206837266684,
      0.0003506678913254291,
      0.004058580379933119,
      -0.004003338981419802,
      -0.0006725221173837781,
      0.001529738656245172,
      0.0053952583111822605,
      0.000556664599571377,
      0.004504331853240728,
      0.0015560709871351719,
      -0.002175759756937623,
      0.0036928311455994844,
      -0.005630373489111662,
      -0.003708785632625222,
      0.00409987848252058,
      0.002550163771957159,
      -0.0002645167405717075,
      -0.003975915256887674,
      0.0004045004316139966,
      0.0025478675961494446,
      0.008529295213520527,
      0.0006732867332175374,
      -0.0010875402949750423,
      -0.003223653882741928,
      0.0007467094110324979,
      -0.004564203321933746,
      0.0030633918941020966,
      -0.002321854466572404,
      0.0012390721822157502,
      0.0009390395716764033,
      -0.002232334343716502,
      0.0016152088064700365,
      -0.0005174045218154788,
      -0.0019319613929837942,
      0.0011013563489541411,
      -0.0054061575792729855,
      0.0005081833805888891,
      0.003126453375443816,
      0.0019023024942725897,
      -0.000955972180236131,
      0.002346418797969818,
      -0.0046622916124761105,
      -0.00010928067058557644,
      -0.0002635663258843124,
      0.0032955354545265436,
      -0.0012848294572904706,
      0.00316692516207695,
      -0.0014793851878494024,
      -0.0028804487083107233,
      0.0034907450899481773,
      -0.0015834439545869827,
      -0.002273723017424345,
      -0.0011688013328239322,
      -0.0010344587499275804,
      -0.00017893135373014957,
      0.002058364450931549,
      -0.001354024512693286,
      -0.0015547877410426736,
      -0.0022143912501633167,
      4.78417476412536e-34,
      -0.004824853502213955,
      -0.0005473813507705927,
      0.0017003032844513655,
      -0.0023230258375406265,
      -0.003781636944040656,
      -0.00017544224101584405,
      0.00031630214652977884,
      0.00699927331879735,
      -0.004326993133872747,
      -0.0003994653234258294,
      0.0002979644341394305,
      -0.0013740169815719128,
      0.0001408809912391007,
      0.0016400290187448263,
      0.0027065426111221313,
      -0.0033615268766880035,
      0.00017707016377244145,
      -0.0012347155716270208,
      -0.0019939467310905457,
      -0.0014220017474144697,
      -0.003876013681292534,
      -0.0018515476258471608,
      -0.0031615975312888622,
      -0.0022352933883666992,
      0.0013146511046215892,
      -0.005823297426104546,
      -0.0010186764411628246,
      -0.010585960000753403,
      0.0013131705345585942,
      0.0004098400822840631,
      -0.004641481209546328,
      0.0035773266572505236,
      -0.002420349745079875,
      -0.000849632197059691,
      0.0019385861232876778,
      -0.0009061380405910313,
      -0.0009360219701193273,
      0.004922474268823862,
      -0.0031625181436538696,
      0.0017535416409373283,
      -0.00038940319791436195,
      0.000756109831854701,
      0.0019616044592112303,
      -0.0033936467953026295,
      0.003484895220026374,
      -0.005529880058020353,
      -0.0018831768538802862,
      -6.813100480940193e-05,
      -0.0008895520004443824,
      0.005299938376992941,
      0.002661949023604393,
      0.0025234404020011425,
      0.0014973251381888986,
      -0.0007561527309007943,
      0.0015105495695024729,
      0.0026609476190060377,
      0.004513945430517197,
      0.004535484593361616,
      -0.002906273817643523,
      0.0010748036438599229,
      0.005526246502995491,
      0.0003361004637554288,
      0.0054651712998747826,
      0.002433303277939558,
      -0.002906923880800605,
      0.000700763484928757,
      -0.000270306714810431,
      -0.003205187851563096,
      0.004004196729511023,
      0.009570370428264141,
      -0.0033171537797898054,
      -0.00125289021525532,
      0.0024000860285013914,
      -0.0005577966221608222,
      -0.002216261113062501,
      -0.005819267593324184,
      -5.352001153369201e-06,
      -0.0037979353219270706,
      0.0030179189052432775,
      -0.004815935157239437,
      7.882589852670208e-05,
      0.00419631227850914,
      0.002952993381768465,
      -0.002052819123491645,
      -0.0012553601991385221,
      0.0009314983617514372,
      -0.001395421801134944,
      -0.006714129354804754,
      -0.005514728836715221,
      -0.0031025074422359467,
      -0.003938248381018639,
      -0.0020642566960304976,
      -0.007806913461536169,
      0.0031848729122430086,
      0.0009715512278489769,
      -5.348562662733757e-34,
      0.003634099382907152,
      -0.002352597191929817,
      0.006409813184291124,
      -0.000747431069612503,
      -0.004757001530379057,
      -0.0007425048388540745,
      0.005032263230532408,
      -0.0036162864416837692,
      0.002182289958000183,
      0.004792327061295509,
      0.00045833628973923624,
      0.001281109405681491,
      0.0004742310557048768,
      0.0012637241743505,
      0.0008466232102364302,
      0.004070938564836979,
      -0.0009459630236960948,
      0.001270110486075282,
      0.0021016672253608704,
      0.0035502221435308456,
      -0.000582137901801616,
      -0.00018414297665003687,
      -0.003795383730903268,
      -0.000984376878477633,
      -0.004438033793121576,
      0.001859232084825635,
      0.00445655919611454,
      0.0009222451481036842,
      0.00210144673474133,
      0.00036725602694787085,
      -0.0057901982218027115,
      0.002577933482825756,
      0.00019316458201501518,
      -0.003822331316769123,
      -0.004352904390543699,
      -0.002998003037646413,
      -0.002170407213270664,
      0.000666226667817682,
      0.0012438209960237145,
      -0.0001027223261189647,
      0.001144914422184229,
      0.004918497055768967,
      0.001524775056168437,
      -0.0006451045046560466,
      0.0029273994732648134,
      7.378967711701989e-05,
      0.0035569032188504934,
      0.007573688868433237,
      0.001512750517576933,
      -0.005656959488987923,
      0.0036247011739760637,
      0.004621883854269981,
      -0.0003219014033675194,
      0.0007435157895088196,
      -0.0010009685065597296,
      -0.005426575895398855,
      -0.007246616296470165,
      0.005297056399285793,
      0.005091247148811817,
      0.0004388614615891129,
      -0.0025262266863137484,
      0.002410990884527564,
      0.004079801496118307,
      0.0012271186569705606,
      -0.0012361909030005336,
      0.0012489985674619675,
      -0.004259487614035606,
      -0.0037823605816811323,
      -0.006595669314265251,
      0.002050728304311633,
      0.006043370813131332,
      0.0035646320320665836,
      0.0010230648331344128,
      0.0003707839350681752,
      -0.001777010504156351,
      0.004888402763754129,
      -0.0030938677955418825,
      -0.0009026856278069317,
      -0.0061275348998606205,
      0.0026448448188602924,
      -0.004663288127630949,
      0.0026924333069473505,
      -0.003279763739556074,
      0.005212582182139158,
      -0.007275411859154701,
      0.0021394749637693167,
      0.003825314110144973,
      0.0016174715710803866,
      -0.0032346185762435198,
      -0.0021356893703341484,
      -0.0003637924965005368,
      0.0022136566694825888,
      0.0048297131434082985,
      -0.00234994082711637,
      0.0007740746950730681,
      -2.853514313727601e-09,
      0.001972384052351117,
      -0.0023863581009209156,
      -0.0004406843218021095,
      -0.002640201011672616,
      0.0002307184913661331,
      0.008113157004117966,
      0.0005006878636777401,
      -0.0032240916043519974,
      -0.0023299551103264093,
      -0.004054616205394268,
      0.0014948358293622732,
      0.002735365182161331,
      -0.0008942463318817317,
      0.002982618985697627,
      0.0014352272264659405,
      0.00278170732781291,
      0.0020559856202453375,
      -0.00934743881225586,
      -2.68155854428187e-05,
      0.0031943335197865963,
      0.002076125470921397,
      -0.0022704980801790953,
      0.0032333885319530964,
      0.001679594861343503,
      -0.0031744567677378654,
      0.0019512907601892948,
      -0.0027904377784579992,
      0.00187697634100914,
      0.000818976724985987,
      -0.00022159202490001917,
      0.005907626356929541,
      0.0019691677298396826,
      0.0018118228763341904,
      0.00028017681324854493,
      0.0018389822216704488,
      0.0025212098844349384,
      -0.003766387002542615,
      0.0036642146296799183,
      -0.004144732840359211,
      -0.0006414147210307419,
      0.00021987923537380993,
      3.103669223492034e-05,
      -0.0035683324094861746,
      -0.0022812779061496258,
      -0.0030435421504080296,
      -1.9721277567441575e-05,
      0.004791125189512968,
      -0.0015215565217658877,
      -0.0022314051166176796,
      -0.0073426407761871815,
      0.002872124779969454,
      -0.0007875581504777074,
      -9.374850196763873e-05,
      -0.00044748137588612735,
      0.0010467119282111526,
      -0.001490781200118363,
      -0.003116393694654107,
      -0.005610476713627577,
      -0.0018631255952641368,
      0.003844520775601268,
      0.0019136915216222405,
      0.003366671269759536,
      -0.0012387458700686693,
      0.0007390636019408703,
      0.005201586056500673,
      0.1001201644539833,
      -0.0801905021071434,
      -0.03374912962317467,
      0.025975195690989494,
      -0.07176996767520905,
      0.049312472343444824,
      -0.048194292932748795,
      -0.04510559141635895,
      -0.027302253991365433,
      -0.03466672822833061,
      0.047538988292217255,
      0.041651129722595215,
      -0.052383434027433395,
      -0.08969371765851974,
      0.047876402735710144,
      -0.08297991007566452,
      -0.036351438611745834,
      0.039119791239500046,
      -0.058147281408309937,
      0.012934309430420399,
      0.053458794951438904,
      -0.07584713399410248,
      -0.02640693262219429,
      -0.019249044358730316,
      0.015226943418383598,
      -0.02744591422379017,
      -0.007713669911026955,
      0.021416882053017616,
      -0.046075381338596344,
      0.025554943829774857,
      0.017745574936270714,
      0.11085271090269089,
      0.007083527743816376,
      -0.05576486885547638,
      0.04562386870384216,
      -0.05411292240023613,
      -0.05658012256026268,
      0.019797837361693382,
      0.049521446228027344,
      -0.058168455958366394,
      0.010938921943306923,
      -0.019446058198809624,
      -0.006308502983301878,
      0.006314882077276707,
      0.07135029137134552,
      -0.01272193156182766,
      0.04297242313623428,
      0.0017269536620005965,
      -0.01913696900010109,
      -0.07758209109306335,
      0.02586091123521328,
      -0.03949827700853348,
      0.03614290431141853,
      0.041468601673841476,
      0.025072595104575157,
      0.0014540180563926697,
      -0.09129349887371063,
      0.0305001363158226,
      -0.008899173699319363,
      0.03661329671740532,
      -0.05604565143585205,
      0.00044433068251237273,
      0.017563696950674057,
      0.15623445808887482,
      -0.06265585869550705,
      0.0231865756213665,
      -0.10070300102233887,
      0.01912844553589821,
      -0.0825328677892685,
      0.022611651569604874,
      -0.007731339428573847,
      0.03973967209458351,
      0.05002358928322792,
      0.02854233980178833,
      -0.0032091489993035793,
      -0.011957339011132717,
      -0.01814209297299385,
      -0.014418499544262886,
      0.020694205537438393,
      -0.03247405216097832,
      -0.023972060531377792,
      0.015310096554458141,
      0.00797874666750431,
      0.05626880005002022,
      0.021274574100971222,
      -0.020261552184820175,
      -0.00293663889169693,
      0.10584581643342972,
      0.07750735431909561,
      -0.0412910170853138,
      -0.04333461448550224,
      -0.05634210258722305,
      -0.012678885832428932,
      0.01710890419781208,
      -0.04301087185740471,
      0.059786126017570496,
      0.019134005531668663,
      0.019907398149371147,
      0.06527286767959595,
      -0.009410836733877659,
      0.016493268311023712,
      0.010556555353105068,
      -0.047212909907102585,
      -0.016939260065555573,
      -0.03902459889650345,
      0.007175211329013109,
      0.017192456871271133,
      -0.032046593725681305,
      -0.08973494917154312,
      -0.05896000564098358,
      -0.012763400562107563,
      0.020968647673726082,
      0.0026570213958621025,
      0.005570008419454098,
      -0.004036343190819025,
      -0.014258558861911297,
      0.029355579987168312,
      -0.00458731921389699,
      -0.014566116034984589,
      0.019228091463446617,
      -0.010070450603961945,
      -0.020280925557017326,
      0.027865879237651825,
      -0.04735876992344856,
      0.030721386894583702,
      -0.05037321895360947,
      -2.123545973123817e-33,
      0.008383961394429207,
      -0.020993484184145927,
      0.015571284107863903,
      -0.080238938331604,
      -0.03981123864650726,
      0.00014883271069265902,
      -0.0005802082014270127,
      -0.013838334009051323,
      -0.08439775556325912,
      0.04822486639022827,
      -0.011903516948223114,
      0.04332270100712776,
      0.043720491230487823,
      0.07158198952674866,
      0.028847837820649147,
      -0.08790885657072067,
      0.046160738915205,
      0.04675060883164406,
      -0.0436755008995533,
      -0.0645613744854927,
      0.02638770081102848,
      0.005735726095736027,
      -0.013772465288639069,
      -0.06544534862041473,
      0.005989700090140104,
      0.009575966745615005,
      -0.03400885686278343,
      -0.09011752903461456,
      0.09771668165922165,
      0.009767814539372921,
      -0.06894497573375702,
      0.10700695216655731,
      -0.09290293604135513,
      -0.019608274102211,
      0.1474987417459488,
      0.023613950237631798,
      -0.06589622050523758,
      -0.0095427967607975,
      0.015752125531435013,
      0.03940018266439438,
      0.008176549337804317,
      -0.0012598304310813546,
      0.03533024713397026,
      -0.06813076883554459,
      0.010551574639976025,
      -0.05333833023905754,
      -0.042792655527591705,
      0.050924837589263916,
      0.06843531876802444,
      0.056833427399396896,
      -0.0036375776398926973,
      -0.008812464773654938,
      -0.001288454164750874,
      0.037338219583034515,
      0.014444634318351746,
      0.008365347981452942,
      0.045726168900728226,
      0.033363521099090576,
      -0.05211355909705162,
      0.09966763108968735,
      0.08694183081388474,
      -0.04646819457411766,
      -0.0005887242150492966,
      0.01536877453327179,
      -0.026970671489834785,
      -0.03535464406013489,
      -0.019778043031692505,
      -0.05872401222586632,
      0.12350890785455704,
      0.15171462297439575,
      -0.010045972652733326,
      0.06816364079713821,
      0.0717170238494873,
      -0.008760757744312286,
      -0.018969768658280373,
      -0.006907642353326082,
      -0.014108509756624699,
      -0.08496471494436264,
      -0.007084261626005173,
      -0.11447255313396454,
      -0.007265646941959858,
      -0.040475331246852875,
      0.04335901141166687,
      -0.06462232023477554,
      0.006731725297868252,
      0.0085982047021389,
      -0.08574789762496948,
      -0.09819970279932022,
      -0.09357710182666779,
      -0.07385388016700745,
      -0.0012361827539280057,
      0.05227387323975563,
      -0.09673216938972473,
      0.04220383241772652,
      0.010800518095493317,
      5.859159756177534e-34,
      0.01980816200375557,
      0.01171424612402916,
      0.08035706728696823,
      0.06308906525373459,
      -0.02548103593289852,
      -0.06277097016572952,
      -0.015162407420575619,
      -0.043028656393289566,
      0.06107739359140396,
      0.07407530397176743,
      0.008694937452673912,
      0.053736332803964615,
      0.07594672590494156,
      -0.0037227850407361984,
      0.06791117042303085,
      0.034286074340343475,
      -0.035689957439899445,
      -0.04139615222811699,
      -0.01292636338621378,
      0.007891989313066006,
      0.0075507983565330505,
      0.06504969298839569,
      0.02420208603143692,
      -0.006102945655584335,
      -0.09020381420850754,
      0.021773792803287506,
      0.08165087550878525,
      0.003418872132897377,
      0.048593007028102875,
      -0.028853343799710274,
      -0.05739234387874603,
      0.013453149236738682,
      -0.05424661561846733,
      -0.020515888929367065,
      0.017670776695013046,
      0.00042861863039433956,
      0.07416068017482758,
      -0.0029737430159002542,
      -0.0062148356810212135,
      -0.027766691520810127,
      -0.025072148069739342,
      0.08143331110477448,
      0.03832457959651947,
      -0.014375089667737484,
      0.07503773272037506,
      0.0814814642071724,
      0.025399750098586082,
      0.10381549596786499,
      0.03575040400028229,
      -0.06173457205295563,
      0.03112649917602539,
      0.0325503796339035,
      -0.007569910492748022,
      0.028340566903352737,
      -0.008418687619268894,
      0.008181010372936726,
      -0.1334003061056137,
      0.08600375801324844,
      0.025460857897996902,
      -0.0002385569387115538,
      -0.012914557941257954,
      0.024862105026841164,
      0.06734859943389893,
      0.010280365124344826,
      -0.03295493498444557,
      0.01739431358873844,
      -0.08368618786334991,
      -0.04252654314041138,
      -0.04919195920228958,
      0.09723072499036789,
      0.09748765826225281,
      0.026905542239546776,
      0.07141043245792389,
      -0.02007545530796051,
      -0.150204136967659,
      -0.08418329805135727,
      0.0050054858438670635,
      -0.06594211608171463,
      -0.02101084403693676,
      0.07636286318302155,
      -0.0006108250818215311,
      0.0441395528614521,
      0.012537999078631401,
      0.03822560980916023,
      -0.0518195703625679,
      0.032165948301553726,
      0.05690053850412369,
      -0.00296287564560771,
      -0.05647144094109535,
      -0.022398248314857483,
      -0.02840549685060978,
      0.03720507398247719,
      0.000531912490259856,
      -0.06562142819166183,
      -0.03580745309591293,
      -1.6324587903682186e-08,
      -0.017830654978752136,
      -0.13980089128017426,
      -0.09772323817014694,
      -0.05072057992219925,
      0.10002446174621582,
      0.031469713896512985,
      0.033895332366228104,
      -0.03341594338417053,
      -0.02882491983473301,
      -0.1242864653468132,
      0.07633379101753235,
      0.00634878920391202,
      0.030922507867217064,
      0.014273163862526417,
      0.06686399132013321,
      0.039382047951221466,
      0.04335185885429382,
      -0.1081024780869484,
      -0.03327086195349693,
      -0.039982378482818604,
      0.01772637851536274,
      -0.0266068447381258,
      0.07104858011007309,
      0.014024372212588787,
      -0.01834237575531006,
      0.0009844861924648285,
      -0.000267953728325665,
      0.07243320345878601,
      0.062088120728731155,
      0.0033601766917854548,
      0.05562540888786316,
      0.0986458882689476,
      0.044760093092918396,
      -0.018192525953054428,
      0.02234751731157303,
      0.12707287073135376,
      -0.0836476981639862,
      0.034765079617500305,
      -0.034390248358249664,
      -0.059450626373291016,
      -0.014428188093006611,
      0.04562274366617203,
      0.007303611375391483,
      -0.005527843255549669,
      -0.005507649388164282,
      -0.013677750714123249,
      0.020685024559497833,
      0.022062648087739944,
      -0.031071696430444717,
      -0.07512741535902023,
      0.03730282187461853,
      0.03408531844615936,
      -0.03198155015707016,
      0.041129812598228455,
      -0.035723552107810974,
      -0.007736091036349535,
      -0.0793410986661911,
      -0.06681863963603973,
      0.02139071188867092,
      0.0349089615046978,
      0.023224662989377975,
      -0.03321310132741928,
      0.039469052106142044,
      -0.015977684408426285,
      0.06559143316199648,
      0.06197774773454854,
      0.06365470027868175,
      0.06778987864238122,
      0.05382156384392132,
      0.05874077612342529,
      0.051544477533105176,
      0.06550560037787109,
      0.06358341274636622,
      0.06778987864238122,
      0.061630868741059566,
      0.06292845082388772,
      0.06610801863121524,
      0.06778987864238122,
      0.060631955269381484,
      0.06091135880739646,
      0.05406565292618488,
      0.060761704899194864,
      0.05183399390055968,
      0.059266655329873595,
      0.08975175618894335,
      0.07191696432957677,
      0.07164844721165904,
      0.05326423992872679,
      0.0702455056727652,
      0.059266655329873595,
      0.060611857362541426,
      0.05849349157079166,
      0.0564989628604266,
      0.059266655329873595,
      0.0568827097754866,
      0.06622474738352215,
      0.05989024302516195,
      0.0533918019145918,
      0.06054850612618814,
      0.06268077995122721,
      0.055746095316314734,
      0.06008934331672078,
      0.051341961567467675,
      0.06762252517120039,
      0.06406329005902701,
      0.06268077995122721,
      0.09835194971041768,
      0.058374869732289954,
      0.06293566306679783,
      0.06268077995122721,
      0.06192750804161859,
      0.0576739030985218,
      0.0615447383732252,
      0.05779831051555359
    ],
    "semantic_features": [
      -0.04283183068037033,
      0.07317355275154114,
      -0.024373523890972137,
      -0.05606086552143097,
      -0.0032727159559726715,
      0.26114362478256226,
      0.08578114956617355,
      0.1104259192943573,
      0.04600809887051582,
      0.01585981622338295,
      -0.035424936562776566
    ],
    "explanation_vector": [
      0.0006195860029880405,
      0.001986337761915125,
      -0.0031402133550706133,
      -0.0017320875546029484,
      -0.00015699032720175186,
      -0.0048932828445520625,
      -0.0003429021740407446,
      -0.0019908620613100004,
      -0.004667498578426231,
      -0.0041412246310713555,
      -0.0015910551627985096,
      0.0011119474029881382,
      0.006310166072872504,
      -0.0006224059648415425,
      -0.0013924285862384803,
      0.0025608020921781523,
      -0.002997476731914056,
      0.001235813558410909,
      0.0022904690974521976,
      -0.00012224128726504404,
      0.0006997900569945941,
      0.0028344384222459785,
      -0.001263488602026653,
      0.0008396519246421136,
      -0.0025066893221449248,
      -0.004015876286028492,
      -0.00024410369126855413,
      -0.0017367280250427,
      0.001593169178485342,
      -0.004138066562630207,
      0.00291662295895131,
      0.002129441375136666,
      0.004116099403844612,
      0.001699696539987209,
      -0.0002008988142366838,
      0.00184702744125763,
      -0.0043009213772657925,
      -0.002949189079648403,
      0.0021369859093198114,
      0.0011213792387988742,
      -0.005120801818346172,
      -0.0025926548334607316,
      -0.0028784273210941944,
      -0.002175550661027009,
      -0.0023678014223434784,
      0.005542952104173419,
      0.0007393672701527711,
      0.005798146546340293,
      0.004358358720491875,
      -0.002568359793828907,
      -0.13390962779521942,
      0.22877012193202972,
      -0.07620149105787277,
      -0.17526893317699432,
      -0.010231833904981613,
      0.8164405822753906,
      0.2681865692138672,
      0.34523606300354004,
      0.14383992552757263,
      0.049584198743104935,
      -0.11075267940759659,
      303.0,
      90.0
    ]
  },
  "root_cause_analysis": {
    "primary_cause": "Unknown cause",
    "causal_factors": [],
    "causal_graph": "DiGraph with 17 nodes and 56 edges",
    "counterfactual_scenarios": [
      {
        "intervention_type": "output_length_control",
        "target_node": "output_length",
        "current_value": 90,
        "counterfactual_value": 269,
        "description": "Adjust output length to match reference (269 characters)",
        "expected_impact": 0.5
      },
      {
        "intervention_type": "attention_regulation",
        "target_node": "attention_variance",
        "description": "Apply attention regularization to improve focus distribution",
        "expected_impact": 0.8
      },
      {
        "intervention_type": "attention_regulation",
        "target_node": "attention_concentration",
        "description": "Apply attention regularization to improve focus distribution",
        "expected_impact": 0.8
      }
    ],
    "confidence_score": 0.0,
    "explanation_text": "### Root Cause Analysis Report\n\n#### 1. Analysis of Input Intent:\nThe input code defines a binary search function in Python, which takes a sorted array and a target value as inputs and returns the index of the target if found, or -1 otherwise. The core request is to provide a natural language explanation of this code.\n\n#### 2. Key Discrepancies Observed:\n* The model output lacks details about the implementation, such as the use of two pointers (left and right) and the comparison with the middle element.\n* The reference output provides a clear and concise explanation of the binary search algorithm, including its logic and return values.\n\n#### 3. Explanation of Failure:\nThe discrepancies between the failed output and the reference output align with the \"Incomplete Explanation\" failure category for the specified \"CODE2NL\". This suggests that the model did not fully capture the intent and details of the input code, resulting in an incomplete explanation.\n\n#### 4. Inferred Root Cause:\nBased on the analysis, the most likely reason for the model's failure is its inability to fully understand the implementation details of the binary search algorithm. The model may have misapplied its attention mechanism or lacked sufficient training data to accurately capture the nuances of the code. Additionally, the model's output length was shorter than the reference output, indicating that it may not have been able to generate a complete explanation within its output constraints.",
    "intervention_recommendations": [
      "Intervention: Adjust output length to match reference (269 characters)",
      "Intervention: Apply attention regularization to improve focus distribution"
    ]
  },
  "recommendation_suite": {
    "instance_id": "code2nl_001",
    "failure_category": "Incomplete Explanation",
    "recommendations": [
      {
        "recommendation_id": "code2nl_001_custom_attention_regulation",
        "recommendation_type": "RecommendationType.PROMPT_ENGINEERING",
        "stakeholder_type": "StakeholderType.DEVELOPER",
        "title": "Counterfactual Intervention: attention_regulation",
        "description": "Apply attention regularization to improve focus distribution",
        "implementation_steps": [
          "Analyze counterfactual scenario",
          "Implement proposed intervention",
          "Validate effectiveness"
        ],
        "expected_impact": 0.8,
        "implementation_effort": 0.4,
        "confidence": 0.0,
        "priority_score": 0.0,
        "evidence": [
          "Derived from counterfactual analysis"
        ],
        "constraints": [
          "Requires careful validation"
        ]
      },
      {
        "recommendation_id": "code2nl_001_llm_prompt_engineering",
        "recommendation_type": "RecommendationType.PROMPT_ENGINEERING",
        "stakeholder_type": "StakeholderType.DEVELOPER",
        "title": "LLM-Generated Prompt Engineering",
        "description": "Enhance Code Comments:",
        "implementation_steps": [
          "Enhance Code Comments:"
        ],
        "expected_impact": 0.6,
        "implementation_effort": 0.5,
        "confidence": 0.42,
        "priority_score": 0.0,
        "evidence": [
          "Generated by LLM analysis"
        ],
        "constraints": [
          "Requires validation and testing"
        ]
      },
      {
        "recommendation_id": "code2nl_001_llm_data_augmentation",
        "recommendation_type": "RecommendationType.DATA_AUGMENTATION",
        "stakeholder_type": "StakeholderType.DEVELOPER",
        "title": "LLM-Generated Data Augmentation",
        "description": "Diversify Training Data:",
        "implementation_steps": [
          "Diversify Training Data:"
        ],
        "expected_impact": 0.6,
        "implementation_effort": 0.5,
        "confidence": 0.42,
        "priority_score": 0.0,
        "evidence": [
          "Generated by LLM analysis"
        ],
        "constraints": [
          "Requires validation and testing"
        ]
      },
      {
        "recommendation_id": "code2nl_001_llm_model_configuration",
        "recommendation_type": "RecommendationType.MODEL_CONFIGURATION",
        "stakeholder_type": "StakeholderType.DEVELOPER",
        "title": "LLM-Generated Model Configuration",
        "description": "Adjust Output Length Parameters:",
        "implementation_steps": [
          "Adjust Output Length Parameters:"
        ],
        "expected_impact": 0.6,
        "implementation_effort": 0.5,
        "confidence": 0.42,
        "priority_score": 0.0,
        "evidence": [
          "Generated by LLM analysis"
        ],
        "constraints": [
          "Requires validation and testing"
        ]
      }
    ],
    "optimization_strategy": {
      "target_stakeholder": "multi_stakeholder",
      "optimization_method": "pareto_optimal",
      "adaptive_learning": true
    },
    "stakeholder_alignment": {
      "StakeholderType.DEVELOPER": 0.0,
      "StakeholderType.MANAGER": 0.0,
      "StakeholderType.RESEARCHER": 0.0,
      "StakeholderType.END_USER": 0.0
    },
    "overall_confidence": 0.315,
    "implementation_roadmap": [
      {
        "phase": 1,
        "recommendations": [
          "code2nl_001_custom_attention_regulation",
          "code2nl_001_llm_prompt_engineering"
        ],
        "total_effort": 0.9,
        "expected_impact": 0.7
      },
      {
        "phase": 2,
        "recommendations": [
          "code2nl_001_llm_data_augmentation",
          "code2nl_001_llm_model_configuration"
        ],
        "total_effort": 1.0,
        "expected_impact": 0.6
      }
    ]
  },
  "processing_time": 73.31999111175537,
  "confidence_score": 0.303,
  "quality_metrics": {
    "length_score": 0.42000000000000004,
    "readability_score": 0.9510548523206751,
    "structure_score": 1.0,
    "overall_quality": 0.9755274261603376
  },
  "markdown_report": "# Explainability Report: code2nl_001\n\n## 1. Summary\n\n- **Input ID:** `code2nl_001`\n- **Task Type:** `CODE2NL`\n- **Status:** **FAIL**\n- **Failure Category:** `Incomplete Explanation`\n- **Confidence Score:** `0.600`\n- **Analysis Timestamp:** `2025-08-07 14:37:30`\n\n---\n\n## 2. Detailed Analysis\n\n### Input\n\n```\n\ndef binary_search(arr, target):\n    left, right = 0, len(arr) - 1\n    while left <= right:\n        mid = (left + right) // 2\n        if arr[mid] == target:\n            return mid\n        elif arr[mid] < target:\n            left = mid + 1\n        else:\n            right = mid - 1\n    return -1\n        \n```\n\n### Model Output (Failed)\n\n```\nThis function performs a binary search algorithm to find a target value in a sorted array.\n```\n\n### Reference Output (Correct)\n\n```\nThis function implements binary search to find a target value in a sorted array. It uses two pointers (left and right) and compares the middle element with the target, adjusting the search range accordingly. Returns the index of the target if found, or -1 if not found.\n```\n\n---\n\n## 3. Root Cause Analysis\n\n### Root Cause Analysis Report\n\n#### 1. Analysis of Input Intent:\nThe input code defines a binary search function in Python, which takes a sorted array and a target value as inputs and returns the index of the target if found, or -1 otherwise. The core request is to provide a natural language explanation of this code.\n\n#### 2. Key Discrepancies Observed:\n* The model output lacks details about the implementation, such as the use of two pointers (left and right) and the comparison with the middle element.\n* The reference output provides a clear and concise explanation of the binary search algorithm, including its logic and return values.\n\n#### 3. Explanation of Failure:\nThe discrepancies between the failed output and the reference output align with the \"Incomplete Explanation\" failure category for the specified \"CODE2NL\". This suggests that the model did not fully capture the intent and details of the input code, resulting in an incomplete explanation.\n\n#### 4. Inferred Root Cause:\nBased on the analysis, the most likely reason for the model's failure is its inability to fully understand the implementation details of the binary search algorithm. The model may have misapplied its attention mechanism or lacked sufficient training data to accurately capture the nuances of the code. Additionally, the model's output length was shorter than the reference output, indicating that it may not have been able to generate a complete explanation within its output constraints.\n\n### Causal Factors\n\nNo significant causal factors identified.\n\n### Counterfactual Analysis\n\n\n**Scenario 1: output_length_control**\n- **Description:** Adjust output length to match reference (269 characters)\n- **Expected Impact:** 0.500\n\n\n**Scenario 2: attention_regulation**\n- **Description:** Apply attention regularization to improve focus distribution\n- **Expected Impact:** 0.800\n\n\n**Scenario 3: attention_regulation**\n- **Description:** Apply attention regularization to improve focus distribution\n- **Expected Impact:** 0.800\n\n\n---\n\n## 4. Actionable Recommendations\n\n\n### Prompt Engineering\n\n**1. Counterfactual Intervention: attention_regulation**\n- **Description:** Apply attention regularization to improve focus distribution\n- **Expected Impact:** 0.80\n- **Implementation Effort:** 0.40\n- **Confidence:** 0.00\n\n*Implementation Steps:*\n- Analyze counterfactual scenario\n- Implement proposed intervention\n- Validate effectiveness\n\n\n**2. LLM-Generated Prompt Engineering**\n- **Description:** Enhance Code Comments:\n- **Expected Impact:** 0.60\n- **Implementation Effort:** 0.50\n- **Confidence:** 0.42\n\n*Implementation Steps:*\n- Enhance Code Comments:\n\n\n\n### Data Augmentation\n\n**1. LLM-Generated Data Augmentation**\n- **Description:** Diversify Training Data:\n- **Expected Impact:** 0.60\n- **Implementation Effort:** 0.50\n- **Confidence:** 0.42\n\n*Implementation Steps:*\n- Diversify Training Data:\n\n\n\n### Model Configuration\n\n**1. LLM-Generated Model Configuration**\n- **Description:** Adjust Output Length Parameters:\n- **Expected Impact:** 0.60\n- **Implementation Effort:** 0.50\n- **Confidence:** 0.42\n\n*Implementation Steps:*\n- Adjust Output Length Parameters:\n\n\n\n---\n\n## 5. Technical Analysis\n\n### Classification Details\n- **Primary Category:** Incomplete Explanation\n- **Sub-categories:** low_severity, simple_failure, llm_validated_Incomplete Explanation\n- **Semantic Features:** Vector length: 11, Max value: 0.261\n- **Attention Patterns:** Attention variance: 0.001, Max attention: 0.156\n\n### Confidence Metrics\n- **Classification Confidence:** 0.600\n- **Root Cause Confidence:** 0.000\n- **Overall Confidence:** 0.315\n\n### Performance Metrics\n- **Processing Time:** 0.00 seconds\n- **Quality Score:** 0.000\n\n---\n\n## 6. Implementation Roadmap\n\n\n**Phase 1**\n- **Recommendations:** 2 items\n- **Total Effort:** 0.90\n- **Expected Impact:** 0.70\n\n\n**Phase 2**\n- **Recommendations:** 2 items\n- **Total Effort:** 1.00\n- **Expected Impact:** 0.60\n\n\n---\n\n*Report generated by LLM Explainability Framework v1.0.0*\n"
}