{
  "instance_id": "nl2code_003",
  "timestamp": "2025-08-07 14:39:38",
  "task_type": "NL2CODE",
  "failure_classification": {
    "failure_category": "Logical Error",
    "confidence_score": 0.6,
    "sub_categories": [
      "low_severity",
      "simple_failure",
      "llm_validated_Logical Error"
    ],
    "attention_weights": [
      -0.002770928665995598,
      0.001915598288178444,
      -0.002480004293223222,
      -0.011727947741746902,
      -0.02151426921288172,
      0.00259939053406318,
      0.004151240922510624,
      0.005246761565407117,
      -0.004121642870207627,
      0.003920303657650948,
      0.009548712521791458,
      0.0014304143066207566,
      -0.004806661047041416,
      -0.0031565061459938684,
      -0.010806579142808914,
      -0.004781501988569895,
      -0.012314096093177795,
      0.013411364207665125,
      0.006922459229826927,
      -0.008045619353652,
      -0.0026727362225453057,
      -0.00015298187887916961,
      -0.0040946273754040394,
      0.0025288301209608712,
      0.0036628472929199534,
      0.01258765161037445,
      -0.017323187241951622,
      0.004134073853492737,
      0.004236537342270215,
      0.007337117567658424,
      -0.0015236707404255867,
      -0.008975253129998842,
      -0.0011060471491267283,
      0.002664402437706788,
      0.0004733395374690493,
      0.0020297467708587646,
      -0.008301282922426859,
      -0.004192111703256765,
      0.009408879404266674,
      0.006872707357009252,
      -0.004372989758849144,
      -0.009430683528383572,
      0.0018420688187082608,
      0.00011830196793501575,
      0.005305868883927663,
      -0.0006930461774269739,
      -0.008532401795188585,
      0.014648381620645523,
      -1.913288118278918e-05,
      -0.003406237500409285,
      0.006929078449805577,
      -0.006284018978476524,
      -0.008660017202297846,
      -0.016962599009275436,
      -0.007206826160351435,
      0.008548878754178682,
      0.0173857311407725,
      0.006430881718794504,
      0.00228692094484965,
      -0.0001719075177485744,
      0.004627412185072899,
      -0.005216979732116063,
      -0.004590438057978948,
      0.005795427287618319,
      0.006523206830024719,
      0.0070712318023045855,
      -0.0002554631403957804,
      0.00151498569175601,
      0.001589798523734013,
      0.0036700498312711716,
      -0.005206486210227013,
      0.005433591703573862,
      0.003180071401099364,
      0.0027936138212680817,
      -0.006372690200805664,
      0.002579632991304,
      0.017357179274161656,
      -0.0057183050860961275,
      -0.00013207326022287208,
      0.00934340680638949,
      0.002058923089255889,
      -0.0010522415395826101,
      0.007774741699298223,
      -0.00042228699506570894,
      0.007500305150945981,
      0.0003848661435768008,
      -0.014963313937187195,
      0.00867026299238205,
      0.0010540203657001257,
      0.0023250021040439606,
      -0.007728412747383118,
      -0.00868610789378484,
      0.0009574673604220152,
      -0.01097433144847552,
      -0.0009797127762188513,
      0.005307522291938463,
      -0.007096330324808756,
      0.0013631444113949933,
      0.000701774222155412,
      0.005273442715406418,
      -0.0038598841056227684,
      -0.0006518298760056496,
      0.010464710493882496,
      -0.006721739346782366,
      0.001732007289926211,
      0.016289574404557545,
      0.004007757951815923,
      -0.011904948701461155,
      0.016338023046652474,
      -0.018682179351647694,
      -0.007525309299429257,
      -0.0008603758954753478,
      0.018225920697053272,
      0.008442771310607592,
      -0.0002148068160749972,
      -0.011791153500477472,
      0.009289925917983055,
      0.0034985359137256937,
      0.005437775204579035,
      0.004228651523590088,
      -0.0028427423288424807,
      -0.0131624403099219,
      0.010581930478413899,
      0.005596106871962547,
      -0.0026699332520365715,
      -0.02001726006468137,
      0.012047253549098969,
      -7.590054983954198e-34,
      -0.0016375994309782982,
      0.0021832060689727464,
      0.01563631370663643,
      -0.007765424748261769,
      -0.007727873822053273,
      0.0017322114047904809,
      -0.006525695944825808,
      0.0009938062479098637,
      -0.013608478009700775,
      -0.0017330534756183624,
      0.0093345424781243,
      0.0006685105618089437,
      -0.00013509376246171692,
      0.006791517759362856,
      -0.002620509515206019,
      0.011912235369284947,
      0.012639849136273066,
      -0.0011920440010726452,
      -0.0007964969457437594,
      -0.015361722558736801,
      0.007949145510792732,
      -0.0008179191499948502,
      0.004330284893512726,
      -0.014895740896463394,
      -0.005630132431785265,
      -0.0028829226891199746,
      0.006131798649827639,
      -0.013205009202162424,
      0.006554072101910909,
      0.00562365415195624,
      -0.006229537228743235,
      -0.013181913644075394,
      -0.012996463725964228,
      0.00010033238989611466,
      0.008181402459740639,
      0.003249352176984151,
      -0.010874367008606592,
      0.0006723783444613218,
      -0.0032226260130604105,
      -0.0009281705133616924,
      -0.0014474359340965748,
      -0.007716575637459755,
      -0.0036222652221719422,
      0.010284271712104479,
      0.010837951054175694,
      -0.0003880241032068928,
      -0.0020859171636402607,
      -0.001811103740086158,
      0.0003252316188688079,
      -0.002315394890805085,
      -0.005160818497339884,
      0.006272214775284131,
      -0.013114324460426966,
      0.00830503615240256,
      0.0036064439142743745,
      -0.010098656639456749,
      0.0072197603682676945,
      0.015373813609282175,
      -0.005370710045099258,
      0.007559069121877352,
      0.0011235986991475024,
      0.005326113974054654,
      -0.001019765700524052,
      -0.0029938118532299995,
      -0.010642139861981073,
      -0.003271601783732573,
      -0.006116684526205063,
      -0.011002865930398304,
      0.015246777484814325,
      0.0014447147647539773,
      -0.00039023343318452436,
      -0.012948973725239435,
      0.00032375139805177844,
      0.015419167776902516,
      -0.00812500404814879,
      0.0029224284614125886,
      -0.00898071937263012,
      -0.011064888288577397,
      -0.0020683299129207926,
      -0.013632753243048985,
      -0.007691223795215288,
      1.351328440553819e-05,
      0.0008027334697544575,
      0.0004272296015794078,
      0.003496370278298855,
      -0.010224484528104464,
      0.0037220700954397517,
      -0.016978653768698372,
      -0.0019331006333231926,
      -0.002051069711645444,
      -0.0027332892641425133,
      -0.0014894804917275906,
      -0.00347323901951313,
      -0.0008723972520480553,
      0.011577706784009933,
      1.9788060680101225e-34,
      -0.004281427400807539,
      0.015022510041793186,
      -0.0060363709926605225,
      0.000403128486747543,
      -0.014877809832493464,
      -0.01993299399813016,
      0.007810278485218683,
      0.01862672964731852,
      0.005505504707495371,
      0.0025725172211726504,
      -0.0025361392957468825,
      -0.00854461205502351,
      0.0009406896618505318,
      0.006608133514722188,
      0.005745825668176015,
      0.012460211912790934,
      0.004383762367069721,
      0.0058449606100718175,
      0.005297257875402768,
      0.007093005503217379,
      -0.010605740050474802,
      0.012037192781766255,
      0.006004015604654947,
      0.019485586633284886,
      0.0032077648987372713,
      0.011362509181102116,
      0.006196703761816025,
      -0.014077269782622654,
      -0.0006218075674648086,
      0.004109742740790049,
      -0.011480934917926788,
      0.010047090550263722,
      0.011771224439144135,
      0.006265041107932726,
      -0.009845734884341557,
      -0.002026283803085486,
      0.00046032639996459085,
      -0.010268505662679672,
      0.007308831438422203,
      -0.0007852198711285988,
      0.017780991892019905,
      0.010630509505669275,
      0.019159428775310516,
      -0.007757716501752535,
      -0.004067058985431989,
      0.005034216990073522,
      -0.011125257859627405,
      0.009098225583632786,
      0.004224812922378381,
      -0.010850582271814346,
      -0.0020799346578617888,
      0.003169661077360312,
      0.0011022021062672138,
      0.0012195565893004337,
      0.005968470747272173,
      0.0005486719310283661,
      -0.009386047720909119,
      0.0015499345026910305,
      -0.005063488769034544,
      0.00694612351556619,
      -0.009165975575645764,
      -0.015687808394432068,
      0.01573084915677706,
      -0.015952022125323612,
      0.00044860263975958026,
      -0.006897088761130968,
      0.008034007002909977,
      0.001935779737929503,
      0.006277888392408689,
      -0.012226832409699757,
      0.013509194056193033,
      0.012107190986474354,
      -0.002691752898196379,
      -0.0009264708496630192,
      -0.0025824423258503275,
      0.001422576451053222,
      -0.0020394494446615377,
      -0.013523519039154053,
      -0.006244775528709093,
      0.003925730163852373,
      -0.0012074988335371017,
      0.001622143667191267,
      -0.00012475548040432233,
      0.005517051244775454,
      -0.009504922355214754,
      -0.0008567448239773512,
      0.005047334668536981,
      -0.0005293403519317508,
      -0.009811282778779665,
      0.0008977033042659361,
      0.007551530996958414,
      0.00994223915040493,
      -0.004171447517971197,
      -0.0015733459343512852,
      0.015903023382027943,
      -3.3617079490492565e-09,
      0.006278887391090393,
      -0.008261146023869514,
      0.0017947293817996979,
      0.007466973116000493,
      -0.010289575904607773,
      0.0039050566653410592,
      -0.001662563687811295,
      -0.01659052073955536,
      -0.013048513482014338,
      -0.019274044781923294,
      0.010365260764956474,
      0.007610702887177467,
      0.0009047368851800759,
      0.0020379722118377686,
      -0.004313536609212557,
      0.0011323574775209029,
      -0.0012416321939478316,
      -0.011091043551762898,
      -0.005878427376349767,
      0.005591971799731255,
      -0.003283357558151086,
      0.005021754341820875,
      -0.006546064590414365,
      0.0021433083650966482,
      -0.02624483654896418,
      0.007820319384336472,
      -0.012311252454916636,
      6.101047135113428e-05,
      0.006679730489850044,
      -0.007528064772486687,
      0.012589188913504282,
      0.01288861408829689,
      -0.00770812543729941,
      -0.0001005277057023098,
      -0.011077531923850376,
      0.012144769231478373,
      0.006740756332874298,
      0.004922530613839626,
      0.0036208160842458406,
      0.010087250421444574,
      0.006844795619448026,
      0.010941042254368464,
      -0.011524129658937454,
      0.010063859323660532,
      0.002247279354681571,
      -0.009892209122578302,
      0.021161650617917378,
      -0.006784219294786453,
      -0.00918509190281232,
      -0.026924672226111092,
      0.005029556651910146,
      -0.01338516796628634,
      0.004222239988545576,
      -0.006462966402371724,
      -0.002334958097587029,
      -0.00536048598587513,
      -0.01263853907585144,
      0.010701337208350498,
      -0.017860136926174164,
      0.014152176678180695,
      0.002439342594395081,
      7.917061157058924e-05,
      0.013347675402959187,
      -0.011736844976743061,
      -0.08833499252796173,
      0.015029437839984894,
      -0.04553261399269104,
      -0.017293989658355713,
      -0.02074623666703701,
      0.01942957378923893,
      0.06231442466378212,
      0.014192739501595497,
      -0.022604525089263916,
      -0.014760940335690975,
      0.01786773093044758,
      0.041180871427059174,
      0.000537250773049891,
      0.0062049333937466145,
      -0.06331397593021393,
      -0.025595994666218758,
      -0.0039122020825743675,
      0.03227538242936134,
      0.018378345295786858,
      -0.03641270846128464,
      0.07047712057828903,
      -0.002652970841154456,
      -0.05615583062171936,
      0.03549344837665558,
      0.05837332829833031,
      0.010007918812334538,
      -0.12957468628883362,
      0.0029068663716316223,
      0.08816748112440109,
      0.021419594064354897,
      0.030143121257424355,
      0.021673187613487244,
      0.03554936870932579,
      0.03434893488883972,
      0.03077513538300991,
      -0.011351263150572777,
      0.04996372014284134,
      0.029101209715008736,
      0.03542415425181389,
      0.06222045049071312,
      0.003940167371183634,
      -0.05021633207798004,
      -0.030187997967004776,
      -0.000319590384606272,
      0.007176808547228575,
      -0.007241740357130766,
      -0.002559815999120474,
      0.06417166441679001,
      0.030154798179864883,
      -0.041184548288583755,
      0.026656286790966988,
      0.02831476368010044,
      -0.02331584505736828,
      -0.07494152337312698,
      -0.02088990993797779,
      -0.0033879228867590427,
      0.11078834533691406,
      0.0011585799511522055,
      0.005279222968965769,
      -0.05773807689547539,
      0.043977610766887665,
      -0.025048647075891495,
      -0.02947392873466015,
      0.011140616610646248,
      -0.028452452272176743,
      0.028314346447587013,
      -0.019401611760258675,
      0.044611092656850815,
      0.0025232690386474133,
      0.12131891399621964,
      0.0037747712340205908,
      -0.004229626152664423,
      0.001465757843106985,
      0.08740272372961044,
      -0.0047658588737249374,
      0.016677895560860634,
      0.1416323035955429,
      -0.06727294623851776,
      0.03161192312836647,
      0.1103997528553009,
      -0.010410470888018608,
      -0.06520982831716537,
      0.0443454384803772,
      -0.007778513710945845,
      0.028541728854179382,
      -0.07633649557828903,
      -0.08384310454130173,
      0.04928654432296753,
      0.08842703700065613,
      0.03245602548122406,
      -0.07827776670455933,
      -0.06113550439476967,
      0.0241923239082098,
      -0.10364760458469391,
      0.013425348326563835,
      0.004789843689650297,
      0.03128037974238396,
      3.8861180655658245e-06,
      -0.024585893377661705,
      0.026897693052887917,
      -0.021296793594956398,
      0.0019045287044718862,
      0.017175281420350075,
      -0.08721715956926346,
      -0.018390951678156853,
      0.06750378012657166,
      0.0020402157679200172,
      -0.032041072845458984,
      0.054926786571741104,
      -0.07752825319766998,
      -0.02716263197362423,
      -0.10432641953229904,
      0.08273299783468246,
      0.02820437215268612,
      0.044139984995126724,
      -0.01963065378367901,
      0.05625547096133232,
      0.025606321170926094,
      -0.03265702724456787,
      0.074442058801651,
      0.0408470593392849,
      -0.020541835576295853,
      0.02683827467262745,
      0.052027035504579544,
      -0.03306423872709274,
      -0.06635233759880066,
      0.042817775160074234,
      -2.3965574748381703e-33,
      -0.0483640655875206,
      0.041069068014621735,
      0.057226549834012985,
      -0.05838431045413017,
      -0.08163215965032578,
      0.018297838047146797,
      -0.0540478490293026,
      0.006359543651342392,
      -0.10046908259391785,
      0.039582159370183945,
      0.03404798358678818,
      0.01861676387488842,
      -0.001735701342113316,
      0.0116182966157794,
      -0.03266685828566551,
      0.1302339732646942,
      0.0599229633808136,
      -0.03323837369680405,
      0.0018283555982634425,
      -0.12948963046073914,
      -0.007489560637623072,
      0.03681676834821701,
      -0.028128918260335922,
      -0.08544310182332993,
      -0.033136118203401566,
      -0.06959492713212967,
      0.029546638950705528,
      -0.0813482329249382,
      0.014762097038328648,
      0.04243650659918785,
      -0.1152820885181427,
      -0.03508301451802254,
      0.004761327523738146,
      0.033997174352407455,
      0.03694949299097061,
      0.050908107310533524,
      -0.02175714075565338,
      0.007481598295271397,
      -0.026035889983177185,
      -0.04180006682872772,
      -0.003383299568668008,
      0.011036776937544346,
      -0.05758742243051529,
      0.0038070373702794313,
      0.013746412470936775,
      0.004160028416663408,
      -0.001201313454657793,
      -0.004341463558375835,
      -0.03284189850091934,
      -0.018167901784181595,
      -0.0176168754696846,
      0.012462744489312172,
      -0.04026303440332413,
      0.04188239946961403,
      -0.017974257469177246,
      -0.037680864334106445,
      0.10653632879257202,
      0.09562032669782639,
      -0.029579423367977142,
      -0.03195074945688248,
      0.010269136168062687,
      -0.03607258200645447,
      -0.02602907456457615,
      -0.0537438839673996,
      -0.04056491702795029,
      -0.007977470755577087,
      -0.04962232708930969,
      0.00836377963423729,
      0.08720564097166061,
      0.026852088049054146,
      -0.046610161662101746,
      -0.04109394922852516,
      -0.0359303243458271,
      0.05815531685948372,
      -0.06949827075004578,
      -0.0549454540014267,
      0.009249825961887836,
      -0.03879426419734955,
      0.017322110012173653,
      0.05359671637415886,
      -0.07119669020175934,
      0.033890217542648315,
      -0.03191141039133072,
      -0.03848674148321152,
      -0.00636369688436389,
      -0.09210770577192307,
      0.005370811093598604,
      -0.046609342098236084,
      -0.07122880220413208,
      -0.042900294065475464,
      -0.07174654304981232,
      -0.05277068540453911,
      0.002615548437461257,
      0.008256775327026844,
      0.008891250938177109,
      -1.9390343186760043e-33,
      -0.06839057058095932,
      0.06951980292797089,
      -0.04273844137787819,
      0.0460936464369297,
      -0.11025813221931458,
      -0.07441066950559616,
      0.1297607272863388,
      0.12041398137807846,
      -0.012783252634108067,
      -0.04099249094724655,
      -0.05889032781124115,
      -0.05962073430418968,
      -0.002448327373713255,
      0.011691744439303875,
      0.07190794497728348,
      0.03239509463310242,
      -0.04261472448706627,
      0.05692259594798088,
      0.03332482650876045,
      0.041838742792606354,
      -0.06560970842838287,
      0.03826248273253441,
      0.04080357402563095,
      0.08382341265678406,
      0.026471136137843132,
      0.03411334380507469,
      -0.03526769578456879,
      -0.03655550256371498,
      0.03140365704894066,
      0.033006370067596436,
      -0.06617499142885208,
      0.05570751801133156,
      0.03209981694817543,
      0.012854065746068954,
      -0.1075425073504448,
      0.05544823035597801,
      -0.023261358961462975,
      -0.023258430883288383,
      -0.024724800139665604,
      0.00033670131233520806,
      0.06981969624757767,
      0.07691934704780579,
      0.1362125128507614,
      0.030360346660017967,
      0.005283416714519262,
      0.012342275120317936,
      -0.022693442180752754,
      0.07070234417915344,
      0.03680656477808952,
      -0.10845184326171875,
      -0.03222274035215378,
      -0.003042370779439807,
      -0.034138478338718414,
      0.11339353770017624,
      0.08261197060346603,
      -0.044337429106235504,
      -0.06914395838975906,
      0.043044235557317734,
      -0.08666882663965225,
      0.038689326494932175,
      -0.04272520914673805,
      -0.04359976574778557,
      0.004592781886458397,
      -0.09878929704427719,
      0.01993190310895443,
      0.02501286007463932,
      0.05094478651881218,
      -0.0004794398555532098,
      -0.0195548627525568,
      -0.10577179491519928,
      0.11334435641765594,
      0.0928795114159584,
      -0.04784974083304405,
      -0.006493387743830681,
      -0.04184678941965103,
      -0.005125345196574926,
      -0.046436574310064316,
      -0.014612609520554543,
      -0.07818201929330826,
      -0.0488392598927021,
      -0.05030929669737816,
      0.013887071050703526,
      -0.02687707170844078,
      -7.668686157558113e-05,
      -0.056573547422885895,
      -0.040744177997112274,
      0.09177123010158539,
      0.1043727844953537,
      -0.0024454633239656687,
      -0.011781919747591019,
      0.005057763308286667,
      0.04201224818825722,
      -0.05220406875014305,
      0.04702044650912285,
      0.0627327710390091,
      -2.3749480604351447e-08,
      0.005136807914823294,
      -0.0036911300849169493,
      0.06778109818696976,
      -0.050809986889362335,
      -0.06801732629537582,
      0.017960723489522934,
      0.04793476313352585,
      -0.07162284851074219,
      0.022285616025328636,
      -0.07925297319889069,
      0.06686104089021683,
      0.012507463805377483,
      -0.010681415908038616,
      0.00013213760394137353,
      0.007658997550606728,
      -0.006713775917887688,
      0.000253604055615142,
      -0.012162305414676666,
      -0.0072342464700341225,
      0.016984615474939346,
      -0.012566102668642998,
      -0.04706575721502304,
      -0.019378740340471268,
      -0.04199586436152458,
      -0.12232259660959244,
      -0.0006851251237094402,
      -0.06965577602386475,
      0.0033055387903004885,
      0.07162703573703766,
      -0.04116557165980339,
      0.061706315726041794,
      0.019445637241005898,
      -0.0159025676548481,
      0.04405801370739937,
      -0.014080595225095749,
      0.036231424659490585,
      -0.03947069123387337,
      0.07149728387594223,
      0.06422334164381027,
      0.039122000336647034,
      -0.010985552333295345,
      0.03406146913766861,
      -0.10198722779750824,
      0.03701936453580856,
      0.006324440240859985,
      0.03996119648218155,
      0.05236667022109032,
      0.007086007855832577,
      -0.07116901874542236,
      -0.11211923509836197,
      0.0063646696507930756,
      -0.11940189450979233,
      -0.026267271488904953,
      -0.027593661099672318,
      0.033275000751018524,
      -0.036430854350328445,
      -0.02770153246819973,
      0.04744787514209747,
      -0.04034477099776268,
      0.04426824674010277,
      0.016478702425956726,
      0.006357430946081877,
      0.05943552404642105,
      -0.009944400750100613,
      0.17050925846051532,
      0.1513969976857479,
      0.17691490749110533,
      0.16980886974166745,
      0.1670812877277055,
      0.16428867889325835,
      0.18454299720779233,
      0.14755838409271446,
      0.16269984854127215,
      0.18626242730572592,
      0.1597093759840309,
      0.1592269668684644,
      0.1747064917914288,
      0.15079235407294436,
      0.20002965890648097,
      0.15926106280957497,
      0.15962534343637358,
      0.1555850889831973,
      0.17858768240732092,
      0.13462071657262323,
      0.17357384570651857,
      0.1913816220169449,
      0.16543621129484115,
      0.1563999220017511,
      0.17802237789990788,
      0.15142990186215707,
      0.17414663650529053,
      0.17913333845824594,
      0.1631989997437014,
      0.15406874553069727,
      0.18940531101903682,
      0.14670135455388716,
      0.17073344818595024,
      0.17035964748228283,
      0.17538698559317797,
      0.14741325316566495,
      0.18454299720779233,
      0.14755838409271446,
      0.16269984854127215,
      0.18626242730572592,
      0.1597093759840309,
      0.1592269668684644,
      0.16902819767055519,
      0.17846063857637964,
      0.17302020835057358,
      0.1653689771467664,
      0.15547210499697206,
      0.15864987325875324,
      0.18810604558955848,
      0.15754318035028636
    ],
    "semantic_features": [
      0.023720860481262207,
      0.0798790454864502,
      -0.06310808658599854,
      0.10286855697631836,
      0.11171538382768631,
      0.19829237461090088,
      0.059950895607471466,
      0.12175384163856506,
      0.08909079432487488,
      -0.04595673829317093,
      -0.021761346608400345
    ],
    "explanation_vector": [
      -0.0017774918237057488,
      0.0012288155723844687,
      -0.0015908700242110217,
      -0.007523229116514736,
      -0.013800946263321212,
      0.0016674537593176577,
      0.0026629327880384585,
      0.0033656859874788064,
      -0.002643946266800356,
      0.0025147914428228627,
      0.006125296057848059,
      0.0009175803642049304,
      -0.003083370862371599,
      -0.0020248315789699795,
      -0.006932190750450174,
      -0.0030672318612944287,
      -0.007899230821261859,
      0.008603104986572959,
      0.004440610410493081,
      -0.005161093749278019,
      -0.0017145034590017182,
      -9.813462259778692e-05,
      -0.0026266164012877452,
      0.0016221907545691792,
      0.00234963865888935,
      0.008074710869201652,
      -0.01111245628982268,
      0.0026519204782699847,
      0.0027176486277403697,
      0.004706604917739654,
      -0.0009774023836709145,
      -0.0057574340509160245,
      -0.000709505729372297,
      0.0017091575132208781,
      0.00030363724913344,
      0.0013020393969969965,
      -0.005325096492724128,
      -0.002689150524891902,
      0.006035596086089933,
      0.0044086956419056725,
      -0.002805179951722249,
      -0.006049582968111281,
      0.0011816479811041236,
      7.588819709194356e-05,
      0.0034036020755689672,
      -0.0004445743872602915,
      -0.005473354335547538,
      0.009396625355515503,
      -1.2273336475127928e-05,
      -0.002185028933035344,
      0.0741824209690094,
      0.24980632960796356,
      -0.1973583847284317,
      0.3217015862464905,
      0.3493683338165283,
      0.6201211810112,
      0.18748487532138824,
      0.38076168298721313,
      0.2786143124103546,
      -0.1437208503484726,
      -0.06805442273616791,
      94.0,
      55.0
    ]
  },
  "root_cause_analysis": {
    "primary_cause": "Unknown cause",
    "causal_factors": [],
    "causal_graph": "DiGraph with 17 nodes and 56 edges",
    "counterfactual_scenarios": [
      {
        "intervention_type": "output_length_control",
        "target_node": "output_length",
        "current_value": 55,
        "counterfactual_value": 174,
        "description": "Adjust output length to match reference (174 characters)",
        "expected_impact": 0.5
      },
      {
        "intervention_type": "attention_regulation",
        "target_node": "attention_variance",
        "description": "Apply attention regularization to improve focus distribution",
        "expected_impact": 0.8
      },
      {
        "intervention_type": "attention_regulation",
        "target_node": "attention_concentration",
        "description": "Apply attention regularization to improve focus distribution",
        "expected_impact": 0.8
      }
    ],
    "confidence_score": 0.0,
    "explanation_text": "### Root Cause Analysis Report\n\n#### 1. Analysis of Input Intent:\nThe input data requests a function that checks whether a given string is a palindrome, meaning it reads the same forwards and backwards. The primary function is to verify palindromic properties in strings.\n\n#### 2. Key Discrepancies Observed:\n- **Model Output (Failed):** Does not handle non-alphanumeric characters or case sensitivity.\n- **Reference Output (Correct):** Removes non-alphanumeric characters, converts the string to lowercase before checking for palindrome.\n\n#### 3. Explanation of Failure:\nThe discrepancies between the model output and the reference output indicate that the failure stems from a logical error in handling input preprocessing. The model's function only checks if the original string is the same when reversed (`s == s[::-1]`), without addressing non-alphanumeric characters or case differences. In contrast, the correct approach preprocesses the string to remove such characters and converts it to lowercase to ensure an accurate palindrome check.\n\n#### 4. Inferred Root Cause:\nThe root cause of the failure is the model's misunderstanding of the preprocessing requirements for accurately checking palindromes in strings. It did not consider that palindromic checks should be case-insensitive and ignore non-alphanumeric characters, leading to a logical error in its implementation. This indicates a need for improved natural language understanding or additional training data that covers such preprocessing steps.",
    "intervention_recommendations": [
      "Intervention: Adjust output length to match reference (174 characters)",
      "Intervention: Apply attention regularization to improve focus distribution"
    ]
  },
  "recommendation_suite": {
    "instance_id": "nl2code_003",
    "failure_category": "Logical Error",
    "recommendations": [
      {
        "recommendation_id": "nl2code_003_custom_attention_regulation",
        "recommendation_type": "RecommendationType.PROMPT_ENGINEERING",
        "stakeholder_type": "StakeholderType.DEVELOPER",
        "title": "Counterfactual Intervention: attention_regulation",
        "description": "Apply attention regularization to improve focus distribution",
        "implementation_steps": [
          "Analyze counterfactual scenario",
          "Implement proposed intervention",
          "Validate effectiveness"
        ],
        "expected_impact": 0.8,
        "implementation_effort": 0.4,
        "confidence": 0.0,
        "priority_score": 0.0,
        "evidence": [
          "Derived from counterfactual analysis"
        ],
        "constraints": [
          "Requires careful validation"
        ]
      }
    ],
    "optimization_strategy": {
      "target_stakeholder": "multi_stakeholder",
      "optimization_method": "pareto_optimal",
      "adaptive_learning": true
    },
    "stakeholder_alignment": {
      "StakeholderType.DEVELOPER": 0.0,
      "StakeholderType.MANAGER": 0.0,
      "StakeholderType.RESEARCHER": 0.0,
      "StakeholderType.END_USER": 0.0
    },
    "overall_confidence": 0.0,
    "implementation_roadmap": [
      {
        "phase": 1,
        "recommendations": [
          "nl2code_003_custom_attention_regulation"
        ],
        "total_effort": 0.4,
        "expected_impact": 0.8
      }
    ]
  },
  "processing_time": 57.52502918243408,
  "confidence_score": 0.24,
  "quality_metrics": {
    "length_score": 0.5533333333333333,
    "readability_score": 0.808294930875576,
    "structure_score": 1.0,
    "overall_quality": 0.904147465437788
  },
  "markdown_report": "# Explainability Report: nl2code_003\n\n## 1. Summary\n\n- **Input ID:** `nl2code_003`\n- **Task Type:** `NL2CODE`\n- **Status:** **FAIL**\n- **Failure Category:** `Logical Error`\n- **Confidence Score:** `0.600`\n- **Analysis Timestamp:** `2025-08-07 14:39:38`\n\n---\n\n## 2. Detailed Analysis\n\n### Input\n\n```\nWrite a function to check if a string is a palindrome (reads the same forwards and backwards).\n```\n\n### Model Output (Failed)\n\n```\n\ndef is_palindrome(s):\n    return s == s[::-1]\n        \n```\n\n### Reference Output (Correct)\n\n```\n\ndef is_palindrome(s):\n    # Remove non-alphanumeric characters and convert to lowercase\n    s = ''.join(c.lower() for c in s if c.isalnum())\n    return s == s[::-1]\n        \n```\n\n---\n\n## 3. Root Cause Analysis\n\n### Root Cause Analysis Report\n\n#### 1. Analysis of Input Intent:\nThe input data requests a function that checks whether a given string is a palindrome, meaning it reads the same forwards and backwards. The primary function is to verify palindromic properties in strings.\n\n#### 2. Key Discrepancies Observed:\n- **Model Output (Failed):** Does not handle non-alphanumeric characters or case sensitivity.\n- **Reference Output (Correct):** Removes non-alphanumeric characters, converts the string to lowercase before checking for palindrome.\n\n#### 3. Explanation of Failure:\nThe discrepancies between the model output and the reference output indicate that the failure stems from a logical error in handling input preprocessing. The model's function only checks if the original string is the same when reversed (`s == s[::-1]`), without addressing non-alphanumeric characters or case differences. In contrast, the correct approach preprocesses the string to remove such characters and converts it to lowercase to ensure an accurate palindrome check.\n\n#### 4. Inferred Root Cause:\nThe root cause of the failure is the model's misunderstanding of the preprocessing requirements for accurately checking palindromes in strings. It did not consider that palindromic checks should be case-insensitive and ignore non-alphanumeric characters, leading to a logical error in its implementation. This indicates a need for improved natural language understanding or additional training data that covers such preprocessing steps.\n\n### Causal Factors\n\nNo significant causal factors identified.\n\n### Counterfactual Analysis\n\n\n**Scenario 1: output_length_control**\n- **Description:** Adjust output length to match reference (174 characters)\n- **Expected Impact:** 0.500\n\n\n**Scenario 2: attention_regulation**\n- **Description:** Apply attention regularization to improve focus distribution\n- **Expected Impact:** 0.800\n\n\n**Scenario 3: attention_regulation**\n- **Description:** Apply attention regularization to improve focus distribution\n- **Expected Impact:** 0.800\n\n\n---\n\n## 4. Actionable Recommendations\n\n\n### Prompt Engineering\n\n**1. Counterfactual Intervention: attention_regulation**\n- **Description:** Apply attention regularization to improve focus distribution\n- **Expected Impact:** 0.80\n- **Implementation Effort:** 0.40\n- **Confidence:** 0.00\n\n*Implementation Steps:*\n- Analyze counterfactual scenario\n- Implement proposed intervention\n- Validate effectiveness\n\n\n\n---\n\n## 5. Technical Analysis\n\n### Classification Details\n- **Primary Category:** Logical Error\n- **Sub-categories:** low_severity, simple_failure, llm_validated_Logical Error\n- **Semantic Features:** Vector length: 11, Max value: 0.198\n- **Attention Patterns:** Attention variance: 0.003, Max attention: 0.200\n\n### Confidence Metrics\n- **Classification Confidence:** 0.600\n- **Root Cause Confidence:** 0.000\n- **Overall Confidence:** 0.000\n\n### Performance Metrics\n- **Processing Time:** 0.00 seconds\n- **Quality Score:** 0.000\n\n---\n\n## 6. Implementation Roadmap\n\n\n**Phase 1**\n- **Recommendations:** 1 items\n- **Total Effort:** 0.40\n- **Expected Impact:** 0.80\n\n\n---\n\n*Report generated by LLM Explainability Framework v1.0.0*\n"
}