{
  "instance_id": "nl2code_002",
  "timestamp": "2025-08-07 14:36:17",
  "task_type": "NL2CODE",
  "failure_classification": {
    "failure_category": "Logical Error",
    "confidence_score": 0.6,
    "sub_categories": [
      "low_severity",
      "simple_failure",
      "llm_validated_Logical Error"
    ],
    "attention_weights": [
      -0.0013327023945748806,
      0.011084732413291932,
      -0.009489987045526505,
      -0.002791903540492058,
      0.0014389781281352043,
      -0.005011445656418801,
      -0.0011212787590920926,
      0.0007312055677175522,
      -0.0017584552988409996,
      -0.0013810337521135809,
      0.0034292370080947878,
      -0.0008548075333237649,
      0.006752605736255646,
      0.00850796401500702,
      -0.005332258716225624,
      -0.004873001575469971,
      -0.006799343228340149,
      0.005695768818259239,
      -0.004234117269515991,
      -0.002450205385684967,
      -0.00262476596981287,
      0.0009209471754729748,
      -0.004989708214998246,
      0.009250299632549286,
      0.0020296718925237657,
      -0.0061012633144855504,
      -0.005064158514142037,
      -0.006387846171855927,
      0.0018347837030887604,
      -0.0037153638899326325,
      0.007417973130941391,
      0.0027278658002614976,
      0.00532761886715889,
      0.0006797229405492545,
      -0.0017954031005501748,
      -0.0020352162420749667,
      0.0027194760739803316,
      -0.002390830032527447,
      0.004779738932847977,
      0.00014245482161641122,
      -0.01028764694929123,
      -0.002291921712458134,
      -0.004982550069689751,
      0.002379570528864861,
      -0.005218997970223427,
      -0.0007395046763122083,
      -0.00030203352216631176,
      0.0057230152189731605,
      0.0036144167184829715,
      0.003576670214533806,
      0.001682470925152302,
      0.005593839660286904,
      -0.005660175904631615,
      -0.00032822641078382735,
      0.005001058056950569,
      -0.0037363436073064808,
      -0.004671697691082955,
      -0.001146836020052433,
      -0.004524332284927368,
      0.0015343844890594483,
      -0.0053916208446025855,
      0.0030465224757790566,
      0.003995838761329651,
      -0.009266004711389542,
      0.0046897586435079575,
      0.0013626759871840479,
      -0.0004500009119510651,
      0.0005244988948106766,
      -0.004601222276687622,
      0.009831704199314117,
      0.002848757989704609,
      0.003926164284348488,
      0.001266940962523222,
      0.0017500268295407295,
      -0.0013887309469282627,
      0.007437219470739365,
      -0.00746179074048996,
      -0.00024844363797456027,
      -0.00018427621107548476,
      0.010520329326391221,
      -0.0030449917539954185,
      -0.0045879118144512175,
      0.002060423046350479,
      0.0005008163396269084,
      0.0019041443243622781,
      -0.000760914059355855,
      -0.0003867760067805648,
      0.009877797216176987,
      0.011615079641342164,
      -0.00626545324921608,
      -0.004629264026880265,
      0.012442182004451753,
      0.005577776208519936,
      -0.002273927815258503,
      -0.0009918889030814172,
      -0.00011742246570065618,
      -0.003049024008214474,
      -0.0028435641899704936,
      -0.0023280864581465724,
      0.002742066979408264,
      -0.008905327320098877,
      0.0018923873081803323,
      -0.0015985094010829927,
      -0.004639271274209023,
      0.002859604917466641,
      -6.361521664075554e-05,
      0.006358448415994644,
      -0.0008634450845420361,
      0.0012084463611245157,
      -0.0026540691033005714,
      0.0041910503059625626,
      -0.0012659144587814808,
      0.0017154367640614511,
      -0.0005267387256026268,
      0.001212185434997082,
      -0.003977299109101296,
      0.0009836643002927303,
      0.0015182817354798318,
      -1.3277152902446687e-05,
      -0.002434962242841721,
      0.0036668796092271805,
      -0.0024825336411595346,
      0.00605132207274437,
      0.010066675394773484,
      0.005493446439504624,
      -0.0004253274761140347,
      0.0034567836672067644,
      -1.5510482655207e-34,
      -0.0036046214401721957,
      -0.0038910023868083954,
      0.0008521261624991894,
      0.0072082079946994785,
      -0.0022114573046565058,
      0.006166628748178482,
      -0.005044284090399743,
      -0.002976739220321179,
      -0.006901885569095612,
      0.0007907293736934663,
      0.003364215046167374,
      0.0014892629347741605,
      0.009041666984558105,
      -0.008491884917020798,
      0.009811490774154663,
      -0.004532483220100403,
      0.007768357545137406,
      -0.0017945678904652596,
      0.0012287992984056475,
      -0.004272352159023285,
      0.004648515954613686,
      -0.005149037390947343,
      -0.004871971160173416,
      -0.0003222241532057524,
      0.007478194683790207,
      -0.0018302854150533676,
      -0.007699055224657059,
      -0.008445390313863755,
      0.011647979170084,
      0.0029393477365374566,
      -0.007548031955957413,
      0.005956968665122986,
      -0.0026026787236332893,
      -0.003245437517762184,
      0.0037619739770889285,
      0.0031765311956405643,
      -0.008267593383789063,
      0.006249591335654259,
      0.004800460860133172,
      0.0070037879049777985,
      -0.0038256272673606873,
      -0.007091453671455384,
      0.002000226825475693,
      0.0034561622887849808,
      0.008894364535808564,
      -0.004471075907349587,
      0.003004916198551655,
      0.012717774510383606,
      0.0006015388295054436,
      0.0008630286902189255,
      -0.007606960088014603,
      0.0029573705047369007,
      0.002643232420086861,
      0.0034077055752277374,
      -0.00613488182425499,
      -0.004030156880617142,
      0.003501715883612633,
      -0.0025286030024290087,
      -0.0071244783699512485,
      -0.005587365850806237,
      -0.0027001554146409037,
      0.0029122097417712215,
      -0.008498578518629075,
      -0.006344875693321228,
      -0.004987332224845886,
      -0.0006399376783519984,
      -0.0056412450969219215,
      -0.0028401877731084827,
      -0.002543347142636776,
      0.0020179707556962968,
      -0.006368476897478104,
      -0.003131552040576935,
      0.0038456026464700702,
      0.0006630021613091231,
      -0.008628740161657334,
      -0.007232175767421723,
      0.009410035610198975,
      9.434709209017457e-05,
      0.0010256689041852952,
      -0.010057787597179414,
      0.003994150459766388,
      0.00049206567928195,
      0.00790809690952301,
      -0.0001859754091128707,
      0.005459654703736306,
      -0.005687220394611359,
      -0.0027979912236332895,
      0.0070657946169376375,
      -0.010352624952793122,
      0.00030505331233143806,
      -0.0017627496272325516,
      -0.005276302620768548,
      0.00353330671787262,
      -0.0016281947493553162,
      0.005979450047016144,
      -1.9110600556437042e-35,
      -0.005709123983979225,
      0.008932245522737503,
      -1.9770713697653265e-05,
      0.005995602905750275,
      -0.006632027029991151,
      -0.0009355343878269196,
      0.0074858002364635474,
      -0.003972962498664856,
      0.0015874871984124185,
      0.001888480968773365,
      -0.0042825136333703995,
      -0.0005725295282900334,
      -0.0028264058753848078,
      0.009210687875747681,
      -0.0031787212938070297,
      0.00013773422688245773,
      -0.005557772889733315,
      0.01141554042696953,
      -0.0008960377424955369,
      0.006314423680305482,
      0.0029199358075857164,
      0.005247129499912262,
      -0.004575968161225319,
      0.006549465656280518,
      -0.0028981205075979235,
      0.007761919498443604,
      -0.0020907819271087646,
      -0.0023759329691529275,
      0.001133481040596962,
      -0.0009235037490725518,
      -0.0084270179271698,
      -0.0015761757269501687,
      0.006185450777411461,
      -0.016227784752845763,
      0.0040454819798469545,
      -0.01073594018816948,
      -0.0003406659467145801,
      -0.007529013603925706,
      0.004234141483902931,
      -0.006879315525293351,
      -0.0012711960822343828,
      -0.0007863924838602543,
      6.885359762236476e-05,
      0.002179388515651226,
      0.006852389872074128,
      0.0004686806816607714,
      0.004423468932509423,
      0.0025614505633711816,
      -0.0033891413360834124,
      -0.008058806508779525,
      -0.004308255016803742,
      0.008623337000608444,
      -0.008844331651926041,
      0.0069139264523983,
      0.004758770018815995,
      9.841701248660684e-05,
      -0.0020159604027867317,
      0.00815521851181984,
      0.0022772643715143204,
      0.0062876842916011816,
      -0.0046155575662851335,
      0.0011191410943865777,
      0.0031726408749818804,
      -0.0008284656330943108,
      -0.0015018626116216184,
      0.00342051237821579,
      -0.0028516812250018123,
      0.006106837093830109,
      0.0013798459433019162,
      0.004172888770699501,
      0.007048261910676957,
      0.013895951211452484,
      0.0048207461833953864,
      -0.0014326991513371468,
      -0.011514449864625931,
      -0.007409393787384033,
      -0.0016283854842185975,
      -0.0003001048928126693,
      0.004393601790070534,
      0.012159478664398194,
      0.00422055795788765,
      0.0033703729510307315,
      0.0007525180000811816,
      0.0006757734809070826,
      -0.007422923296689987,
      -0.0006894333753734828,
      0.007241509854793549,
      -0.001610599271953106,
      -0.002325846441090107,
      -0.005012189596891404,
      -0.0034460615366697315,
      -0.0001417004968971014,
      0.004025007039308548,
      -0.0005577017087489367,
      0.0006649972870945931,
      -1.8162552350986517e-09,
      0.0029228787869215013,
      -0.003955633193254471,
      -0.0030729910358786583,
      -0.002256309799849987,
      0.0007836997509002686,
      0.0027989938855171206,
      -0.004218003898859024,
      -0.009776110202074051,
      0.005720328912138939,
      -0.007850874960422517,
      0.0018387217074632646,
      0.001884930394589901,
      -0.006072452291846275,
      -0.004071171581745148,
      -0.0006876267958432436,
      0.0008218454197049141,
      0.008022937923669815,
      -0.0014996160753071308,
      -0.006949243694543839,
      0.00014370341086760165,
      -0.0028428209945559504,
      -0.001757335476577282,
      0.004171944037079811,
      0.001248462311923504,
      0.0036617662757635117,
      -0.005903781950473786,
      -0.0019741300493478775,
      0.0029144858941435817,
      0.008687780797481537,
      -0.0024742264300584797,
      -0.0010213490575551986,
      -0.0073148787021636965,
      0.0031127531081438066,
      0.004418623447418213,
      -0.0026535680517554283,
      0.002414402551949024,
      0.0014011435210704805,
      0.012040796875953675,
      0.002887088805437088,
      -0.009223508834838868,
      -0.004911672696471215,
      -0.0017072299495339395,
      -0.0036461304873228076,
      -3.821853315457702e-05,
      -3.8158870302140714e-05,
      -0.003924721106886864,
      0.0007337495218962431,
      -0.009030327945947648,
      -0.00012926539639011026,
      -0.0010208568535745143,
      -0.0036673627793788913,
      0.009210065752267838,
      -0.00479780100286007,
      0.005866875872015953,
      -0.00645618811249733,
      -0.006701761484146119,
      -0.0072860665619373325,
      -0.003208870440721512,
      -0.006322851032018662,
      0.005953842028975487,
      0.0031847920268774036,
      0.0033905629068613054,
      0.0007569180335849524,
      -0.0006384141743183136,
      0.0055928644724190235,
      0.07456298172473907,
      -0.07281943410634995,
      0.011527510359883308,
      -0.043306879699230194,
      -0.07994906604290009,
      -0.06827359646558762,
      -0.0005867762956768274,
      0.03508581966161728,
      -0.02006019651889801,
      0.049146492034196854,
      -0.03889983147382736,
      0.031996577978134155,
      0.09986421465873718,
      0.08396308124065399,
      0.029364867135882378,
      -0.0813823938369751,
      0.08627178519964218,
      -0.07347509264945984,
      -0.056321438401937485,
      0.032372258603572845,
      0.048846881836652756,
      -0.012524054385721684,
      0.09598308801651001,
      0.07265692949295044,
      -0.04147382453083992,
      -0.04182720556855202,
      -0.03146139904856682,
      0.03078584000468254,
      -0.041670575737953186,
      0.06300196796655655,
      0.02621198073029518,
      0.07343935966491699,
      0.006418320350348949,
      -0.04327864944934845,
      -0.04472072422504425,
      0.005243308842182159,
      -0.05438833311200142,
      0.036514151841402054,
      0.008471240289509296,
      -0.03991416469216347,
      -0.04316196218132973,
      -0.03999859839677811,
      0.05017339438199997,
      -0.05886562541127205,
      0.07013050466775894,
      -0.02767428196966648,
      0.06373713165521622,
      0.060237810015678406,
      0.040624067187309265,
      -0.02034951187670231,
      0.10337480157613754,
      -0.1331448256969452,
      0.026759035885334015,
      0.04488067701458931,
      0.02048482373356819,
      -0.026530396193265915,
      0.03866629675030708,
      -0.021474063396453857,
      -0.060744207352399826,
      -0.08168113976716995,
      0.010655432939529419,
      -0.04016746208071709,
      -0.01908791810274124,
      0.060952529311180115,
      -0.06790167838335037,
      -0.015948906540870667,
      -0.030660443007946014,
      -0.04981620982289314,
      0.004650782328099012,
      -0.00038020554347895086,
      0.0374702587723732,
      0.031878504902124405,
      -0.04193562641739845,
      -0.003836269024759531,
      0.002508200705051422,
      -0.057940494269132614,
      -0.009680288843810558,
      -0.02342059835791588,
      0.09156369417905807,
      -0.06689866632223129,
      -0.02224041149020195,
      -0.005798669531941414,
      0.07243793457746506,
      0.0373760387301445,
      -0.13909274339675903,
      0.0072906422428786755,
      0.03292959928512573,
      0.09593206644058228,
      -0.029330553486943245,
      0.037547748535871506,
      0.03737800195813179,
      0.01263162400573492,
      -0.04147409647703171,
      0.0014504730934277177,
      -0.003190603805705905,
      0.0174910556524992,
      -0.049919214099645615,
      0.019603747874498367,
      0.032772429287433624,
      -0.046528544276952744,
      0.028835931792855263,
      -0.05498040094971657,
      -0.0840405598282814,
      -0.021848032251000404,
      -9.283758117817342e-05,
      0.03910296410322189,
      0.0034046380314975977,
      0.07758216559886932,
      -0.00812884233891964,
      0.05477609857916832,
      -0.032845813781023026,
      0.02406405098736286,
      0.017745429649949074,
      0.010498873889446259,
      -0.029352247714996338,
      -0.05227255821228027,
      -0.041023336350917816,
      0.026473695412278175,
      0.006414860021322966,
      0.06400632858276367,
      0.050916340202093124,
      0.04564235359430313,
      0.07753986865282059,
      0.046866241842508316,
      0.05449245870113373,
      0.028745723888278008,
      -1.4815926205989304e-33,
      -0.10459563881158829,
      -0.04733622819185257,
      0.049887269735336304,
      0.11484406143426895,
      -0.028685392811894417,
      0.04238967224955559,
      -0.0687866061925888,
      0.0020648399367928505,
      -0.012370261363685131,
      0.013830477371811867,
      -0.040906861424446106,
      0.03626101091504097,
      0.12775850296020508,
      -0.025403833016753197,
      0.05499855801463127,
      0.03455525264143944,
      0.005508282221853733,
      0.027114754542708397,
      -0.04456248879432678,
      0.04100067913532257,
      -0.04038423299789429,
      0.057579491287469864,
      0.01890769973397255,
      0.043011877685785294,
      -0.03428436815738678,
      -0.08211327344179153,
      -0.05813964456319809,
      -0.004483766388148069,
      -0.02259131520986557,
      0.03140490502119064,
      -0.023976441472768784,
      0.00532010942697525,
      -0.025756262242794037,
      -0.03659435361623764,
      -0.005437398329377174,
      0.06342918425798416,
      0.05046914145350456,
      0.05565490946173668,
      0.007637187838554382,
      0.02945478819310665,
      -0.01541691180318594,
      -0.08145692199468613,
      0.0030402119737118483,
      0.0002568165073171258,
      -0.005387985613197088,
      -0.056971922516822815,
      -0.04157818481326103,
      0.05049373209476471,
      0.05352983996272087,
      0.06242445483803749,
      -0.034651800990104675,
      -0.033758897334337234,
      0.08427733182907104,
      0.015066352672874928,
      0.007711528334766626,
      0.008267572149634361,
      0.059080272912979126,
      0.04055192694067955,
      -0.06703758984804153,
      0.006694372743368149,
      0.00543120875954628,
      0.08333311229944229,
      -0.021913189440965652,
      0.00498801376670599,
      -0.15155667066574097,
      0.009109781123697758,
      0.028275083750486374,
      0.02103082835674286,
      0.002386596752330661,
      0.06887754797935486,
      -0.06120481714606285,
      -0.017360538244247437,
      -0.007672593928873539,
      0.02287905476987362,
      -0.06685151904821396,
      -0.08219579607248306,
      0.0038356101140379906,
      -0.047727808356285095,
      0.03585054352879524,
      -0.003428347408771515,
      -0.0010631578043103218,
      0.05886983498930931,
      0.07152476161718369,
      -0.006122825667262077,
      0.016144877299666405,
      0.006015877239406109,
      0.002862017834559083,
      0.04976430907845497,
      -0.020925372838974,
      -0.10629492998123169,
      -0.08364912122488022,
      -0.07974468916654587,
      0.10692082345485687,
      -0.05556649714708328,
      0.06512898206710815,
      -7.840930274003637e-34,
      -0.009773249737918377,
      0.06786664575338364,
      0.005452054087072611,
      -0.003816948737949133,
      -0.03835911676287651,
      -0.03622199594974518,
      0.07490713149309158,
      -0.06427370011806488,
      0.04579101875424385,
      0.09700500220060349,
      -0.05192897096276283,
      -0.04207358509302139,
      -0.01577143371105194,
      -0.012480100616812706,
      0.020212354138493538,
      6.840597052359954e-05,
      -0.049704909324645996,
      0.0035645144525915384,
      -0.0017265344504266977,
      0.0266579557210207,
      -0.04328214004635811,
      -0.00239541195333004,
      0.010634641163051128,
      -0.057244084775447845,
      -0.0368838794529438,
      0.01638418436050415,
      0.01849333569407463,
      0.004555035382509232,
      0.010992171242833138,
      -0.02885540947318077,
      -0.07441702485084534,
      -0.09081707894802094,
      0.00942688062787056,
      -0.10065574944019318,
      -0.06189864128828049,
      0.01587534323334694,
      -0.03570592775940895,
      -0.062262482941150665,
      0.03927407041192055,
      -0.019554603844881058,
      0.0027918885461986065,
      -0.03847677260637283,
      0.058531858026981354,
      0.03905799239873886,
      0.07503451406955719,
      -0.018737297505140305,
      0.08189385384321213,
      0.008546724915504456,
      0.01681014895439148,
      -0.058555718511343,
      0.0015795023646205664,
      0.1243366077542305,
      -0.060725290328264236,
      0.07242951542139053,
      -0.025256671011447906,
      -0.05117437615990639,
      -0.10104677081108093,
      0.0015855167293921113,
      -0.06786893308162689,
      0.05313225835561752,
      -0.0246473029255867,
      0.007460278924554586,
      -0.0012218070914968848,
      0.08984944969415665,
      -0.0301209706813097,
      0.020824844017624855,
      -0.017278317362070084,
      0.09040126204490662,
      0.03596288338303566,
      -0.03966668248176575,
      0.08575820922851562,
      0.1344735026359558,
      0.09260215610265732,
      0.000644252693746239,
      -0.03750547394156456,
      0.035780828446149826,
      -0.036441657692193985,
      0.023188332095742226,
      -0.018443064764142036,
      0.04834485054016113,
      -0.030073460191488266,
      -0.03355559706687927,
      -0.01903235726058483,
      -0.01674322783946991,
      -0.13606588542461395,
      -0.08337318152189255,
      0.10058941692113876,
      0.029645347967743874,
      -0.013199077919125557,
      -0.05821548029780388,
      -0.023907000198960304,
      -0.015062388963997364,
      0.033830657601356506,
      0.07271958887577057,
      0.039759863168001175,
      -1.945220695631633e-08,
      0.015278162434697151,
      -0.0009753472404554486,
      0.01040371973067522,
      -0.01893007941544056,
      -0.05647437274456024,
      0.12662555277347565,
      0.0023139826953411102,
      -0.021387793123722076,
      0.010557588189840317,
      0.021169548854231834,
      0.0014465624699369073,
      -0.0018284301040694118,
      -0.03959622234106064,
      -0.006041693966835737,
      0.015203732065856457,
      0.019392330199480057,
      0.05642491579055786,
      -0.009243334643542767,
      -0.05098162591457367,
      -0.07353058457374573,
      0.0013445400400087237,
      -0.08382467925548553,
      0.09541492909193039,
      0.012965688481926918,
      -0.05575033649802208,
      0.0288899764418602,
      -0.11920364201068878,
      0.04479203373193741,
      0.019643861800432205,
      -0.10242903977632523,
      -0.021748928353190422,
      -0.036270853132009506,
      -0.03226105123758316,
      0.008202054537832737,
      0.03452063351869583,
      -0.032715629786252975,
      0.02446243166923523,
      0.06023503467440605,
      0.11683683097362518,
      0.08727185428142548,
      -0.05699991434812546,
      -0.11000971496105194,
      -0.030598782002925873,
      0.021968569606542587,
      0.02268047258257866,
      -0.02255525067448616,
      0.018863998353481293,
      -0.013044683262705803,
      -0.039413269609212875,
      -0.00641667190939188,
      0.029303910210728645,
      0.032344453036785126,
      -0.04813815653324127,
      -0.034041959792375565,
      -0.014536846429109573,
      -0.0882888212800026,
      -0.05517406761646271,
      -0.041322022676467896,
      -0.0903095155954361,
      0.014654635451734066,
      -0.004070616327226162,
      0.078312449157238,
      -0.013222787529230118,
      -0.030594350770115852,
      0.10059285997954727,
      0.08423180770889098,
      0.09585315960056927,
      0.10785781452892289,
      0.09842474701059634,
      0.10457773748045424,
      0.10067433393045641,
      0.10182166147813566,
      0.09810806375350406,
      0.10785781452892289,
      0.09128342334468384,
      0.09205510099458615,
      0.0976879276317652,
      0.09214411427435464,
      0.08421172536152965,
      0.1683766465309631,
      0.08464789837192487,
      0.11697024819264866,
      0.08047880102318922,
      0.09214411427435464,
      0.09890086789675143,
      0.09602200232480687,
      0.09549966373980948,
      0.10784184400183684,
      0.0944763026908447,
      0.09766746792754458,
      0.08932436006548551,
      0.09918940370559891,
      0.1132362436454848,
      0.10784184400183684,
      0.10509494038125661,
      0.07803303038090408,
      0.08911055001593092,
      0.10296821399541403,
      0.10306854155520907,
      0.09733889716923806,
      0.12259947863972973,
      0.10610307966784278,
      0.09271505419906087,
      0.10296821399541403,
      0.10811764762662725,
      0.08727823038726268,
      0.09023388147528567,
      0.10169151379724192,
      0.10218434725157581,
      0.10351455585639677,
      0.10204215015261094,
      0.10414441705666652,
      0.09910174259909049,
      0.10169151379724192
    ],
    "semantic_features": [
      0.047850918024778366,
      0.15481621026992798,
      0.0047835540026426315,
      -0.01969875767827034,
      0.10682089626789093,
      0.20725935697555542,
      0.08573708683252335,
      0.11896368861198425,
      0.09663384407758713,
      0.01591595634818077,
      -0.02459408901631832
    ],
    "explanation_vector": [
      -0.0010814504082791662,
      0.008994947741385123,
      -0.0077008568505066875,
      -0.0022655509857505097,
      0.001167690168871509,
      -0.004066646817222668,
      -0.0009098860906614568,
      0.0005933526967184538,
      -0.0014269368829932063,
      -0.001120669941879229,
      0.0027827291206099516,
      -0.0006936522059810491,
      0.005479549117754359,
      0.006903972856287099,
      -0.004326977567675059,
      -0.003954303349937381,
      -0.005517475274488588,
      0.004621955763751052,
      -0.003435866753492696,
      -0.001988272569707562,
      -0.002129923560763813,
      0.000747322660312691,
      -0.004049007496549951,
      0.007506357274548263,
      0.001647021499907153,
      -0.004951003111669102,
      -0.004109421814655264,
      -0.005183557018205652,
      0.0014888752304240062,
      -0.0030149130158612903,
      0.0060194759938279,
      0.0022135861655479426,
      0.0043232124610105855,
      0.0005515759966861862,
      -0.001456918982077039,
      -0.0016515205832060176,
      0.002206778139278123,
      -0.0019400911451259678,
      0.003878623345645859,
      0.0001155980702259837,
      -0.008348135366779972,
      -0.0018598298328055336,
      -0.004043198863506366,
      0.0019309543754446852,
      -0.004235069666477694,
      -0.0006000871892912738,
      -0.00024509168527827674,
      0.004644065449526478,
      0.0029329972331454597,
      0.0029023670097189026,
      0.1425148844718933,
      0.46109074354171753,
      0.014246908947825432,
      -0.058669015765190125,
      0.3181457817554474,
      0.6172826886177063,
      0.2553516626358032,
      0.3543108105659485,
      0.28780558705329895,
      0.04740265756845474,
      -0.07324883341789246,
      111.0,
      64.0
    ]
  },
  "root_cause_analysis": {
    "primary_cause": "Unknown cause",
    "causal_factors": [],
    "causal_graph": "DiGraph with 17 nodes and 56 edges",
    "counterfactual_scenarios": [
      {
        "intervention_type": "output_length_control",
        "target_node": "output_length",
        "current_value": 64,
        "counterfactual_value": 221,
        "description": "Adjust output length to match reference (221 characters)",
        "expected_impact": 0.5
      },
      {
        "intervention_type": "attention_regulation",
        "target_node": "attention_variance",
        "description": "Apply attention regularization to improve focus distribution",
        "expected_impact": 0.8
      },
      {
        "intervention_type": "attention_regulation",
        "target_node": "attention_concentration",
        "description": "Apply attention regularization to improve focus distribution",
        "expected_impact": 0.8
      }
    ],
    "confidence_score": 0.0,
    "explanation_text": "### Root Cause Analysis Report\n\n**1. Analysis of Input Intent:**\n\nThe input prompt requests a function that safely divides two numbers and handles division by zero with appropriate error handling. The core intent is to create a function that not only performs division but also anticipates and manages the potential division-by-zero error gracefully.\n\n**2. Key Discrepancies Observed:**\n\n* The model output lacks any form of error handling for division by zero.\n* Unlike the reference output, the model does not include a conditional statement to check if the divisor is zero before performing the division.\n* The model's code does not have a try-except block that can catch and handle ZeroDivisionError as seen in the reference output.\n\n**3. Explanation of Failure:**\n\nThe discrepancies between the model output and the reference output directly align with the \"Logical Error\" classification for the NL2CODE task. This is because the primary issue lies in the model's failure to logically anticipate and handle a specific condition (division by zero) that can lead to an error. The absence of conditional checks or try-except blocks means the function would crash or produce unexpected results when encountering this scenario, which is contrary to the input's requirement for safe division.\n\n**4. Inferred Root Cause:**\n\nThe root cause of the model's failure is likely due to its inability to fully comprehend and incorporate the concept of error handling for specific mathematical operations like division. This could be attributed to several factors:\n\n- **Insufficient Training Data:** The training dataset may not have adequately covered scenarios requiring division by zero, leading to a lack of understanding in this area.\n  \n- **Limited Attention Mechanism:** The model's attention mechanism might not be strong enough to focus on critical aspects of the input prompt, such as handling errors for specific operations.\n\n- **Logical Reasoning Capabilities:** There could be limitations in the model's logical reasoning capabilities, making it challenging for the model to anticipate and manage potential errors in mathematical operations.",
    "intervention_recommendations": [
      "Intervention: Adjust output length to match reference (221 characters)",
      "Intervention: Apply attention regularization to improve focus distribution"
    ]
  },
  "recommendation_suite": {
    "instance_id": "nl2code_002",
    "failure_category": "Logical Error",
    "recommendations": [
      {
        "recommendation_id": "nl2code_002_custom_attention_regulation",
        "recommendation_type": "RecommendationType.PROMPT_ENGINEERING",
        "stakeholder_type": "StakeholderType.DEVELOPER",
        "title": "Counterfactual Intervention: attention_regulation",
        "description": "Apply attention regularization to improve focus distribution",
        "implementation_steps": [
          "Analyze counterfactual scenario",
          "Implement proposed intervention",
          "Validate effectiveness"
        ],
        "expected_impact": 0.8,
        "implementation_effort": 0.4,
        "confidence": 0.0,
        "priority_score": 0.0,
        "evidence": [
          "Derived from counterfactual analysis"
        ],
        "constraints": [
          "Requires careful validation"
        ]
      },
      {
        "recommendation_id": "nl2code_002_llm_prompt_engineering",
        "recommendation_type": "RecommendationType.PROMPT_ENGINEERING",
        "stakeholder_type": "StakeholderType.DEVELOPER",
        "title": "LLM-Generated Prompt Engineering",
        "description": "Specific Error Handling Specification:",
        "implementation_steps": [
          "Specific Error Handling Specification:"
        ],
        "expected_impact": 0.6,
        "implementation_effort": 0.5,
        "confidence": 0.42,
        "priority_score": 0.0,
        "evidence": [
          "Generated by LLM analysis"
        ],
        "constraints": [
          "Requires validation and testing"
        ]
      },
      {
        "recommendation_id": "nl2code_002_llm_data_augmentation",
        "recommendation_type": "RecommendationType.DATA_AUGMENTATION",
        "stakeholder_type": "StakeholderType.DEVELOPER",
        "title": "LLM-Generated Data Augmentation",
        "description": "Division by Zero Scenarios:",
        "implementation_steps": [
          "Division by Zero Scenarios:"
        ],
        "expected_impact": 0.6,
        "implementation_effort": 0.5,
        "confidence": 0.42,
        "priority_score": 0.0,
        "evidence": [
          "Generated by LLM analysis"
        ],
        "constraints": [
          "Requires validation and testing"
        ]
      },
      {
        "recommendation_id": "nl2code_002_llm_model_configuration",
        "recommendation_type": "RecommendationType.MODEL_CONFIGURATION",
        "stakeholder_type": "StakeholderType.DEVELOPER",
        "title": "LLM-Generated Model Configuration",
        "description": "Increased Attention Mechanism Focus:",
        "implementation_steps": [
          "Increased Attention Mechanism Focus:"
        ],
        "expected_impact": 0.6,
        "implementation_effort": 0.5,
        "confidence": 0.42,
        "priority_score": 0.0,
        "evidence": [
          "Generated by LLM analysis"
        ],
        "constraints": [
          "Requires validation and testing"
        ]
      }
    ],
    "optimization_strategy": {
      "target_stakeholder": "multi_stakeholder",
      "optimization_method": "pareto_optimal",
      "adaptive_learning": true
    },
    "stakeholder_alignment": {
      "StakeholderType.DEVELOPER": 0.0,
      "StakeholderType.MANAGER": 0.0,
      "StakeholderType.RESEARCHER": 0.0,
      "StakeholderType.END_USER": 0.0
    },
    "overall_confidence": 0.315,
    "implementation_roadmap": [
      {
        "phase": 1,
        "recommendations": [
          "nl2code_002_custom_attention_regulation",
          "nl2code_002_llm_prompt_engineering"
        ],
        "total_effort": 0.9,
        "expected_impact": 0.7
      },
      {
        "phase": 2,
        "recommendations": [
          "nl2code_002_llm_data_augmentation",
          "nl2code_002_llm_model_configuration"
        ],
        "total_effort": 1.0,
        "expected_impact": 0.6
      }
    ]
  },
  "processing_time": 72.91160297393799,
  "confidence_score": 0.303,
  "quality_metrics": {
    "length_score": 0.0,
    "readability_score": 0.8886153846153846,
    "structure_score": 1.0,
    "overall_quality": 0.9443076923076923
  },
  "markdown_report": "# Explainability Report: nl2code_002\n\n## 1. Summary\n\n- **Input ID:** `nl2code_002`\n- **Task Type:** `NL2CODE`\n- **Status:** **FAIL**\n- **Failure Category:** `Logical Error`\n- **Confidence Score:** `0.600`\n- **Analysis Timestamp:** `2025-08-07 14:36:17`\n\n---\n\n## 2. Detailed Analysis\n\n### Input\n\n```\nCreate a function that safely divides two numbers and handles division by zero with appropriate error handling.\n```\n\n### Model Output (Failed)\n\n```\n\ndef divide(a, b):\n    result = a / b\n    return result\n        \n```\n\n### Reference Output (Correct)\n\n```\n\ndef divide(a, b):\n    try:\n        if b == 0:\n            raise ZeroDivisionError(\"Cannot divide by zero\")\n        return a / b\n    except ZeroDivisionError as e:\n        print(f\"Error: {e}\")\n        return None\n        \n```\n\n---\n\n## 3. Root Cause Analysis\n\n### Root Cause Analysis Report\n\n**1. Analysis of Input Intent:**\n\nThe input prompt requests a function that safely divides two numbers and handles division by zero with appropriate error handling. The core intent is to create a function that not only performs division but also anticipates and manages the potential division-by-zero error gracefully.\n\n**2. Key Discrepancies Observed:**\n\n* The model output lacks any form of error handling for division by zero.\n* Unlike the reference output, the model does not include a conditional statement to check if the divisor is zero before performing the division.\n* The model's code does not have a try-except block that can catch and handle ZeroDivisionError as seen in the reference output.\n\n**3. Explanation of Failure:**\n\nThe discrepancies between the model output and the reference output directly align with the \"Logical Error\" classification for the NL2CODE task. This is because the primary issue lies in the model's failure to logically anticipate and handle a specific condition (division by zero) that can lead to an error. The absence of conditional checks or try-except blocks means the function would crash or produce unexpected results when encountering this scenario, which is contrary to the input's requirement for safe division.\n\n**4. Inferred Root Cause:**\n\nThe root cause of the model's failure is likely due to its inability to fully comprehend and incorporate the concept of error handling for specific mathematical operations like division. This could be attributed to several factors:\n\n- **Insufficient Training Data:** The training dataset may not have adequately covered scenarios requiring division by zero, leading to a lack of understanding in this area.\n  \n- **Limited Attention Mechanism:** The model's attention mechanism might not be strong enough to focus on critical aspects of the input prompt, such as handling errors for specific operations.\n\n- **Logical Reasoning Capabilities:** There could be limitations in the model's logical reasoning capabilities, making it challenging for the model to anticipate and manage potential errors in mathematical operations.\n\n### Causal Factors\n\nNo significant causal factors identified.\n\n### Counterfactual Analysis\n\n\n**Scenario 1: output_length_control**\n- **Description:** Adjust output length to match reference (221 characters)\n- **Expected Impact:** 0.500\n\n\n**Scenario 2: attention_regulation**\n- **Description:** Apply attention regularization to improve focus distribution\n- **Expected Impact:** 0.800\n\n\n**Scenario 3: attention_regulation**\n- **Description:** Apply attention regularization to improve focus distribution\n- **Expected Impact:** 0.800\n\n\n---\n\n## 4. Actionable Recommendations\n\n\n### Prompt Engineering\n\n**1. Counterfactual Intervention: attention_regulation**\n- **Description:** Apply attention regularization to improve focus distribution\n- **Expected Impact:** 0.80\n- **Implementation Effort:** 0.40\n- **Confidence:** 0.00\n\n*Implementation Steps:*\n- Analyze counterfactual scenario\n- Implement proposed intervention\n- Validate effectiveness\n\n\n**2. LLM-Generated Prompt Engineering**\n- **Description:** Specific Error Handling Specification:\n- **Expected Impact:** 0.60\n- **Implementation Effort:** 0.50\n- **Confidence:** 0.42\n\n*Implementation Steps:*\n- Specific Error Handling Specification:\n\n\n\n### Data Augmentation\n\n**1. LLM-Generated Data Augmentation**\n- **Description:** Division by Zero Scenarios:\n- **Expected Impact:** 0.60\n- **Implementation Effort:** 0.50\n- **Confidence:** 0.42\n\n*Implementation Steps:*\n- Division by Zero Scenarios:\n\n\n\n### Model Configuration\n\n**1. LLM-Generated Model Configuration**\n- **Description:** Increased Attention Mechanism Focus:\n- **Expected Impact:** 0.60\n- **Implementation Effort:** 0.50\n- **Confidence:** 0.42\n\n*Implementation Steps:*\n- Increased Attention Mechanism Focus:\n\n\n\n---\n\n## 5. Technical Analysis\n\n### Classification Details\n- **Primary Category:** Logical Error\n- **Sub-categories:** low_severity, simple_failure, llm_validated_Logical Error\n- **Semantic Features:** Vector length: 11, Max value: 0.207\n- **Attention Patterns:** Attention variance: 0.002, Max attention: 0.168\n\n### Confidence Metrics\n- **Classification Confidence:** 0.600\n- **Root Cause Confidence:** 0.000\n- **Overall Confidence:** 0.315\n\n### Performance Metrics\n- **Processing Time:** 0.00 seconds\n- **Quality Score:** 0.000\n\n---\n\n## 6. Implementation Roadmap\n\n\n**Phase 1**\n- **Recommendations:** 2 items\n- **Total Effort:** 0.90\n- **Expected Impact:** 0.70\n\n\n**Phase 2**\n- **Recommendations:** 2 items\n- **Total Effort:** 1.00\n- **Expected Impact:** 0.60\n\n\n---\n\n*Report generated by LLM Explainability Framework v1.0.0*\n"
}