{
  "instance_id": "nl2code_001",
  "timestamp": "2025-08-07 14:35:04",
  "task_type": "NL2CODE",
  "failure_classification": {
    "failure_category": "Logical Error",
    "confidence_score": 0.6,
    "sub_categories": [
      "low_severity",
      "simple_failure",
      "llm_validated_Logical Error"
    ],
    "attention_weights": [
      -0.0012166860646435193,
      0.00050460992913161,
      -0.005123930850199291,
      -0.0018257574577416691,
      -0.009522061262811932,
      -0.006517473076071058,
      0.0013494643249682017,
      0.0022979705993618283,
      -0.003034867878471102,
      0.002103591337800026,
      0.003676516669137137,
      -0.00380811228283814,
      0.0009002485312521458,
      0.003605442919901439,
      -0.0008820033898311001,
      0.0001273526743586574,
      1.5233289949329835e-05,
      0.0018862923607230186,
      0.004584026655980519,
      -0.009292526968887873,
      0.0013027358800172806,
      -0.0016585195969258035,
      -0.0036174253161464416,
      -0.00576550726379667,
      -0.0002352134823533041,
      -0.0011542491348726408,
      -0.007701275071927479,
      -0.003223681290234838,
      0.005221225321292877,
      0.0026186957423176083,
      -0.00030644088318305355,
      0.006941093397991998,
      0.0032202521605151036,
      -0.0013017646436180386,
      -0.00032375989082668506,
      0.0024337473192385262,
      -0.0015093193256429263,
      -0.003532313608697482,
      -0.0056791603565216064,
      0.009073128657681602,
      -0.0014258315786719322,
      0.0025548432022333145,
      -0.0010679325621042932,
      -0.0026794866259608947,
      0.0016721126490405627,
      -0.0008288953187210219,
      -0.0011681137340409414,
      0.010815920574324471,
      0.002405728878719466,
      0.0038191580346652438,
      0.0036426072141953875,
      0.006413862641368593,
      -0.006532754216875348,
      -0.0038641776357378277,
      0.0021923153794237544,
      -0.002347630847777639,
      0.005672931138958249,
      -0.0039055374051843368,
      -0.004346671647259167,
      -0.0015975061271871838,
      -0.002631788541163717,
      0.002893599814602307,
      -0.0025413597800901955,
      -0.0074077025055885315,
      0.003205963809575353,
      0.0029671836112226757,
      -0.005846717527934483,
      -0.0042920831058706555,
      -0.00478577400956835,
      0.005324886313506535,
      -0.002087232656776905,
      -0.0013199183823806898,
      0.003214334270783833,
      -0.002338211185165814,
      0.00010697703276361737,
      0.0028366454477821075,
      0.002176695503294468,
      0.00010593785970870937,
      -0.004116246742861611,
      0.004170119230236326,
      0.0023645322237695965,
      0.0012823215552738734,
      0.0015387967494981628,
      -0.0019590564604316436,
      0.0011528154302920613,
      -0.005124653024332864,
      0.0047738030552864075,
      0.002150893211364746,
      0.007270808730806623,
      0.005557053855487278,
      -0.005442829004355839,
      -0.0001440410768347127,
      0.002475738525390625,
      -0.006544363285814012,
      -0.005445632551397596,
      0.0045370060418333325,
      -0.0008915988728404045,
      -4.7324520502505554e-05,
      -0.004769158150468553,
      -0.000560498663357326,
      -0.0076733604073524475,
      0.0002197923438091363,
      0.0010791452202413762,
      -0.0012014083830373626,
      -0.003260620736650058,
      0.004270528576203755,
      -0.001944707307432379,
      0.002460490380014692,
      0.0025306399911642075,
      -0.001418459229171276,
      -0.004136636587125914,
      -0.000631348229944706,
      0.0037769824266433716,
      0.001719323918223381,
      0.005926297711474554,
      -0.0024889220616647174,
      0.0005523841162877423,
      0.004277433933956282,
      -0.0023734207664217266,
      0.0005782972356038434,
      0.006737355142831802,
      0.002182794069605214,
      -4.692939442715474e-05,
      0.0020471981593540734,
      0.0001419488773015993,
      -0.0007345907257071563,
      -0.001496184484234878,
      -1.0285540803400042e-34,
      -0.001662253269127437,
      0.001025368326476642,
      0.010271312935011727,
      -0.0025704707950353622,
      -0.003383543076259749,
      -0.0005257719063333102,
      -0.0047383638364928106,
      0.0010616506582924298,
      -0.0004509585976068462,
      0.007221894072634833,
      0.003085382548826081,
      0.003575654700398445,
      0.005492339176791055,
      -0.00016008828034890548,
      0.0025003842477287564,
      -0.005603985062667302,
      0.00377843262893813,
      -0.003588079607912472,
      0.004503438515322549,
      -0.0024174140500170843,
      0.0009368604182132652,
      -0.002486799976655415,
      0.0011252689042261668,
      -0.003448306982006345,
      0.001722928136587143,
      0.0031423747007335934,
      -0.00012162665370851755,
      -0.00365884176322392,
      0.0007439017561929566,
      -8.508746811587895e-05,
      -0.006192146667412348,
      0.0017926390948040144,
      -0.0032960328140429086,
      -0.002838156585182462,
      0.0018844200032097952,
      -0.0017676616885832378,
      0.001175451890698501,
      0.00047525387656475814,
      0.0008156839092927319,
      0.0010360476028706345,
      -0.001386699000639575,
      -0.0018024762560214314,
      -0.0009558818170002528,
      -0.00011065728696329252,
      0.00047049767869923793,
      -0.006289750337600708,
      0.007388084062508174,
      -0.0029719336224453786,
      0.0012844113100852284,
      0.004092701311622347,
      -0.004170636513403484,
      -0.0030619305159364425,
      0.0030896716884204318,
      0.0008669186250439712,
      -0.004062725763235773,
      -0.000685899584953274,
      0.0032118734504495345,
      0.003908944981438772,
      -0.0013551733323505946,
      -0.006487863936594554,
      0.001958441122301987,
      -0.002657208325607436,
      0.0003310777912182467,
      -0.006127425602504185,
      -0.006702950490372521,
      -0.0032789747097662515,
      -0.0003819778960730348,
      0.0015347963199019432,
      -0.0004995934266064848,
      0.001693371816405228,
      -0.0007571027880268437,
      0.005449828824826649,
      0.0013988796355468886,
      -0.002056667980338846,
      -0.001349024607666901,
      -0.004669194774968283,
      0.0028821881860494614,
      -0.0006779335173113005,
      -0.001021815330854484,
      -0.0062751275088105875,
      -0.0006885563156434467,
      0.007434577814170292,
      0.0034027373684304097,
      -0.005038000111068998,
      0.0068295704466956,
      -0.004851498774119786,
      -0.00038708390534988467,
      0.002559498750737735,
      -0.0029618420771190096,
      -0.009797906236989158,
      -0.006350692893777574,
      -0.0014486549688237052,
      0.0010365630233926432,
      0.0025210902094841003,
      0.0006526804396084376,
      -1.8429378129285613e-34,
      -0.006751387247017451,
      -0.0012404192239046097,
      0.0018771437129804064,
      0.0005726006680301257,
      0.001164140844983714,
      -0.001749386079609394,
      0.0019794145066823277,
      0.00575367733836174,
      0.005261584052017757,
      -1.8081794093762123e-05,
      -0.0030564011207648684,
      0.006649058312177658,
      0.0004392291219638926,
      0.0004364191221871546,
      0.0023311440433774673,
      -0.0005070280084120375,
      -0.0024430501673902783,
      0.005399356463125774,
      2.2919010786738776e-05,
      0.0002380449358107788,
      -0.0031031761318445206,
      0.001691054818885667,
      -0.002683802374771663,
      -0.0014833668246865273,
      -0.00010618890103484902,
      0.002965947879212243,
      0.00020572503230401447,
      -0.005978665713753019,
      0.0004911342236612524,
      -0.0019057884014078547,
      0.0006271496282092162,
      0.004799639007874897,
      0.007568539785487311,
      -0.003242677609835352,
      0.00035573828167149,
      -0.00012108469880851252,
      -0.0014727972447872162,
      -0.003158945058073316,
      -0.002294101087110383,
      -0.005569436720439366,
      0.0033680642289774755,
      0.00599318795970508,
      0.009302055197102683,
      0.005587256380489894,
      0.0024505462497472763,
      -0.002042090254170554,
      -0.0018494842307908194,
      0.0004918421286025217,
      -0.0019278298797351973,
      0.0033170857599803378,
      -0.0033999673490013394,
      0.001133066469005176,
      -0.0002876112038003547,
      -0.0003171968939048903,
      -0.004029713837163789,
      0.003083949110337666,
      0.0019346150968755993,
      0.0005987949802407196,
      0.004347443314535277,
      0.003048066315906388,
      -0.0003172064732228006,
      -0.001362417691520282,
      0.003721323130386216,
      -0.0019911003432103564,
      -0.00563494541815349,
      0.0006750084991965975,
      -0.0011459523811936378,
      0.0005411685643983738,
      -0.0034560502639838626,
      -0.0007154489202158791,
      0.0015137380521212304,
      0.011174072112355913,
      -0.004635327628680638,
      0.00030617805064788887,
      -0.006699550364698682,
      -0.005407422248806272,
      -0.0032205581665039062,
      0.0027779354048626764,
      -0.000246227702258953,
      0.001371451254401888,
      -0.0005108472292444535,
      -0.0011747918490852627,
      -0.007223565663610185,
      -0.0018466909282973834,
      -0.003149288041251046,
      -0.00437775014766625,
      0.006441895450864519,
      0.0019062661698886325,
      0.0008204451629093715,
      -0.002856605021016938,
      -0.000795350077428988,
      -0.0016493423442755426,
      0.0022984035313129425,
      -0.0006510375865868159,
      0.006273474544286728,
      -1.7571796716099794e-09,
      -0.001011837606451341,
      -0.00036330557694392543,
      0.003646475395986012,
      0.0025749304997069494,
      0.003422538350735392,
      0.0034495525594268523,
      0.0004223800663437162,
      -0.003608183403100286,
      0.002694362242306982,
      -0.008296807429620197,
      0.005202044865914753,
      -0.0005961962576423373,
      -0.0033770906073706487,
      0.0011448868151221956,
      0.004537620714732579,
      0.00852760938661439,
      0.005998697131872177,
      -0.004740124302250998,
      -0.00043975136109760825,
      0.00398403060223375,
      0.0008617805183998176,
      0.00039637800572173934,
      -2.604124061430671e-05,
      0.003492442624909537,
      4.045343458918588e-05,
      -0.006948845194918768,
      -0.0002164672893871154,
      -0.00011131394421681762,
      -0.0026181616953441073,
      -0.0032706372439861298,
      0.00038204342126846313,
      -0.0007544034160673618,
      -0.0009442774711975029,
      -0.0003845340771866696,
      -0.003894502030951636,
      4.942112718708813e-05,
      0.005533611668007714,
      0.004792526896510805,
      -0.00027970261206584316,
      -0.008063561682190213,
      -0.0024991168507507867,
      -0.000947390150810991,
      -0.003017419683081763,
      -0.002248967864683696,
      -0.0026732182928494042,
      0.002518539982182639,
      -0.003334212516035352,
      -0.004187099103416715,
      -0.001659939597759928,
      -0.0009622444797839437,
      -0.003188495923365865,
      0.0010549094128821576,
      -0.003984786303980009,
      -0.006865993674312319,
      0.0012136084426726612,
      -0.001345138597701277,
      -0.0013235686346888542,
      -2.7761183446273208e-05,
      -0.0017217257991433144,
      0.006880607455968857,
      0.0016421422894511903,
      0.0016288673505187035,
      0.003423486171024186,
      0.0020258124651653425,
      0.003967356868088245,
      -0.0009871945949271321,
      -0.06790032982826233,
      0.040714383125305176,
      -0.059073306620121,
      -0.06539153307676315,
      -0.009755965322256088,
      -0.014257165603339672,
      -0.010792179964482784,
      -0.018419457599520683,
      -5.986134419799782e-05,
      -0.059782370924949646,
      -0.017192015424370766,
      -0.01326029933989048,
      0.015155076049268246,
      0.0005991539801470935,
      -0.029489286243915558,
      -0.005288881715387106,
      0.03182274103164673,
      -0.07086450606584549,
      0.05486634373664856,
      -0.0006961384206078947,
      0.02548264153301716,
      -0.019991088658571243,
      -0.047570209950208664,
      -0.06695646047592163,
      -0.09716001152992249,
      -0.02995196171104908,
      0.11649445444345474,
      0.005148227326571941,
      -0.006364280823618174,
      0.12082492560148239,
      -0.008898792788386345,
      0.0017042267136275768,
      0.021182183176279068,
      -0.00013486160605680197,
      0.027124624699354172,
      -0.0453626848757267,
      -0.06451056897640228,
      0.11142940074205399,
      0.02683010883629322,
      -0.024205956608057022,
      -0.031186096370220184,
      -0.04471571370959282,
      0.03485489264130592,
      0.03442159295082092,
      -0.046522658318281174,
      0.16482317447662354,
      0.046901118010282516,
      -0.00040385182364843786,
      -0.007711771875619888,
      0.037912093102931976,
      -0.051972318440675735,
      -0.02024071104824543,
      0.05155340954661369,
      -0.0038147144950926304,
      0.010300925001502037,
      -0.06407220661640167,
      -0.04108084365725517,
      -0.013629094697535038,
      -0.030383966863155365,
      -0.01916757971048355,
      -0.057147979736328125,
      -0.04067084938287735,
      0.09518709778785706,
      -0.04176345467567444,
      -0.05293809995055199,
      -0.11705485731363297,
      -0.03821351379156113,
      0.03783402219414711,
      -0.05881931260228157,
      -0.04739096760749817,
      0.004445808939635754,
      0.004074170719832182,
      0.05615216866135597,
      0.03812689334154129,
      0.055985111743211746,
      -0.027771441265940666,
      -0.015172365121543407,
      0.08232425153255463,
      0.0057631609961390495,
      0.010873219929635525,
      0.023843592032790184,
      -0.033817991614341736,
      0.013964494690299034,
      -0.04251537844538689,
      0.036670953035354614,
      0.044782232493162155,
      0.0824989303946495,
      0.060648128390312195,
      -0.07743184268474579,
      0.013326041400432587,
      0.07840971648693085,
      -0.026841899380087852,
      -0.09143133461475372,
      0.03492322936654091,
      -0.03013163059949875,
      0.034899432212114334,
      -0.046919625252485275,
      -0.0007057776674628258,
      -0.09783998876810074,
      -0.016520559787750244,
      0.05429632589221001,
      -0.009756799787282944,
      -0.06265994161367416,
      0.04744145646691322,
      -0.00033220709883607924,
      0.019890431314706802,
      0.056606922298669815,
      -0.00822646077722311,
      -0.06993141025304794,
      -0.017914513126015663,
      0.046902671456336975,
      0.030618879944086075,
      0.020844291895627975,
      -0.06478878855705261,
      -0.04446367546916008,
      0.06600873172283173,
      -0.020948663353919983,
      -0.013598787598311901,
      0.14317001402378082,
      0.02834448777139187,
      0.028903961181640625,
      -0.006901765242218971,
      0.01300016324967146,
      0.009613150730729103,
      0.04113210365176201,
      -4.64401313400163e-34,
      0.0132003678008914,
      -0.01104165893048048,
      0.11792947351932526,
      -0.03240953013300896,
      -0.04387690871953964,
      -0.0441104918718338,
      -0.0615483783185482,
      0.0017374175367876887,
      0.0015490468358621001,
      0.08297096192836761,
      0.04708988592028618,
      0.10703254491090775,
      0.06259801983833313,
      0.0690687745809555,
      -0.015687542036175728,
      0.0070870378986001015,
      0.04028870165348053,
      0.00485883466899395,
      0.08325637131929398,
      -0.02361394464969635,
      -0.0029379064217209816,
      -0.0005439270753413439,
      -0.00030162525945343077,
      -0.029113857075572014,
      -0.037328090518713,
      0.03427310660481453,
      -0.004547210410237312,
      -0.0490005798637867,
      -0.010620104148983955,
      0.009111199527978897,
      -0.09359892457723618,
      -0.042345982044935226,
      -0.06705570220947266,
      -0.031817205250263214,
      0.04250931367278099,
      0.011492758058011532,
      0.06786472350358963,
      0.0010465827072039247,
      0.002527705393731594,
      -0.017325397580862045,
      -0.04232889413833618,
      -0.03063608519732952,
      0.01452706754207611,
      0.04200369864702225,
      -0.04783114790916443,
      -0.10035820305347443,
      0.015062770806252956,
      0.006090343464165926,
      -0.020182205364108086,
      0.07498064637184143,
      -0.022659465670585632,
      -0.05637668818235397,
      0.10235575586557388,
      -0.015116759575903416,
      -0.062198933213949203,
      -0.0008394254837185144,
      0.06678944826126099,
      0.006480279378592968,
      -0.02985408343374729,
      -0.12474361807107925,
      0.015391732566058636,
      -0.028815066441893578,
      0.03317089006304741,
      -0.05092117190361023,
      -0.0978720560669899,
      -0.01877964287996292,
      0.019374074414372444,
      0.06684419512748718,
      0.034788087010383606,
      0.024109745398163795,
      -0.01610947586596012,
      0.05924909934401512,
      -0.004115354269742966,
      -0.010623342357575893,
      -0.013944472186267376,
      -0.07793066650629044,
      0.004934077616780996,
      -0.020874055102467537,
      0.00976829044520855,
      -0.015928316861391068,
      -0.058234263211488724,
      0.1252075433731079,
      0.013363759033381939,
      -0.08182947337627411,
      0.034334491938352585,
      0.042115550488233566,
      0.01922590471804142,
      0.006329905241727829,
      0.0020587060134857893,
      -0.12955079972743988,
      -0.022593216970562935,
      -0.07247287034988403,
      0.06037040427327156,
      0.01261865347623825,
      0.014587007462978363,
      -3.2295315062720594e-33,
      -0.05580257624387741,
      -0.010131964460015297,
      0.012349817901849747,
      0.06071309372782707,
      -0.012237302958965302,
      -0.032481636852025986,
      0.023823682218790054,
      0.03350692614912987,
      0.12077558040618896,
      -0.051937926560640335,
      -0.03361014649271965,
      0.07207510620355606,
      0.038928862661123276,
      -0.001965751638635993,
      0.05658246949315071,
      0.022553255781531334,
      -0.04964090511202812,
      0.059789612889289856,
      -0.013166074641048908,
      0.01258792169392109,
      -0.04684450104832649,
      0.016486845910549164,
      -0.06613759696483612,
      -0.04118843749165535,
      -0.04502594843506813,
      -0.002877977676689625,
      0.016228606924414635,
      -0.09465831518173218,
      0.01240196917206049,
      -0.0044908975251019,
      0.053283657878637314,
      0.01747901737689972,
      0.0829019621014595,
      -0.02444237656891346,
      0.04227682948112488,
      0.028692444786429405,
      0.06214107945561409,
      -0.043104466050863266,
      -0.03353391960263252,
      -0.04794733226299286,
      0.051911357790231705,
      0.06571149826049805,
      0.10766367614269257,
      0.03654465824365616,
      0.01916537806391716,
      -0.009216870181262493,
      -0.00140125653706491,
      -0.03168942406773567,
      -0.05913428217172623,
      0.05406535789370537,
      -0.02808990888297558,
      0.04194590076804161,
      0.033528923988342285,
      -0.033327020704746246,
      -0.047834061086177826,
      0.07287151366472244,
      0.03319435566663742,
      0.005474824924021959,
      0.058717165142297745,
      0.026745205745100975,
      0.0015392760979011655,
      -0.008911269716918468,
      0.03235312178730965,
      0.03197590261697769,
      -0.0807851105928421,
      0.009247333742678165,
      -0.03418434038758278,
      0.034961238503456116,
      -0.04315686598420143,
      -0.02805388905107975,
      0.04935283213853836,
      0.12844505906105042,
      -0.0351019911468029,
      -0.034490231424570084,
      -0.09054364264011383,
      0.008927593939006329,
      -0.08842665702104568,
      0.012051858939230442,
      -0.029634088277816772,
      0.039246369153261185,
      0.003953875042498112,
      -0.044136617332696915,
      -0.11515092849731445,
      -0.03715316951274872,
      -0.07978589087724686,
      -0.047975607216358185,
      0.20877312123775482,
      0.054661963135004044,
      -0.012839309871196747,
      -0.023125259205698967,
      0.04256197437644005,
      -0.04394625127315521,
      0.06560899317264557,
      0.0370648168027401,
      0.0014419812941923738,
      -2.5613452692141436e-08,
      0.021972235292196274,
      0.005901781376451254,
      0.033385951071977615,
      -0.005104092415422201,
      -0.0018859761767089367,
      -0.0059491368010640144,
      -0.023821668699383736,
      -0.09187700599431992,
      0.0157399270683527,
      -0.0872517004609108,
      0.060637738555669785,
      0.016328072175383568,
      -0.055689737200737,
      -0.009534324519336224,
      0.0967089831829071,
      0.06921820342540741,
      0.03670329228043556,
      -0.06799715757369995,
      -0.0337492972612381,
      0.09217610210180283,
      -0.014725491404533386,
      -0.02248385176062584,
      -0.01090996153652668,
      -0.034534942358732224,
      0.017960378900170326,
      -0.01823950745165348,
      -0.004453534260392189,
      0.00758060859516263,
      -0.0008907197625376284,
      -0.06673935055732727,
      0.02351348102092743,
      0.020895445719361305,
      -0.05020620673894882,
      -0.0185096338391304,
      -0.07126327604055405,
      0.06082134693861008,
      0.08471528440713882,
      -0.0074180010706186295,
      0.04920860007405281,
      -0.03395529463887215,
      -0.027587594464421272,
      -0.08664872497320175,
      -0.06521881371736526,
      -0.0473637580871582,
      -0.05624053254723549,
      0.04835352301597595,
      -0.022380394861102104,
      -0.1181458979845047,
      -0.11178366094827652,
      -0.007144273724406958,
      -0.09765012562274933,
      -0.035537224262952805,
      -0.0787258967757225,
      -0.09006039798259735,
      0.04645282402634621,
      -0.0036285603418946266,
      0.02479323372244835,
      0.02573430724442005,
      -0.014533516019582748,
      0.051143400371074677,
      -0.04024377465248108,
      0.03842262551188469,
      0.06511514633893967,
      0.042518485337495804,
      0.07147531885135931,
      0.05873474308021709,
      0.07199729118180585,
      0.0786135421021189,
      0.07003835699161699,
      0.06811430706833702,
      0.07416048569241591,
      0.07586757514093245,
      0.07416048569241591,
      0.0786135421021189,
      0.07308525698524375,
      0.05938543905186682,
      0.07101555188824595,
      0.0747381041713051,
      0.07654003844351989,
      0.0599219102424876,
      0.06575945548116947,
      0.07854197961916977,
      0.06624018230203607,
      0.0706142474793172,
      0.06748049425078917,
      0.08330262700824054,
      0.06748049425078917,
      0.07854197961916977,
      0.0744414459551198,
      0.05930218078246752,
      0.07248235227590884,
      0.07935061228981524,
      0.07392224266558502,
      0.06841411830299436,
      0.07052423891733496,
      0.07586194030376515,
      0.06367969479903172,
      0.07217979872112323,
      0.07137108191518883,
      0.08082910473710177,
      0.07137108191518883,
      0.07586194030376515,
      0.06953090946220168,
      0.06770956762551168,
      0.06491960378624713,
      0.07382467654496057,
      0.07326601109308205,
      0.07047732890576902,
      0.06404987206835465,
      0.07047215583979712,
      0.06694148604911856,
      0.07076076077074449,
      0.08388569341707,
      0.07477714501717954
    ],
    "semantic_features": [
      -0.0029620928689837456,
      0.036412276327610016,
      -0.07645149528980255,
      -0.025935526937246323,
      0.03592423349618912,
      0.18120501935482025,
      0.10508154332637787,
      0.06107954680919647,
      0.04659118875861168,
      -0.08669955283403397,
      -0.023509390652179718
    ],
    "explanation_vector": [
      -0.001082896052020404,
      0.0004491216887792822,
      -0.004560489882928092,
      -0.0016249923463326108,
      -0.00847499026103881,
      -0.005800794525656458,
      0.001201073664206555,
      0.0020452796839067833,
      -0.002701145792249048,
      0.001872274879251944,
      0.0032722371874640485,
      -0.0033893621999723255,
      0.0008012548254308705,
      0.0032089788953817964,
      -0.0007850159679412081,
      0.00011334863798052691,
      1.3558197159301412e-05,
      0.0016788706715250244,
      0.0040799549796537065,
      -0.008270696164215666,
      0.0011594836024602397,
      -0.0014761444023242275,
      -0.0032196436756932725,
      -0.005131516859848035,
      -0.00020934878669543467,
      -0.0010273248519270014,
      -0.00685442252793196,
      -0.0028691967826475935,
      0.004647085597050557,
      0.002330737043190547,
      -0.00027274383443670196,
      0.006177832438306674,
      0.002866144729087291,
      -0.0011586191657802438,
      -0.0002881583982647957,
      0.0021661260371144495,
      -0.0013433505868711514,
      -0.0031438910763535257,
      -0.005054664886516907,
      0.008075423470684137,
      -0.001269043373026751,
      0.002273905897032055,
      -0.0009504998774401257,
      -0.0023848432007353318,
      0.001488242726532694,
      -0.0007377478005751482,
      -0.0010396648631579158,
      0.009626573385907824,
      0.0021411885783043593,
      0.0033991933317595317,
      -0.011444330215454102,
      0.14068232476711273,
      -0.2953777015209198,
      -0.10020440071821213,
      0.13879673182964325,
      0.7001029849052429,
      0.40599265694618225,
      0.23598669469356537,
      0.18000952899456024,
      -0.3349720537662506,
      -0.09083078801631927,
      151.0,
      91.0
    ]
  },
  "root_cause_analysis": {
    "primary_cause": "Unknown cause",
    "causal_factors": [],
    "causal_graph": "DiGraph with 17 nodes and 56 edges",
    "counterfactual_scenarios": [
      {
        "intervention_type": "output_length_control",
        "target_node": "output_length",
        "current_value": 91,
        "counterfactual_value": 189,
        "description": "Adjust output length to match reference (189 characters)",
        "expected_impact": 0.5
      },
      {
        "intervention_type": "attention_regulation",
        "target_node": "attention_variance",
        "description": "Apply attention regularization to improve focus distribution",
        "expected_impact": 0.8
      },
      {
        "intervention_type": "attention_regulation",
        "target_node": "attention_concentration",
        "description": "Apply attention regularization to improve focus distribution",
        "expected_impact": 0.8
      }
    ],
    "confidence_score": 0.0,
    "explanation_text": "### Root Cause Analysis Report\n\n#### 1. Analysis of Input Intent:\nThe core request was to write a Python function that calculates the factorial of a number using recursion, with specific handling for edge cases involving negative numbers and zero.\n\n* The input explicitly asks for recursion.\n* It emphasizes the importance of handling edge cases, specifically mentioning negative numbers and zero.\n\n#### 2. Key Discrepancies Observed:\n- **Missing Error Handling**: The failed output does not handle the case where `n` is less than 0, contrary to the reference output which raises a `ValueError`.\n- **Incorrect Base Case for Recursion**: While the model correctly identifies one base case (`n == 0`), it misses another crucial base case for when `n == 1`.\n\n#### 3. Explanation of Failure:\nThe discrepancies directly align with the \"Logical Error\" classification because they stem from incorrect or incomplete logic in handling specific cases.\n\n* The absence of error handling for negative numbers leads to undefined behavior, as factorials are not defined for such inputs.\n* Missing the base case for `n == 1` could lead to unnecessary recursive calls and potential stack overflow errors, though this is somewhat mitigated by the correct handling of `n == 0`.\n\n#### 4. Inferred Root Cause:\nThe root cause of the model's failure appears to be an incomplete understanding or application of the requirements specified in the input.\n\n* Specifically, it seems the model did not fully comprehend the need for explicit error handling for negative inputs.\n* Additionally, there was a lapse in identifying all necessary base cases for the recursive function. This might suggest difficulties in either parsing the nuances of natural language requests or translating those into logical structures within code.\n\nThis analysis points towards potential areas for improvement in the model's training data and algorithms, particularly in how it processes and responds to edge case requirements and recursive logic specifications.",
    "intervention_recommendations": [
      "Intervention: Adjust output length to match reference (189 characters)",
      "Intervention: Apply attention regularization to improve focus distribution"
    ]
  },
  "recommendation_suite": {
    "instance_id": "nl2code_001",
    "failure_category": "Logical Error",
    "recommendations": [
      {
        "recommendation_id": "nl2code_001_custom_attention_regulation",
        "recommendation_type": "RecommendationType.PROMPT_ENGINEERING",
        "stakeholder_type": "StakeholderType.DEVELOPER",
        "title": "Counterfactual Intervention: attention_regulation",
        "description": "Apply attention regularization to improve focus distribution",
        "implementation_steps": [
          "Analyze counterfactual scenario",
          "Implement proposed intervention",
          "Validate effectiveness"
        ],
        "expected_impact": 0.8,
        "implementation_effort": 0.4,
        "confidence": 0.0,
        "priority_score": 0.0,
        "evidence": [
          "Derived from counterfactual analysis"
        ],
        "constraints": [
          "Requires careful validation"
        ]
      },
      {
        "recommendation_id": "nl2code_001_llm_prompt_engineering",
        "recommendation_type": "RecommendationType.PROMPT_ENGINEERING",
        "stakeholder_type": "StakeholderType.DEVELOPER",
        "title": "LLM-Generated Prompt Engineering",
        "description": "To mitigate the failure due to missing error handling and incorrect base cases for recursion, consider the following adjustments to the input prompt:\n\n*",
        "implementation_steps": [
          "To mitigate the failure due to missing error handling and incorrect base cases for recursion, consider the following adjustments to the input prompt:",
          "",
          "*"
        ],
        "expected_impact": 0.6,
        "implementation_effort": 0.5,
        "confidence": 0.42,
        "priority_score": 0.0,
        "evidence": [
          "Generated by LLM analysis"
        ],
        "constraints": [
          "Requires validation and testing"
        ]
      },
      {
        "recommendation_id": "nl2code_001_llm_data_augmentation",
        "recommendation_type": "RecommendationType.DATA_AUGMENTATION",
        "stakeholder_type": "StakeholderType.DEVELOPER",
        "title": "LLM-Generated Data Augmentation",
        "description": "To enhance the model's understanding and response to recursive functions with specific edge case requirements:\n\n*",
        "implementation_steps": [
          "To enhance the model's understanding and response to recursive functions with specific edge case requirements:",
          "",
          "*"
        ],
        "expected_impact": 0.6,
        "implementation_effort": 0.5,
        "confidence": 0.42,
        "priority_score": 0.0,
        "evidence": [
          "Generated by LLM analysis"
        ],
        "constraints": [
          "Requires validation and testing"
        ]
      },
      {
        "recommendation_id": "nl2code_001_llm_model_configuration",
        "recommendation_type": "RecommendationType.MODEL_CONFIGURATION",
        "stakeholder_type": "StakeholderType.DEVELOPER",
        "title": "LLM-Generated Model Configuration",
        "description": "While specific model configurations are not universally applicable, consider adjusting parameters that influence creativity, adherence to instructions, and attention to detail:\n\n*",
        "implementation_steps": [
          "While specific model configurations are not universally applicable, consider adjusting parameters that influence creativity, adherence to instructions, and attention to detail:",
          "",
          "*"
        ],
        "expected_impact": 0.6,
        "implementation_effort": 0.5,
        "confidence": 0.42,
        "priority_score": 0.0,
        "evidence": [
          "Generated by LLM analysis"
        ],
        "constraints": [
          "Requires validation and testing"
        ]
      }
    ],
    "optimization_strategy": {
      "target_stakeholder": "multi_stakeholder",
      "optimization_method": "pareto_optimal",
      "adaptive_learning": true
    },
    "stakeholder_alignment": {
      "StakeholderType.DEVELOPER": 0.0,
      "StakeholderType.MANAGER": 0.0,
      "StakeholderType.RESEARCHER": 0.0,
      "StakeholderType.END_USER": 0.0
    },
    "overall_confidence": 0.315,
    "implementation_roadmap": [
      {
        "phase": 1,
        "recommendations": [
          "nl2code_001_custom_attention_regulation",
          "nl2code_001_llm_prompt_engineering"
        ],
        "total_effort": 0.9,
        "expected_impact": 0.7
      },
      {
        "phase": 2,
        "recommendations": [
          "nl2code_001_llm_data_augmentation",
          "nl2code_001_llm_model_configuration"
        ],
        "total_effort": 1.0,
        "expected_impact": 0.6
      }
    ]
  },
  "processing_time": 79.79734086990356,
  "confidence_score": 0.303,
  "quality_metrics": {
    "length_score": 0.0,
    "readability_score": 0.926984126984127,
    "structure_score": 1.0,
    "overall_quality": 0.9634920634920635
  },
  "markdown_report": "# Explainability Report: nl2code_001\n\n## 1. Summary\n\n- **Input ID:** `nl2code_001`\n- **Task Type:** `NL2CODE`\n- **Status:** **FAIL**\n- **Failure Category:** `Logical Error`\n- **Confidence Score:** `0.600`\n- **Analysis Timestamp:** `2025-08-07 14:35:04`\n\n---\n\n## 2. Detailed Analysis\n\n### Input\n\n```\nWrite a Python function that calculates the factorial of a number using recursion. The function should handle edge cases for negative numbers and zero.\n```\n\n### Model Output (Failed)\n\n```\n\ndef factorial(n):\n    if n == 0:\n        return 1\n    return n * factorial(n - 1)\n        \n```\n\n### Reference Output (Correct)\n\n```\n\ndef factorial(n):\n    if n < 0:\n        raise ValueError(\"Factorial is not defined for negative numbers\")\n    if n == 0 or n == 1:\n        return 1\n    return n * factorial(n - 1)\n        \n```\n\n---\n\n## 3. Root Cause Analysis\n\n### Root Cause Analysis Report\n\n#### 1. Analysis of Input Intent:\nThe core request was to write a Python function that calculates the factorial of a number using recursion, with specific handling for edge cases involving negative numbers and zero.\n\n* The input explicitly asks for recursion.\n* It emphasizes the importance of handling edge cases, specifically mentioning negative numbers and zero.\n\n#### 2. Key Discrepancies Observed:\n- **Missing Error Handling**: The failed output does not handle the case where `n` is less than 0, contrary to the reference output which raises a `ValueError`.\n- **Incorrect Base Case for Recursion**: While the model correctly identifies one base case (`n == 0`), it misses another crucial base case for when `n == 1`.\n\n#### 3. Explanation of Failure:\nThe discrepancies directly align with the \"Logical Error\" classification because they stem from incorrect or incomplete logic in handling specific cases.\n\n* The absence of error handling for negative numbers leads to undefined behavior, as factorials are not defined for such inputs.\n* Missing the base case for `n == 1` could lead to unnecessary recursive calls and potential stack overflow errors, though this is somewhat mitigated by the correct handling of `n == 0`.\n\n#### 4. Inferred Root Cause:\nThe root cause of the model's failure appears to be an incomplete understanding or application of the requirements specified in the input.\n\n* Specifically, it seems the model did not fully comprehend the need for explicit error handling for negative inputs.\n* Additionally, there was a lapse in identifying all necessary base cases for the recursive function. This might suggest difficulties in either parsing the nuances of natural language requests or translating those into logical structures within code.\n\nThis analysis points towards potential areas for improvement in the model's training data and algorithms, particularly in how it processes and responds to edge case requirements and recursive logic specifications.\n\n### Causal Factors\n\nNo significant causal factors identified.\n\n### Counterfactual Analysis\n\n\n**Scenario 1: output_length_control**\n- **Description:** Adjust output length to match reference (189 characters)\n- **Expected Impact:** 0.500\n\n\n**Scenario 2: attention_regulation**\n- **Description:** Apply attention regularization to improve focus distribution\n- **Expected Impact:** 0.800\n\n\n**Scenario 3: attention_regulation**\n- **Description:** Apply attention regularization to improve focus distribution\n- **Expected Impact:** 0.800\n\n\n---\n\n## 4. Actionable Recommendations\n\n\n### Prompt Engineering\n\n**1. Counterfactual Intervention: attention_regulation**\n- **Description:** Apply attention regularization to improve focus distribution\n- **Expected Impact:** 0.80\n- **Implementation Effort:** 0.40\n- **Confidence:** 0.00\n\n*Implementation Steps:*\n- Analyze counterfactual scenario\n- Implement proposed intervention\n- Validate effectiveness\n\n\n**2. LLM-Generated Prompt Engineering**\n- **Description:** To mitigate the failure due to missing error handling and incorrect base cases for recursion, consider the following adjustments to the input prompt:\n\n*\n- **Expected Impact:** 0.60\n- **Implementation Effort:** 0.50\n- **Confidence:** 0.42\n\n*Implementation Steps:*\n- To mitigate the failure due to missing error handling and incorrect base cases for recursion, consider the following adjustments to the input prompt:\n- \n- *\n\n\n\n### Data Augmentation\n\n**1. LLM-Generated Data Augmentation**\n- **Description:** To enhance the model's understanding and response to recursive functions with specific edge case requirements:\n\n*\n- **Expected Impact:** 0.60\n- **Implementation Effort:** 0.50\n- **Confidence:** 0.42\n\n*Implementation Steps:*\n- To enhance the model's understanding and response to recursive functions with specific edge case requirements:\n- \n- *\n\n\n\n### Model Configuration\n\n**1. LLM-Generated Model Configuration**\n- **Description:** While specific model configurations are not universally applicable, consider adjusting parameters that influence creativity, adherence to instructions, and attention to detail:\n\n*\n- **Expected Impact:** 0.60\n- **Implementation Effort:** 0.50\n- **Confidence:** 0.42\n\n*Implementation Steps:*\n- While specific model configurations are not universally applicable, consider adjusting parameters that influence creativity, adherence to instructions, and attention to detail:\n- \n- *\n\n\n\n---\n\n## 5. Technical Analysis\n\n### Classification Details\n- **Primary Category:** Logical Error\n- **Sub-categories:** low_severity, simple_failure, llm_validated_Logical Error\n- **Semantic Features:** Vector length: 11, Max value: 0.181\n- **Attention Patterns:** Attention variance: 0.002, Max attention: 0.209\n\n### Confidence Metrics\n- **Classification Confidence:** 0.600\n- **Root Cause Confidence:** 0.000\n- **Overall Confidence:** 0.315\n\n### Performance Metrics\n- **Processing Time:** 0.00 seconds\n- **Quality Score:** 0.000\n\n---\n\n## 6. Implementation Roadmap\n\n\n**Phase 1**\n- **Recommendations:** 2 items\n- **Total Effort:** 0.90\n- **Expected Impact:** 0.70\n\n\n**Phase 2**\n- **Recommendations:** 2 items\n- **Total Effort:** 1.00\n- **Expected Impact:** 0.60\n\n\n---\n\n*Report generated by LLM Explainability Framework v1.0.0*\n"
}