{
  "instance_id": "nl2nl_002",
  "timestamp": "2025-08-07 14:38:41",
  "task_type": "NL2NL",
  "failure_classification": {
    "failure_category": "Loss of Key Information",
    "confidence_score": 0.6,
    "sub_categories": [
      "low_severity",
      "simple_failure",
      "llm_validated_Loss of Key Information"
    ],
    "attention_weights": [
      -7.151279598474502e-05,
      0.004438891410827637,
      0.002706432938575745,
      0.0006367072463035584,
      0.0040291306376457215,
      0.0035598158836364748,
      0.0005148832872509956,
      7.367752958089114e-05,
      -0.0014363770186901093,
      -1.503404462710023e-05,
      0.0016261094808578491,
      -0.001756124794483185,
      0.0014789997041225434,
      -0.0034789955615997315,
      0.003524334728717804,
      0.0029604768753051756,
      -9.586188243702054e-06,
      0.0006004861742258072,
      -0.0018292126059532166,
      -0.0029877021908760073,
      0.003573187291622162,
      -0.0020724907517433167,
      0.002855591177940369,
      -0.0016410931944847108,
      0.002520178258419037,
      0.004799159467220307,
      -0.003186992108821869,
      0.00217745378613472,
      -0.00016615137457847595,
      0.0013595764338970185,
      -0.0019052834808826447,
      0.0018494792282581329,
      4.723056685179472e-05,
      0.0006680797040462494,
      0.000666370913386345,
      0.002879758179187775,
      -0.001160249188542366,
      0.002592394948005676,
      -9.712069295346738e-06,
      0.002958340048789978,
      -0.0010413508862257004,
      -0.0036570510268211366,
      0.0026515775918960574,
      -0.000502251610159874,
      -0.0024607659876346587,
      -0.0007048319280147553,
      -0.0022938045859336852,
      -0.0025990870594978332,
      -0.00018844619393348694,
      -0.0035424295067787172,
      -0.0016924603283405303,
      -0.0004039436206221581,
      -0.002771621346473694,
      -6.829947815276682e-06,
      0.0013801015913486481,
      -0.0014920012652873994,
      7.91866984218359e-05,
      1.6532039735466243e-05,
      0.00045227941125631333,
      -0.001456022411584854,
      0.003269259035587311,
      -0.004878322184085846,
      -0.0036581394076347354,
      -0.000866885632276535,
      0.0020423538982868193,
      -0.0017799687385559083,
      -0.0007708822935819626,
      0.0027420765161514284,
      -0.0026784205436706544,
      0.0016574722528457642,
      -0.000866650864481926,
      -0.00033960703760385516,
      -0.001046447902917862,
      -0.004535959959030151,
      -0.0030382952094078065,
      -0.0008474823087453843,
      0.0021905672550201418,
      -7.45335966348648e-05,
      0.002849017083644867,
      -0.0031304314732551576,
      -0.000610293447971344,
      0.0008805667608976364,
      -0.0014240466058254243,
      -0.0008095233887434006,
      0.00023851139470934868,
      0.0015448063611984252,
      0.001260359138250351,
      -0.0042990586161613465,
      0.0003893963247537613,
      -0.0002910917066037655,
      -0.0012693426012992859,
      -0.0018779927492141725,
      0.004016317427158356,
      0.0004360058158636093,
      0.002036181390285492,
      0.004763927161693573,
      -0.001967551410198212,
      -0.003369155526161194,
      -0.000653628557920456,
      0.0003038102760910988,
      0.005383151173591614,
      0.0008204454183578492,
      -0.0021467603743076324,
      -0.001978295147418976,
      -0.0019017380475997924,
      -0.0024879927933216094,
      -0.0024689240753650666,
      0.0025599581003189088,
      0.0027061346173286437,
      -0.0007970003038644791,
      -0.0011730212718248367,
      0.00194297656416893,
      -0.0005981193855404854,
      -0.0006980566680431366,
      -0.0006535493582487107,
      0.0008599060773849487,
      0.0027868849039077758,
      -0.0016077421605587006,
      0.0023765049874782565,
      -0.00044177755713462833,
      0.0017182436585426331,
      -0.001210043653845787,
      0.001996404677629471,
      0.0023261164128780365,
      -0.0018483632802963256,
      -0.001972586512565613,
      0.0015786184370517732,
      -1.1750434018019533e-34,
      -0.0024792420864105224,
      -1.1164223542436957e-05,
      0.0021922415494918823,
      0.0007007662206888199,
      0.00013800657354295253,
      0.003237651288509369,
      -0.003284982442855835,
      0.0006359308212995529,
      -0.00032954610884189606,
      -0.000598650947213173,
      0.000725470706820488,
      0.002450112551450729,
      0.0011818666011095048,
      0.00474172979593277,
      -1.4065366121940316e-06,
      -0.003898434042930603,
      -0.0020827044546604155,
      0.0027812302112579347,
      0.0022359080612659454,
      -0.0011336660385131837,
      0.0010055472701787948,
      -0.0017132462561130525,
      0.0028102684020996096,
      0.00025642791762948037,
      0.001216018795967102,
      -0.004996977150440216,
      0.0036983013153076174,
      -0.002708248496055603,
      -0.002294563949108124,
      0.0005754517763853073,
      0.00162017360329628,
      0.00037833064794540405,
      -0.0028500300645828247,
      -0.00010771402157843113,
      0.001658029705286026,
      0.0011602255702018738,
      -0.0006036570295691491,
      -0.000998840779066086,
      -0.0011614321172237396,
      -0.0002728680707514286,
      -0.0033250483870506287,
      0.001975558400154114,
      -0.0006556999683380127,
      0.00026698969304561615,
      0.0025293689966201785,
      0.0026585653424263003,
      0.00040754940360784533,
      0.0007221275568008423,
      0.00041861191391944885,
      -0.00035687737166881564,
      -0.0025302636623382568,
      0.004113430976867676,
      0.0002415238693356514,
      -0.001982334405183792,
      0.004052614569664001,
      0.0018071511387825012,
      7.446120493113995e-05,
      -8.365794084966183e-05,
      -0.0003894857317209244,
      -0.00127245232462883,
      -0.0025546097755432128,
      0.001982838362455368,
      -0.0003755495324730873,
      -0.0015458737313747406,
      0.0009197164326906204,
      0.001814602315425873,
      -0.0019180221855640413,
      -0.0001493878196924925,
      -0.00020423442125320435,
      0.001846011132001877,
      -0.0008867038041353225,
      -0.0035844096541404725,
      -0.0011595197767019273,
      0.0020894886553287505,
      -7.895337417721749e-05,
      0.0019365821778774262,
      -0.0031174224615097045,
      0.00011428116820752621,
      -0.0031434932351112367,
      0.0006581062078475952,
      -0.000564536601305008,
      7.969032041728497e-05,
      0.000815700963139534,
      -0.00017551736906170845,
      -0.003240789771080017,
      -0.0009909246861934662,
      0.0008347878605127335,
      -0.004154201149940491,
      0.00108392171561718,
      -0.001153142973780632,
      0.00127298504114151,
      0.0020716962218284606,
      0.0028084301948547363,
      0.00036453455686569214,
      -0.0006854820251464843,
      -3.017904962406119e-36,
      -0.00026618663221597674,
      0.0032237955927848817,
      -0.002200598567724228,
      -0.0028131368756294252,
      0.001811026781797409,
      -0.0004109407961368561,
      -0.0029678469896316528,
      -0.004003216922283173,
      0.0007438787072896958,
      0.00013354416005313398,
      -0.0010250771790742874,
      0.0015956692397594452,
      -0.0018236358463764191,
      -0.002350122034549713,
      -0.0009853274375200272,
      -3.2903808169066906e-05,
      -0.0010339808464050293,
      -0.00013964157551527023,
      -0.0026349416375160218,
      0.002463297098875046,
      0.000940142497420311,
      0.001992151737213135,
      -0.0014141571521759033,
      0.0031171861290931703,
      -0.0016854901611804962,
      0.0016548816859722137,
      -0.0022030107676982882,
      -0.0023179440200328826,
      -0.0011501066386699677,
      -0.0009555643051862717,
      0.0014135792851448059,
      0.0015021254122257234,
      -0.003513852655887604,
      0.0004494604468345642,
      -0.0018958821892738342,
      0.0010731665045022965,
      0.0021132957935333253,
      -0.0022158585488796234,
      -0.000585058405995369,
      0.0019411762058734894,
      0.003615991771221161,
      -0.002409496158361435,
      0.0032769381999969483,
      -0.0014678531885147096,
      -0.0022448225319385527,
      -0.00145024910569191,
      -0.0014963911473751068,
      -0.0009934666007757188,
      -0.00215581551194191,
      0.0020459492504596713,
      0.0017916294932365418,
      -0.003211483359336853,
      -0.003910194337368012,
      -0.0010703347623348236,
      0.0005481452494859695,
      -0.0035679468512535097,
      0.0016844479739665985,
      -0.00013224019668996336,
      4.732873057946563e-06,
      -0.0022227905690670015,
      -0.0034144771099090575,
      0.002142107337713242,
      -0.0007765969634056091,
      0.002039255052804947,
      -0.0008648820966482163,
      -0.0023656734824180604,
      0.0013693709671497346,
      -0.0012080780416727065,
      0.0010175301879644394,
      -0.003752870261669159,
      -0.001616625040769577,
      0.0009363124519586563,
      -0.0018534095585346223,
      -0.0007623761147260666,
      -0.0023359556496143343,
      0.0008343787491321564,
      -2.9181473655626177e-06,
      0.000340753085911274,
      -0.003602941930294037,
      -0.0006085951626300811,
      -0.0009328844398260117,
      0.0003454151749610901,
      0.0005531773716211319,
      -0.003423827886581421,
      -0.0005320752784609794,
      -0.0009062540531158447,
      0.002142637073993683,
      -0.005168643593788147,
      0.0025045096874237063,
      0.0011005230247974397,
      -0.0018202915787696838,
      -0.0011827929317951202,
      -0.0027008515596389773,
      0.003774793744087219,
      -0.0003643564507365227,
      -8.083467406549971e-10,
      -0.0001599043980240822,
      0.00036669209599494935,
      -0.0006252091377973557,
      -0.001051572933793068,
      -0.00309283971786499,
      -0.0015763826668262482,
      -9.383135475218297e-05,
      0.0032681530714035035,
      0.0011839554458856582,
      0.0004358791559934616,
      0.0028656962513923644,
      0.0021713659167289733,
      0.0005965740233659744,
      0.0013395963609218599,
      0.0003335630521178246,
      9.785190224647523e-05,
      0.0007800818979740143,
      0.0017485520243644714,
      0.00010825417935848237,
      -0.0020512889325618746,
      0.0024011260271072387,
      -2.0245900377631186e-05,
      -0.0026576626300811768,
      0.0010761838406324387,
      0.001506485790014267,
      0.001970863938331604,
      0.002598644196987152,
      0.0020405048131942748,
      0.002526327967643738,
      0.001952468901872635,
      0.002159021943807602,
      0.0015758717060089112,
      7.926631718873977e-05,
      -0.0008626411855220795,
      -0.0003013669326901436,
      0.0010265914350748061,
      -0.001001618281006813,
      -0.0022808508574962616,
      0.0016130039095878601,
      0.0023637336492538454,
      -0.0009495965391397476,
      0.00320824921131134,
      -0.0018561325967311859,
      0.0029275164008140567,
      -0.0009504096955060959,
      -0.0010591485351324082,
      -0.0017588385939598084,
      0.0008639644086360931,
      -0.0008084839582443238,
      0.0016913133859634399,
      0.0003658651188015938,
      -0.002622794508934021,
      0.00391288161277771,
      0.00042878791689872743,
      -8.815235458314418e-05,
      0.0012302756309509279,
      -0.001427553743124008,
      0.0005073731765151024,
      -0.0004532488808035851,
      -0.0005690357834100723,
      0.0032356369495391848,
      0.0029595887660980227,
      -0.002307453751564026,
      0.0003324831277132034,
      0.005656980909407139,
      0.08587001264095306,
      0.07782856374979019,
      0.005981416441500187,
      0.08668263256549835,
      0.06087592989206314,
      -0.013943023048341274,
      0.0001163419074146077,
      0.015631718561053276,
      0.058651164174079895,
      0.0006877382402308285,
      0.020555876195430756,
      -0.019164759665727615,
      -0.024066682904958725,
      0.08979777991771698,
      0.052463412284851074,
      -0.010572408325970173,
      -0.024934271350502968,
      -0.003097665961831808,
      -0.02256220020353794,
      -0.03812091052532196,
      0.023552505299448967,
      0.07008067518472672,
      -0.06803243607282639,
      -0.02934185229241848,
      0.06276825070381165,
      -0.08497019857168198,
      -0.022767076268792152,
      -0.004647469148039818,
      0.04021406173706055,
      -0.022095736116170883,
      0.13667172193527222,
      -0.03261664882302284,
      -0.02581051178276539,
      -0.020233431831002235,
      0.10017087310552597,
      -0.007883362472057343,
      0.015349448658525944,
      0.014545959420502186,
      0.04398738965392113,
      -0.07754761725664139,
      -0.038483984768390656,
      0.01052156649529934,
      -0.06840858608484268,
      -0.10044170171022415,
      0.0010700402781367302,
      0.031438250094652176,
      -0.09544715285301208,
      0.0499245710670948,
      -0.07797570526599884,
      0.02336064912378788,
      0.014010258950293064,
      0.0012116394937038422,
      -0.0616016648709774,
      0.01654345542192459,
      -0.08210917562246323,
      0.009734143503010273,
      -0.04522715136408806,
      0.02085229381918907,
      -0.0063224234618246555,
      0.07078061252832413,
      -0.11316922307014465,
      -0.03126245737075806,
      -0.02629091963171959,
      -0.0034301714040338993,
      -0.025755789130926132,
      -0.03568166866898537,
      0.07775852084159851,
      -0.0067987930960953236,
      -0.09973803907632828,
      0.010959518142044544,
      -0.0334150455892086,
      -0.024360446259379387,
      -0.04622718319296837,
      -0.06481455266475677,
      -0.026710931211709976,
      0.07178962230682373,
      -0.003930583596229553,
      0.11420649290084839,
      -0.0029071944300085306,
      0.06374108791351318,
      0.035914044827222824,
      -0.055196575820446014,
      -0.03690848872065544,
      0.07402268797159195,
      0.02525169402360916,
      -0.016001880168914795,
      -0.026759808883070946,
      0.010291224345564842,
      0.02321832813322544,
      -0.03889070823788643,
      0.037834279239177704,
      0.08246628195047379,
      0.031339675188064575,
      0.06324635446071625,
      0.10289174318313599,
      -0.007975692860782146,
      -0.014908896759152412,
      -0.03701245039701462,
      -0.02501261979341507,
      0.053683895617723465,
      0.05078505724668503,
      -0.0403469055891037,
      -0.058728184551000595,
      0.007856959477066994,
      -0.03318879380822182,
      -0.010827375575900078,
      0.04583711177110672,
      0.06558293104171753,
      -0.0309598371386528,
      -0.04675116762518883,
      0.05459580942988396,
      0.008599330671131611,
      0.030522098764777184,
      0.008323988877236843,
      0.03133902698755264,
      0.1108957827091217,
      -0.07273538410663605,
      0.0009723762050271034,
      0.03762127086520195,
      0.02955975942313671,
      -0.0886785164475441,
      -0.006868854630738497,
      0.06785666942596436,
      -0.001477012992836535,
      -0.045673906803131104,
      0.050856225192546844,
      -2.8143952070326066e-33,
      -0.0651874914765358,
      0.03311385586857796,
      0.10685966908931732,
      -0.056706760078668594,
      -0.03171651065349579,
      0.09450094401836395,
      -0.060645848512649536,
      -0.022667590528726578,
      0.003749118885025382,
      -0.07579664140939713,
      0.012785779312252998,
      -0.024556253105401993,
      0.04297567903995514,
      0.15246810019016266,
      0.0013806087663397193,
      -0.11721448600292206,
      0.023859404027462006,
      -0.007067996077239513,
      0.04085960611701012,
      -0.018549051135778427,
      0.004159660078585148,
      -0.04725571349263191,
      0.07169420272111893,
      -0.01058157067745924,
      0.015551479533314705,
      -0.08560340851545334,
      0.16476993262767792,
      -0.052152059972286224,
      0.012527798302471638,
      -0.005556958261877298,
      0.03296924754977226,
      -0.008768077939748764,
      -0.04008714482188225,
      0.007576794363558292,
      0.005949277430772781,
      -0.020773781463503838,
      -0.029119962826371193,
      0.06076131388545036,
      -0.07032069563865662,
      0.010474156588315964,
      0.005060740280896425,
      0.09110411256551743,
      -0.015011686831712723,
      0.004324372857809067,
      0.07004816830158234,
      -0.0015521711902692914,
      0.07037817686796188,
      0.029647856950759888,
      -0.06370377540588379,
      -0.015076596289873123,
      -0.04375125467777252,
      0.09680381417274475,
      -0.04812341928482056,
      -0.027445146813988686,
      0.03354925662279129,
      9.683152893558145e-05,
      0.056618161499500275,
      -0.014124260284006596,
      -0.09338212013244629,
      -0.041480086743831635,
      -0.07391643524169922,
      0.025439990684390068,
      0.0004023982328362763,
      -0.016477739438414574,
      0.05251992866396904,
      0.026051854714751244,
      0.04447663947939873,
      0.04306195676326752,
      -0.06926551461219788,
      -0.012087921611964703,
      0.04639449343085289,
      -0.10633234679698944,
      -0.04770151153206825,
      0.03613840788602829,
      -0.013129228726029396,
      0.03898356854915619,
      -0.06992515176534653,
      0.033166833221912384,
      -0.02669530361890793,
      0.08694484829902649,
      -0.008003870956599712,
      0.046465322375297546,
      -0.030678655952215195,
      -0.09394823014736176,
      -0.004587468691170216,
      -0.08576884865760803,
      -0.041360870003700256,
      -0.01932920515537262,
      0.04942326992750168,
      -0.002690905472263694,
      0.03460849076509476,
      0.05609041452407837,
      0.05609742924571037,
      0.05583830177783966,
      -0.012047304771840572,
      1.6612467283129623e-34,
      -0.0057303402572870255,
      0.07301317900419235,
      -0.04650351405143738,
      -0.06686228513717651,
      0.02148360386490822,
      -0.07599755376577377,
      -0.06526307761669159,
      -0.09049337357282639,
      -0.04419254511594772,
      -0.014220062643289566,
      -0.045397087931632996,
      0.06499907374382019,
      0.024802999570965767,
      0.019208170473575592,
      0.037694867700338364,
      -0.013794390484690666,
      -0.039752326905727386,
      0.014527020044624805,
      -0.0497465543448925,
      -0.0022238981910049915,
      0.00458591477945447,
      0.046492189168930054,
      -0.013246601447463036,
      0.0378454364836216,
      -0.03333968296647072,
      0.014074382372200489,
      -0.08839794248342514,
      -0.018226154148578644,
      0.056243013590574265,
      0.07083162665367126,
      -0.03154265880584717,
      0.07454725354909897,
      -0.027526572346687317,
      -0.024083353579044342,
      -0.013131733983755112,
      0.0010949918068945408,
      0.004597829654812813,
      -0.08263860642910004,
      -0.0138187101110816,
      0.058721672743558884,
      0.0597354918718338,
      -0.006459440570324659,
      0.05619385465979576,
      -0.0698535144329071,
      -0.023113586008548737,
      -0.03472228720784187,
      -0.04519501328468323,
      0.07921677082777023,
      0.021493664011359215,
      0.014851745218038559,
      0.12094966322183609,
      -0.005925859324634075,
      -0.04870465770363808,
      -0.08404438942670822,
      0.026974447071552277,
      -0.09693126380443573,
      0.006856455467641354,
      0.07908555120229721,
      -0.08137311041355133,
      -0.06517171859741211,
      -0.0012929686345160007,
      0.047072023153305054,
      0.037053052335977554,
      0.02968580462038517,
      -0.030624108389019966,
      0.04497945308685303,
      0.039933621883392334,
      -0.03899198770523071,
      -0.030458839610219002,
      -0.09345854818820953,
      -0.028665997087955475,
      0.030649680644273758,
      -0.11425011605024338,
      0.015897464007139206,
      -0.0272204726934433,
      0.017247270792722702,
      0.032987792044878006,
      0.002338884398341179,
      -0.0388527438044548,
      0.05764937028288841,
      0.005674172658473253,
      0.0019776143599301577,
      0.0009912272216752172,
      -0.09958887845277786,
      -0.03526344895362854,
      -0.08385128527879715,
      -0.0018739120569080114,
      -0.1331355720758438,
      -0.030917586758732796,
      0.07869027554988861,
      -0.08233025670051575,
      -0.07460878044366837,
      -0.0950537621974945,
      0.13373418152332306,
      -0.022018570452928543,
      -2.9253063971168558e-08,
      0.021578269079327583,
      -0.0018910289509221911,
      0.08029654622077942,
      -0.028656233102083206,
      -0.08483932167291641,
      -0.041101597249507904,
      0.03860685974359512,
      0.03204154223203659,
      0.05272091552615166,
      0.018611812964081764,
      0.018040962517261505,
      0.013892817310988903,
      0.040761709213256836,
      0.0022485977970063686,
      0.03659297153353691,
      -0.07027383148670197,
      0.05008871108293533,
      -0.03432122617959976,
      0.010866882279515266,
      0.007879931479692459,
      0.03813138231635094,
      -0.007434125058352947,
      -0.024071941152215004,
      0.04574241489171982,
      0.019372418522834778,
      -0.008737219497561455,
      0.04173552989959717,
      -0.0337531641125679,
      0.0005890377797186375,
      -0.01824517361819744,
      0.06366686522960663,
      0.009296425618231297,
      0.03934463486075401,
      -0.010518383234739304,
      -0.025782886892557144,
      -0.006203406024724245,
      -0.020213501527905464,
      -0.0886305496096611,
      0.02190336212515831,
      0.03928138688206673,
      0.020905520766973495,
      0.07169514149427414,
      -0.06974488496780396,
      -0.02128261886537075,
      -0.0928296372294426,
      -0.043516866862773895,
      0.0189945250749588,
      -0.010630500502884388,
      -0.011664280667901039,
      0.0718696117401123,
      -0.0015458106063306332,
      -0.0698782205581665,
      0.047341883182525635,
      -0.04144304618239403,
      0.0036796419881284237,
      0.033969830721616745,
      -0.07092354446649551,
      -0.006316000130027533,
      -0.025316258892416954,
      0.014928977005183697,
      0.040704891085624695,
      -0.012375762686133385,
      0.0026824739761650562,
      0.04228230193257332,
      0.037541694551497244,
      0.04100468247111608,
      0.040661011650542735,
      0.03818323969350514,
      0.04101824685601423,
      0.03924416299275059,
      0.040001000189495615,
      0.04137103541542941,
      0.03838350156372691,
      0.03731558472634108,
      0.04121131954709334,
      0.04003969671978626,
      0.04271324038998623,
      0.03782965792144881,
      0.04281425906561704,
      0.042628014713491126,
      0.039536374188323495,
      0.04121131954709334,
      0.03862523552839422,
      0.03879187290933457,
      0.04194244419167812,
      0.03890368118571798,
      0.04121131954709334,
      0.03955070579687482,
      0.03826669863764823,
      0.03612923577669382,
      0.03682679183572235,
      0.03967559933664468,
      0.04206209660482138,
      0.04257059515680106,
      0.07582834345534241,
      0.04061191102116799,
      0.04413893969250114,
      0.03228989917311731,
      0.03252146971955201,
      0.04005473125181119,
      0.039584668794797606,
      0.04442284931631327,
      0.03701776496318743,
      0.03453982069655055,
      0.03746771222016619,
      0.035837213368061956,
      0.04005473125181119,
      0.037062349556126875,
      0.03745667712562281,
      0.04118270155010331,
      0.038689788500111164,
      0.04005473125181119,
      0.036630203128773395,
      0.037289175252387875
    ],
    "semantic_features": [
      0.12936043739318848,
      0.05809251591563225,
      0.05918321758508682,
      0.01891714334487915,
      0.06884032487869263,
      -0.014907225966453552,
      0.2151138186454773,
      0.09019817411899567,
      0.06510649621486664,
      0.031093552708625793,
      0.15864995121955872
    ],
    "explanation_vector": [
      -6.871026838617175e-05,
      0.004264934910950776,
      0.0026003700599034544,
      0.0006117552135182936,
      0.003871232325116199,
      0.003420309629932468,
      0.000494705435124044,
      7.079016785489748e-05,
      -0.0013800865858884868,
      -1.4444872795605648e-05,
      0.0015623835890695053,
      -0.0016873037095947155,
      0.0014210389233698328,
      -0.0033426565897774437,
      0.0033862189522636315,
      0.0028444582239053537,
      -9.210513418684381e-06,
      0.0005769536154346716,
      -0.0017575272699060067,
      -0.0028706166017734088,
      0.0034331570234477984,
      -0.0019912715454520748,
      0.0027436829106684893,
      -0.0015767801032953346,
      0.0024214145473196932,
      0.004611084358820012,
      -0.003062096511909202,
      0.0020921211649411347,
      -0.00015964003900020553,
      0.0013062957527839626,
      -0.001830616989875659,
      0.0017769996599681854,
      4.537963982152379e-05,
      0.0006418982104708105,
      0.0006402563859100303,
      0.0027669028270335613,
      -0.0011147799780697977,
      0.0024908011242970123,
      -9.331461295552247e-06,
      0.00284240513786205,
      -0.0010005412023326415,
      -0.003513734207908851,
      0.002547664449098056,
      -0.00048256878305853723,
      -0.0023643305945135777,
      -0.0006772101450398828,
      -0.002203912272686915,
      -0.0024972309774493684,
      -0.00018106114273988872,
      -0.003403604610869663,
      0.38361114263534546,
      0.17227010428905487,
      0.17550452053546906,
      0.05609773099422455,
      0.20414212346076965,
      -0.04420654475688934,
      0.6379079818725586,
      0.2674776315689087,
      0.1930696666240692,
      0.0922061875462532,
      0.47046753764152527,
      72.0,
      154.0
    ]
  },
  "root_cause_analysis": {
    "primary_cause": "Unknown cause",
    "causal_factors": [],
    "causal_graph": "DiGraph with 17 nodes and 56 edges",
    "counterfactual_scenarios": [
      {
        "intervention_type": "output_length_control",
        "target_node": "output_length",
        "current_value": 154,
        "counterfactual_value": 364,
        "description": "Adjust output length to match reference (364 characters)",
        "expected_impact": 0.5
      },
      {
        "intervention_type": "attention_regulation",
        "target_node": "attention_variance",
        "description": "Apply attention regularization to improve focus distribution",
        "expected_impact": 0.8
      },
      {
        "intervention_type": "attention_regulation",
        "target_node": "attention_concentration",
        "description": "Apply attention regularization to improve focus distribution",
        "expected_impact": 0.8
      }
    ],
    "confidence_score": 0.0,
    "explanation_text": "### Root Cause Analysis Report\n\n#### 1. Analysis of Input Intent:\nThe input prompt is a clear and concise request to summarize the key benefits of renewable energy sources in 2-3 sentences. The user expects a brief overview of the advantages of renewable energy, which should include its environmental benefits, economic viability, and potential for job creation.\n\n#### 2. Key Discrepancies Observed:\n• **Omission of specific environmental benefits**: The model output fails to mention the reduction of greenhouse gas emissions and air pollution.\n• **Lack of detail on economic benefits**: The model output does not provide information on energy security through domestic production and the decrease in costs making renewable energy competitive with fossil fuels.\n• **Insufficient job creation information**: The model output only mentions that renewable energy is \"becoming cheaper and more popular,\" without explicitly stating its potential for job creation.\n\n#### 3. Explanation of Failure:\nThe discrepancies between the failed output and the reference output align with the classified failure category \"Loss of Key Information.\" The model failed to capture essential details about the environmental, economic, and employment benefits of renewable energy sources. This suggests that the model did not fully understand the input prompt or was unable to retrieve the necessary information from its knowledge base.\n\n#### 4. Inferred Root Cause:\nThe root cause of the error is likely due to a combination of factors:\n\n1. **Limited training data**: The model may not have been trained on sufficient data that highlights the specific benefits of renewable energy sources.\n2. **Insufficient attention to key terms**: The model's attention mechanism may not have focused enough on crucial terms like \"greenhouse gas emissions,\" \"energy security,\" and \"job creation.\"\n3. **Lack of logical connections**: The model failed to make logical connections between the input prompt and the relevant information in its knowledge base.\n\nBy addressing these potential root causes, it is possible to improve the model's performance on similar tasks and reduce the likelihood of losing key information in its output.",
    "intervention_recommendations": [
      "Intervention: Adjust output length to match reference (364 characters)",
      "Intervention: Apply attention regularization to improve focus distribution"
    ]
  },
  "recommendation_suite": {
    "instance_id": "nl2nl_002",
    "failure_category": "Loss of Key Information",
    "recommendations": [
      {
        "recommendation_id": "nl2nl_002_custom_attention_regulation",
        "recommendation_type": "RecommendationType.PROMPT_ENGINEERING",
        "stakeholder_type": "StakeholderType.DEVELOPER",
        "title": "Counterfactual Intervention: attention_regulation",
        "description": "Apply attention regularization to improve focus distribution",
        "implementation_steps": [
          "Analyze counterfactual scenario",
          "Implement proposed intervention",
          "Validate effectiveness"
        ],
        "expected_impact": 0.8,
        "implementation_effort": 0.4,
        "confidence": 0.0,
        "priority_score": 0.0,
        "evidence": [
          "Derived from counterfactual analysis"
        ],
        "constraints": [
          "Requires careful validation"
        ]
      },
      {
        "recommendation_id": "nl2nl_002_llm_prompt_engineering",
        "recommendation_type": "RecommendationType.PROMPT_ENGINEERING",
        "stakeholder_type": "StakeholderType.DEVELOPER",
        "title": "LLM-Generated Prompt Engineering",
        "description": "Specify key aspects",
        "implementation_steps": [
          "Specify key aspects"
        ],
        "expected_impact": 0.6,
        "implementation_effort": 0.5,
        "confidence": 0.42,
        "priority_score": 0.0,
        "evidence": [
          "Generated by LLM analysis"
        ],
        "constraints": [
          "Requires validation and testing"
        ]
      },
      {
        "recommendation_id": "nl2nl_002_llm_data_augmentation",
        "recommendation_type": "RecommendationType.DATA_AUGMENTATION",
        "stakeholder_type": "StakeholderType.DEVELOPER",
        "title": "LLM-Generated Data Augmentation",
        "description": "Environmental Benefits",
        "implementation_steps": [
          "Environmental Benefits"
        ],
        "expected_impact": 0.6,
        "implementation_effort": 0.5,
        "confidence": 0.42,
        "priority_score": 0.0,
        "evidence": [
          "Generated by LLM analysis"
        ],
        "constraints": [
          "Requires validation and testing"
        ]
      },
      {
        "recommendation_id": "nl2nl_002_llm_model_configuration",
        "recommendation_type": "RecommendationType.MODEL_CONFIGURATION",
        "stakeholder_type": "StakeholderType.DEVELOPER",
        "title": "LLM-Generated Model Configuration",
        "description": "Attention Mechanism Adjustment",
        "implementation_steps": [
          "Attention Mechanism Adjustment"
        ],
        "expected_impact": 0.6,
        "implementation_effort": 0.5,
        "confidence": 0.42,
        "priority_score": 0.0,
        "evidence": [
          "Generated by LLM analysis"
        ],
        "constraints": [
          "Requires validation and testing"
        ]
      }
    ],
    "optimization_strategy": {
      "target_stakeholder": "multi_stakeholder",
      "optimization_method": "pareto_optimal",
      "adaptive_learning": true
    },
    "stakeholder_alignment": {
      "StakeholderType.DEVELOPER": 0.0,
      "StakeholderType.MANAGER": 0.0,
      "StakeholderType.RESEARCHER": 0.0,
      "StakeholderType.END_USER": 0.0
    },
    "overall_confidence": 0.315,
    "implementation_roadmap": [
      {
        "phase": 1,
        "recommendations": [
          "nl2nl_002_custom_attention_regulation",
          "nl2nl_002_llm_prompt_engineering"
        ],
        "total_effort": 0.9,
        "expected_impact": 0.7
      },
      {
        "phase": 2,
        "recommendations": [
          "nl2nl_002_llm_data_augmentation",
          "nl2nl_002_llm_model_configuration"
        ],
        "total_effort": 1.0,
        "expected_impact": 0.6
      }
    ]
  },
  "processing_time": 70.18606305122375,
  "confidence_score": 0.303,
  "quality_metrics": {
    "length_score": 0.0,
    "readability_score": 0.8715151515151515,
    "structure_score": 1.0,
    "overall_quality": 0.9357575757575757
  },
  "markdown_report": "# Explainability Report: nl2nl_002\n\n## 1. Summary\n\n- **Input ID:** `nl2nl_002`\n- **Task Type:** `NL2NL`\n- **Status:** **FAIL**\n- **Failure Category:** `Loss of Key Information`\n- **Confidence Score:** `0.600`\n- **Analysis Timestamp:** `2025-08-07 14:38:41`\n\n---\n\n## 2. Detailed Analysis\n\n### Input\n\n```\nSummarize the key benefits of renewable energy sources in 2-3 sentences.\n```\n\n### Model Output (Failed)\n\n```\nRenewable energy is good for the environment. It doesn't pollute and comes from natural sources like sun and wind. It's becoming cheaper and more popular.\n```\n\n### Reference Output (Correct)\n\n```\nRenewable energy sources provide clean, sustainable power that significantly reduces greenhouse gas emissions and air pollution. They offer energy security through domestic production and create jobs in manufacturing and installation sectors. Additionally, renewable energy costs have decreased dramatically, making them increasingly competitive with fossil fuels.\n```\n\n---\n\n## 3. Root Cause Analysis\n\n### Root Cause Analysis Report\n\n#### 1. Analysis of Input Intent:\nThe input prompt is a clear and concise request to summarize the key benefits of renewable energy sources in 2-3 sentences. The user expects a brief overview of the advantages of renewable energy, which should include its environmental benefits, economic viability, and potential for job creation.\n\n#### 2. Key Discrepancies Observed:\n• **Omission of specific environmental benefits**: The model output fails to mention the reduction of greenhouse gas emissions and air pollution.\n• **Lack of detail on economic benefits**: The model output does not provide information on energy security through domestic production and the decrease in costs making renewable energy competitive with fossil fuels.\n• **Insufficient job creation information**: The model output only mentions that renewable energy is \"becoming cheaper and more popular,\" without explicitly stating its potential for job creation.\n\n#### 3. Explanation of Failure:\nThe discrepancies between the failed output and the reference output align with the classified failure category \"Loss of Key Information.\" The model failed to capture essential details about the environmental, economic, and employment benefits of renewable energy sources. This suggests that the model did not fully understand the input prompt or was unable to retrieve the necessary information from its knowledge base.\n\n#### 4. Inferred Root Cause:\nThe root cause of the error is likely due to a combination of factors:\n\n1. **Limited training data**: The model may not have been trained on sufficient data that highlights the specific benefits of renewable energy sources.\n2. **Insufficient attention to key terms**: The model's attention mechanism may not have focused enough on crucial terms like \"greenhouse gas emissions,\" \"energy security,\" and \"job creation.\"\n3. **Lack of logical connections**: The model failed to make logical connections between the input prompt and the relevant information in its knowledge base.\n\nBy addressing these potential root causes, it is possible to improve the model's performance on similar tasks and reduce the likelihood of losing key information in its output.\n\n### Causal Factors\n\nNo significant causal factors identified.\n\n### Counterfactual Analysis\n\n\n**Scenario 1: output_length_control**\n- **Description:** Adjust output length to match reference (364 characters)\n- **Expected Impact:** 0.500\n\n\n**Scenario 2: attention_regulation**\n- **Description:** Apply attention regularization to improve focus distribution\n- **Expected Impact:** 0.800\n\n\n**Scenario 3: attention_regulation**\n- **Description:** Apply attention regularization to improve focus distribution\n- **Expected Impact:** 0.800\n\n\n---\n\n## 4. Actionable Recommendations\n\n\n### Prompt Engineering\n\n**1. Counterfactual Intervention: attention_regulation**\n- **Description:** Apply attention regularization to improve focus distribution\n- **Expected Impact:** 0.80\n- **Implementation Effort:** 0.40\n- **Confidence:** 0.00\n\n*Implementation Steps:*\n- Analyze counterfactual scenario\n- Implement proposed intervention\n- Validate effectiveness\n\n\n**2. LLM-Generated Prompt Engineering**\n- **Description:** Specify key aspects\n- **Expected Impact:** 0.60\n- **Implementation Effort:** 0.50\n- **Confidence:** 0.42\n\n*Implementation Steps:*\n- Specify key aspects\n\n\n\n### Data Augmentation\n\n**1. LLM-Generated Data Augmentation**\n- **Description:** Environmental Benefits\n- **Expected Impact:** 0.60\n- **Implementation Effort:** 0.50\n- **Confidence:** 0.42\n\n*Implementation Steps:*\n- Environmental Benefits\n\n\n\n### Model Configuration\n\n**1. LLM-Generated Model Configuration**\n- **Description:** Attention Mechanism Adjustment\n- **Expected Impact:** 0.60\n- **Implementation Effort:** 0.50\n- **Confidence:** 0.42\n\n*Implementation Steps:*\n- Attention Mechanism Adjustment\n\n\n\n---\n\n## 5. Technical Analysis\n\n### Classification Details\n- **Primary Category:** Loss of Key Information\n- **Sub-categories:** low_severity, simple_failure, llm_validated_Loss of Key Information\n- **Semantic Features:** Vector length: 11, Max value: 0.215\n- **Attention Patterns:** Attention variance: 0.001, Max attention: 0.165\n\n### Confidence Metrics\n- **Classification Confidence:** 0.600\n- **Root Cause Confidence:** 0.000\n- **Overall Confidence:** 0.315\n\n### Performance Metrics\n- **Processing Time:** 0.00 seconds\n- **Quality Score:** 0.000\n\n---\n\n## 6. Implementation Roadmap\n\n\n**Phase 1**\n- **Recommendations:** 2 items\n- **Total Effort:** 0.90\n- **Expected Impact:** 0.70\n\n\n**Phase 2**\n- **Recommendations:** 2 items\n- **Total Effort:** 1.00\n- **Expected Impact:** 0.60\n\n\n---\n\n*Report generated by LLM Explainability Framework v1.0.0*\n"
}