{
  "instance_id": "nl2nl_001",
  "timestamp": "2025-08-07 14:33:44",
  "task_type": "NL2NL",
  "failure_classification": {
    "failure_category": "Loss of Key Information",
    "confidence_score": 0.6,
    "sub_categories": [
      "low_severity",
      "simple_failure",
      "llm_validated_Loss of Key Information"
    ],
    "attention_weights": [
      -0.0010876466985791922,
      0.0004519303717340032,
      0.0028544009352723756,
      0.001781680310765902,
      0.001956799377997716,
      0.0006700817806025345,
      -0.0004016041833286484,
      -0.0006126919373249013,
      6.745653809048235e-05,
      0.0013919821940362453,
      -0.0007074389141052961,
      -0.0016258182004094124,
      -0.0020654362936814623,
      0.00014188401595068473,
      0.0006401229572171966,
      0.00021916249534115195,
      -0.0016424406009415784,
      -0.0005334699914480249,
      -0.00029326125513762236,
      -0.00021957565331831574,
      -0.0010878321093817551,
      0.0008321925221631924,
      -0.0003963054623454809,
      -1.8950139140846052e-06,
      -0.0012823257129639387,
      6.78747504328688e-05,
      -0.0013184199730555215,
      0.001357012428343296,
      -0.0013305209577083588,
      0.0018300344236195087,
      -0.0005385118614261348,
      0.0005813512252643704,
      0.0012114436055223146,
      0.0003023084330682953,
      0.0005115482490509748,
      0.0006564172605673472,
      0.0008226815455903609,
      0.0001711543494214614,
      -9.629017828653255e-05,
      0.0005502874652544657,
      0.0007088008957604567,
      -0.002230682410299778,
      -6.813285290263593e-05,
      -0.0008730916306376457,
      -0.0016928565067549546,
      0.0015430998367567856,
      2.810600805484379e-05,
      0.00017921995216359693,
      -0.0014898210453490415,
      -0.0012901550314078727,
      -5.7810432432840266e-05,
      0.0007458437078942854,
      -0.00036454324920972187,
      -0.001930745473752419,
      -7.069842831697315e-05,
      -0.0018318034708499908,
      0.0006111647623280684,
      -0.0008595252875238657,
      0.0006839741642276446,
      -0.00014964074944145977,
      -1.9342610661018018e-05,
      -0.00023845257237553596,
      -0.0013864069866637387,
      0.0003073567058891058,
      0.0016540874106188614,
      -0.0005416320248817403,
      0.0021367340038220086,
      0.0010455910426874955,
      0.0004017866061379512,
      -0.0002218368463218212,
      -0.0002969158231280744,
      0.0012536374852061272,
      -0.0004692535536984602,
      -0.0012448213528841734,
      -0.00036224458987514174,
      -0.0018409007849792638,
      -0.0017396281473338604,
      0.0005413139394174019,
      0.0033144252374768257,
      -0.0007121021238466103,
      0.001245202807088693,
      -0.0001474684589387228,
      0.0004561474003518621,
      -0.0005608182788516084,
      -0.0006302047598486145,
      -0.00014041866719101864,
      0.0013239343340198198,
      0.00023061875253915787,
      -0.0002660890847134093,
      -0.00019385696699221927,
      -0.0007357079690943161,
      -0.0005092389571170012,
      0.0017288594196240106,
      0.0008072708733379841,
      -0.0017334233659009137,
      0.0019232084353764851,
      -1.9181044384216268e-05,
      -0.0004930513290067513,
      0.00031768943881615996,
      -0.0009686145931482315,
      -0.00011758142500184476,
      0.000647098214055101,
      -0.0014726871935029824,
      -0.0006522744273145993,
      -9.50347069495668e-05,
      0.0004224589793011546,
      2.6581903512123972e-05,
      -0.0006050578861807783,
      0.0005118718448405464,
      0.0006812290909389654,
      -0.001422824958960215,
      -9.686431925122936e-05,
      -0.0018439584722121556,
      -0.000801240870108207,
      0.00038647317948440707,
      -0.0007202511963744958,
      0.0005283075540016094,
      -6.599409001258512e-05,
      -0.0007637459008644024,
      -0.001163422285268704,
      -0.002116742078214884,
      -0.00040395651012659073,
      2.9804097721353173e-05,
      0.0019082423920432725,
      -0.001158933388069272,
      -0.0008657106664031744,
      -0.0006471962357560793,
      7.701780058810926e-35,
      0.0008483558582762877,
      -4.548377667864163e-05,
      0.0003025863746491571,
      -0.0006839285294214884,
      -0.0002396425697952509,
      0.0009025168449928362,
      -0.0007832777531196673,
      -0.00116493032934765,
      -0.000269903102889657,
      -0.00029660272412002087,
      0.0012325914576649666,
      0.0004116942873224616,
      0.00044063963772108156,
      0.0021754849391678968,
      -0.0017974909084538617,
      -0.0015873177908360958,
      -0.0012261179120590289,
      0.0008827450219541788,
      0.001494088986267646,
      0.0006801050622016191,
      -0.0009638799820095301,
      -0.00040508209106822807,
      0.0014250604435801506,
      0.001289894338697195,
      0.001196620287373662,
      0.0003861369720349709,
      0.0010445086906353631,
      -0.0012450247692565122,
      0.0006037666462361813,
      -0.00036486948374658823,
      0.0018302847941716511,
      -0.0005034142329047123,
      -0.0019212597981095314,
      -0.0005545549017066757,
      5.901971114023278e-05,
      -0.0002888797898776829,
      0.00012633083194183806,
      0.0007599510718137026,
      -0.00037548074033111334,
      0.0013327070822318394,
      -0.00038163290203859407,
      0.00015785992339563865,
      -7.150367794868846e-05,
      -0.0021930361787478128,
      0.001162412188326319,
      0.00082974205724895,
      0.0011377698586632807,
      0.001654958352446556,
      -0.0022182919395466643,
      6.778227301159252e-05,
      -0.0008155231674512227,
      0.0013272614839176335,
      -0.0005257742401833335,
      -0.0012699741249283154,
      0.0008602545907100041,
      -0.0005465433544789751,
      0.0011824310446778932,
      -0.0012747053212175765,
      0.0002437818911857903,
      -0.001098595249156157,
      -0.00022192357573658228,
      0.0009422386065125465,
      -0.0008496489220609267,
      5.4322027911742524e-05,
      0.0019813780672848225,
      0.0009218314662575722,
      -0.00011979159899055958,
      -6.106090343867739e-05,
      -0.0002469434984959662,
      0.0007416727021336555,
      0.00014545052545145154,
      -0.0007104369966934124,
      -0.000376491070104142,
      0.0005452347686514258,
      -0.0004600280662998557,
      0.0005879156912366549,
      -0.0007599686117221911,
      -0.00013100013408499459,
      -0.0003678416057179371,
      0.0006988673315693934,
      -0.0013877134770154953,
      0.0009012405450145403,
      0.0023444672115147114,
      -0.0022126856880883374,
      -0.0006085302835951248,
      -0.0017460593953728676,
      -0.00019818653042117754,
      0.0017400236489872136,
      0.0007745764839152495,
      0.0003386953224738439,
      0.0003983934875577688,
      -0.0016498259889582791,
      0.0017025764100253582,
      0.0020237096274892488,
      -0.0006822292537738879,
      -1.216221939306334e-34,
      0.0009532527377208073,
      -0.00035085641623785097,
      -0.0016858233138918877,
      -0.0013866772254308064,
      -0.0004159739861885706,
      -0.0014275006639460721,
      0.0008460641062508026,
      -0.0009481284456948439,
      0.0007957248017191887,
      0.000339851986306409,
      0.000719565199688077,
      -0.0006660229992121458,
      0.001542159200956424,
      2.2366783620479204e-05,
      1.702077255079833e-05,
      -0.001581717903415362,
      -0.00040357625888039667,
      0.0008713677525520325,
      -0.0008570891028891007,
      0.00010876865902294715,
      -0.0003633600038786729,
      -0.0010567988113810618,
      -0.00031723373103886843,
      0.0011695628054440022,
      -0.0016479428547124066,
      -0.0005846566831072171,
      0.001559329374382893,
      0.0003287714983647068,
      0.00038526548693577445,
      0.0002835059228042761,
      -0.0020275101996958256,
      0.00269141544898351,
      -0.0015124742252131302,
      -0.0001723270397633314,
      -0.0003877060953527689,
      0.0007934929647793372,
      -0.0001901770980718235,
      -0.0014538497974475224,
      3.8466954113876755e-06,
      0.00035931608484437066,
      0.001153147934625546,
      -0.0006097190004462997,
      0.00017727449691543976,
      -0.0012030572009583314,
      -0.0004388958138103286,
      -0.0007790868791441122,
      -0.0006232811526084939,
      0.0024096566873292127,
      -0.00024845474399626255,
      -0.0005280466672653953,
      0.0013178166312475998,
      -0.0003483038938914736,
      -0.0008275744039565325,
      -0.0008336033206433058,
      0.00013535420293919742,
      0.0006463009243210156,
      -0.00010034806715945402,
      -0.0006478277112667759,
      -0.0004744199104607105,
      -0.00030382014422987896,
      -9.684255928732455e-05,
      0.0006199810886755586,
      0.0016081792612870534,
      0.0013737386713425317,
      0.0010006030400594075,
      -0.0007099913588414589,
      0.00021018429348866144,
      -0.00032400607597082853,
      0.0007327309188743432,
      0.0003666326326007644,
      0.0011748112738132477,
      -0.0003803784493356943,
      -0.0009549896543224652,
      -0.0010443284021069605,
      0.0005340161345278223,
      -0.0016721695040663083,
      -0.0005329186096787453,
      0.0006535969053705533,
      0.00017377324790383378,
      0.0009978288629402716,
      0.00025627558352425694,
      -4.5591756740274526e-05,
      -0.0007284204475581646,
      -0.0010759446304291487,
      0.0011521746249248583,
      -0.0012592060957103968,
      2.6925687658755727e-05,
      -0.0004755992364759246,
      0.0006473175017163157,
      0.001790577545762062,
      -0.0026093771060307818,
      -0.0004480574668074647,
      -0.0017343099849919477,
      0.001965243835002184,
      -0.0012864951665202775,
      -9.067513406790795e-10,
      -0.0009104866379251082,
      0.0004235613935937484,
      0.0016097710467875004,
      0.0018138885498046875,
      0.0001850381183127562,
      -0.00013013763236813247,
      -0.00015217789526407916,
      -8.668520604260266e-05,
      6.617431548268844e-05,
      -5.8167735308719174e-05,
      0.0021251151338219643,
      0.0028357943519949913,
      0.002956344125171502,
      0.0004229740782951315,
      0.00039186712820082903,
      -0.0018174179519216218,
      0.0009852002064387002,
      -0.0007680226117372513,
      0.00039175602917869884,
      -0.002088249971469243,
      0.00018675258615985513,
      -0.0008212488610297441,
      -0.00024171020292366544,
      -0.00016431979990253845,
      0.0006797787888596455,
      -0.0013499311171472073,
      0.0004091748657325903,
      0.0012652326064805188,
      -2.574045538494829e-06,
      -0.00013997412558334568,
      -0.000981140105674664,
      -0.0006207872259741027,
      0.001593257455776135,
      -0.0013522653219600518,
      0.0015413477085530758,
      0.00011787088199829061,
      0.00039155206953485805,
      0.0008237694079677264,
      -0.00019809952937066555,
      -0.000495300938685735,
      -0.0008618962795784075,
      0.00206736692537864,
      -0.002205006933460633,
      0.0002848080281789104,
      -0.0009650941162059704,
      -0.0013691686714688935,
      -0.0012531503258893886,
      0.0013608577040334542,
      -0.0003250462080662449,
      0.0010896068221578994,
      -0.0003707457411413391,
      -0.00043839390855282545,
      0.0006685691575209299,
      0.0009063198231160641,
      0.0008919717123111088,
      0.0011574681848287582,
      -0.001082797689984242,
      0.0009593181312084198,
      0.00017848110292106867,
      0.0014912042145927746,
      0.0002207044162787497,
      -0.0017044786363840103,
      -0.00162571482360363,
      0.0006822450862576563,
      -0.049124445766210556,
      0.0195941012352705,
      0.11684627830982208,
      0.0720990002155304,
      0.06156647577881813,
      -0.0067833708599209785,
      -0.053557563573122025,
      -0.044343262910842896,
      0.016580704599618912,
      0.05349251255393028,
      -0.0030378124210983515,
      -0.011167519725859165,
      0.013720678165555,
      0.04866405576467514,
      0.06437785178422928,
      -0.0009063454926945269,
      -0.11838783323764801,
      -0.07967981696128845,
      -0.05837176367640495,
      0.027707600966095924,
      -0.12862935662269592,
      0.04731742665171623,
      -0.04720325767993927,
      0.046027444303035736,
      -0.09476538002490997,
      0.042041853070259094,
      -0.0441274419426918,
      0.016228292137384415,
      -0.07128551602363586,
      0.10833972692489624,
      -0.025330891832709312,
      0.0415361225605011,
      -0.007645091973245144,
      0.018908686935901642,
      -0.039959438145160675,
      -0.021821582689881325,
      0.0610516220331192,
      -0.022490760311484337,
      -0.041552573442459106,
      0.02010718546807766,
      0.06211160123348236,
      -0.05641390010714531,
      -0.03562106564640999,
      0.011710179969668388,
      0.005908091086894274,
      0.07028268277645111,
      -0.04344593733549118,
      -0.030945640057325363,
      0.018275076523423195,
      -0.012528966180980206,
      -0.038138315081596375,
      0.07635367661714554,
      0.027653878554701805,
      -0.07317611575126648,
      -0.044823262840509415,
      -0.061329185962677,
      0.01854509860277176,
      -0.02463357523083687,
      0.07363590598106384,
      -0.012405295856297016,
      0.025459442287683487,
      0.045820772647857666,
      -0.06202389672398567,
      0.016713056713342667,
      0.06782245635986328,
      -0.016468841582536697,
      -0.01271128375083208,
      0.08707968890666962,
      0.08430400490760803,
      -0.0036694889422506094,
      0.10667290538549423,
      0.07703070342540741,
      -0.005600475240498781,
      -0.023781387135386467,
      0.02932419441640377,
      -0.05998823046684265,
      0.025224432349205017,
      -0.01585981622338295,
      0.10278796404600143,
      -0.03616633638739586,
      0.12245688587427139,
      -0.08914869278669357,
      0.07310698926448822,
      -0.024301541969180107,
      -0.01666518673300743,
      0.003930641338229179,
      0.060837361961603165,
      0.001669878140091896,
      -0.05618027225136757,
      -0.02198146842420101,
      -0.12265104800462723,
      -0.03654831275343895,
      0.05576583743095398,
      0.05125713348388672,
      -0.02758827991783619,
      0.20223796367645264,
      -0.0036873354110866785,
      0.0037361513823270798,
      -0.012408461421728134,
      0.02412176877260208,
      -0.030873656272888184,
      -0.0058999862521886826,
      0.02987309731543064,
      -0.057384803891181946,
      0.0023998550605028868,
      0.03780907392501831,
      0.037818390876054764,
      -0.05458979308605194,
      -0.024140480905771255,
      -0.008426498621702194,
      -0.025544773787260056,
      0.015942884609103203,
      -0.0863463506102562,
      -0.010160291567444801,
      0.07563655078411102,
      -0.07561355084180832,
      0.0010848824167624116,
      -0.040229830890893936,
      -0.05663394555449486,
      -0.008027429692447186,
      -0.03696434199810028,
      0.03517225384712219,
      -0.09410195797681808,
      0.08535386621952057,
      0.10005275905132294,
      0.030040761455893517,
      -0.008333499543368816,
      2.2801310042029614e-33,
      0.025871286168694496,
      0.0028594303876161575,
      0.035232190042734146,
      0.07073139399290085,
      0.05111050233244896,
      -0.021136583760380745,
      -0.04659486562013626,
      -0.0077218045480549335,
      0.006018609274178743,
      -0.053184207528829575,
      0.01217654813081026,
      -0.03847648575901985,
      -0.07018794119358063,
      0.06522513180971146,
      -0.047800034284591675,
      -0.05231383815407753,
      0.02350291982293129,
      0.00926752295345068,
      -0.04246579483151436,
      0.02292325161397457,
      -0.0500495471060276,
      -0.07944539934396744,
      0.023514578118920326,
      0.08891747891902924,
      -2.3132499336497858e-05,
      0.05325467512011528,
      0.016893496736884117,
      -0.01681167632341385,
      0.01576266996562481,
      -0.027014341205358505,
      0.03562863916158676,
      0.035713184624910355,
      0.0007431760895997286,
      0.020978815853595734,
      -0.05307849869132042,
      -0.04770370572805405,
      0.002900072606280446,
      0.057836487889289856,
      -0.018505416810512543,
      0.006523360963910818,
      -0.025548186153173447,
      -0.012809677049517632,
      -0.08502774685621262,
      -0.049162738025188446,
      0.11760903894901276,
      -0.0065133459866046906,
      0.13909921050071716,
      0.009105205535888672,
      -0.09143789857625961,
      0.029867954552173615,
      -0.051804423332214355,
      0.05065307766199112,
      -0.02706531062722206,
      -0.01103855762630701,
      -0.014220389537513256,
      -0.009523612447082996,
      0.025541536509990692,
      -0.0446077324450016,
      -0.025953378528356552,
      -0.06444308161735535,
      -0.04620145633816719,
      -0.025539010763168335,
      0.022812439128756523,
      -0.014957049861550331,
      0.08843400329351425,
      0.02328798733651638,
      0.049362070858478546,
      0.02646556682884693,
      -0.08832916617393494,
      0.027094343677163124,
      -0.013134326785802841,
      -0.01986311376094818,
      -0.012793082743883133,
      0.022535506635904312,
      0.01211580540984869,
      0.05382605642080307,
      0.003197045298293233,
      -0.0361253060400486,
      0.022640632465481758,
      0.03757384046912193,
      -0.09948281943798065,
      -0.025957129895687103,
      0.10465504229068756,
      -0.04419838264584541,
      0.012744935229420662,
      -0.038013048470020294,
      0.0036656465381383896,
      0.07368222624063492,
      0.004293146077543497,
      0.10861741751432419,
      -0.03461427241563797,
      -0.018088694661855698,
      0.05647788569331169,
      0.16423526406288147,
      0.010479706339538097,
      -3.8510065533441717e-33,
      -0.019707242026925087,
      0.020140398293733597,
      -0.036216024309396744,
      -0.01655612513422966,
      -0.028525488451123238,
      -0.02744903229176998,
      0.0073469155468046665,
      -0.028926780447363853,
      0.012123912572860718,
      0.020711807534098625,
      -0.02257702313363552,
      -0.041609905660152435,
      0.12399028986692429,
      -0.015400854870676994,
      0.0037219375371932983,
      -0.009693422354757786,
      0.031655460596084595,
      0.03493528813123703,
      -0.021059442311525345,
      -0.01566035859286785,
      -0.04418017342686653,
      -0.02639729343354702,
      -0.052594803273677826,
      0.01903643272817135,
      -0.020759915933012962,
      0.0169326514005661,
      0.007412961218506098,
      0.034012045711278915,
      0.018334239721298218,
      0.021776579320430756,
      -0.13926659524440765,
      0.03519472852349281,
      0.009362955577671528,
      -0.02318681590259075,
      -0.01792214997112751,
      0.07283233106136322,
      0.07214488834142685,
      -0.10183342546224594,
      -0.015642113983631134,
      -0.02861199527978897,
      0.04659916087985039,
      -0.05280794948339462,
      0.0247330442070961,
      -0.008221451193094254,
      0.048619288951158524,
      -0.019082555547356606,
      0.03652505204081535,
      0.08600214123725891,
      -0.04991457611322403,
      0.00945958960801363,
      0.08416648954153061,
      0.00013273526565171778,
      -0.09280089288949966,
      -0.04311065003275871,
      -0.042240776121616364,
      0.03599725291132927,
      -0.012921629473567009,
      -0.06325681507587433,
      -0.05603763461112976,
      -0.02597966231405735,
      -0.04890163242816925,
      0.002094319788739085,
      0.011432880535721779,
      -0.0009280637605115771,
      -0.005583660211414099,
      -0.0430261492729187,
      0.01092071644961834,
      -0.04859587550163269,
      -0.005421697627753019,
      0.007148160133510828,
      0.12099010497331619,
      -0.043060917407274246,
      -0.13508236408233643,
      0.008771761320531368,
      0.02935417741537094,
      -0.021334366872906685,
      -0.02878558449447155,
      -0.027806084603071213,
      0.045742057263851166,
      0.006066226400434971,
      0.0417194664478302,
      0.01569526270031929,
      -0.00038827277603559196,
      -0.009174775332212448,
      -0.013470528647303581,
      -0.04304462671279907,
      0.015344029292464256,
      0.021868476644158363,
      -0.021031402051448822,
      0.03901123255491257,
      -0.11893283575773239,
      -0.023936694487929344,
      -0.0626748725771904,
      0.050867147743701935,
      -0.06475614011287689,
      -3.5753849658703984e-08,
      0.032203543931245804,
      0.05670307204127312,
      0.037541940808296204,
      -0.009113132022321224,
      0.056417644023895264,
      -0.028381388634443283,
      0.011031515896320343,
      0.0726046934723854,
      0.001497352379374206,
      0.025208204984664917,
      0.04948221892118454,
      0.04892668500542641,
      0.06979799270629883,
      0.044148512184619904,
      0.03766581788659096,
      -0.06466963142156601,
      -0.02179843932390213,
      -0.10550348460674286,
      -0.046735748648643494,
      -0.05632123351097107,
      0.007587154861539602,
      0.038331758230924606,
      -0.03157617524266243,
      0.07961679250001907,
      0.01947660930454731,
      -0.021301602944731712,
      -0.025241289287805557,
      0.07403847575187683,
      -0.0362720713019371,
      -0.023989928886294365,
      -0.07755221426486969,
      -0.06035700440406799,
      -0.01656242460012436,
      0.013067933730781078,
      0.02551122009754181,
      -0.05365338921546936,
      0.06273332983255386,
      -0.011232557706534863,
      0.015336235985159874,
      -0.09320934116840363,
      0.01813672110438347,
      0.07079862803220749,
      -0.06499230861663818,
      0.04835508391261101,
      -0.040354516357183456,
      -0.0766218826174736,
      -0.04140012711286545,
      0.0529073067009449,
      0.05615560710430145,
      0.04577455669641495,
      0.012431090697646141,
      -0.0764843001961708,
      -0.03646794334053993,
      0.0017692552646622062,
      0.0186561718583107,
      -0.014307480305433273,
      -0.052904509007930756,
      0.014520429074764252,
      -0.02954730950295925,
      -0.010025222785770893,
      -0.02940656617283821,
      -0.08945062011480331,
      -0.09939833730459213,
      0.018939130008220673,
      0.044945160506455306,
      0.020833789519327194,
      0.01926768862215981,
      0.019501204307696442,
      0.01906885854469444,
      0.018460237656292365,
      0.020101174993835427,
      0.02556183943804285,
      0.02381727062019923,
      0.01926768862215981,
      0.02324019458678822,
      0.01906885854469444,
      0.01960104324034503,
      0.019757019936552912,
      0.018747116840884124,
      0.024988863454421816,
      0.01971636303109149,
      0.022884362295552952,
      0.01872834905602882,
      0.020344471719143234,
      0.018424151801797687,
      0.0193451378613215,
      0.020764607135733398,
      0.018884441219622048,
      0.021957985150863633,
      0.01906885854469444,
      0.02055038770431656,
      0.02095429983057965,
      0.02824331783683303,
      0.01887400022363077,
      0.01951050542392274,
      0.019164061125826977,
      0.01901660892631587,
      0.018850347767554527,
      0.02640679893606724,
      0.021166992811085212,
      0.02095429983057965,
      0.019581151417020548,
      0.01895139242705036,
      0.018254714790027986,
      0.019863527015465603,
      0.018171597919920273,
      0.018004717458729978,
      0.019091468250266395,
      0.021126583214481656,
      0.018850347767554527,
      0.020381241078032308,
      0.017684900994339534,
      0.018983714674689078,
      0.040953963504328214
    ],
    "semantic_features": [
      0.09621123969554901,
      0.05715378373861313,
      0.03804941475391388,
      -0.012177154421806335,
      0.05934184789657593,
      -0.010474588721990585,
      0.057146817445755005,
      0.057136356830596924,
      -0.021438397467136383,
      0.015274366363883018,
      0.05870037525892258
    ],
    "explanation_vector": [
      -0.001074751904552978,
      0.0004465724286948592,
      0.0028205600638049663,
      0.0017605572745282164,
      0.0019336001856838276,
      0.0006621375037037256,
      -0.0003968428916051009,
      -0.0006054280561917656,
      6.665679478639793e-05,
      0.001375479294975638,
      -0.0006990517428892818,
      -0.0016065430158796051,
      -0.0020409491365778907,
      0.0001402018840932662,
      0.0006325338626191534,
      0.00021656417436119864,
      -0.0016229683465072116,
      -0.0005271453405592072,
      -0.00028978444278135945,
      -0.0002169724340685265,
      -0.0010749351171839175,
      0.000822326311768339,
      -0.0003916069905760321,
      -1.8725472306194213e-06,
      -0.0012671228663366392,
      6.707004893599867e-05,
      -0.0013027892043373283,
      0.0013409241197249204,
      -0.0013147467235571195,
      0.0018083381163680075,
      -0.0005321274357272068,
      0.0005744589096655055,
      0.0011970811146620097,
      0.0002987243602421694,
      0.0005054834953817919,
      0.0006486349858807924,
      0.0008129280943148567,
      0.00016912519778116913,
      -9.514859249642787e-05,
      0.0005437634317342673,
      0.0007003975773222481,
      -0.0022042361476886842,
      -6.732509142480907e-05,
      -0.000862740533394588,
      -0.0016727865373438791,
      0.0015248053348906408,
      2.7772792144530486e-05,
      0.0001770951772973132,
      -0.0014721581999224977,
      -0.0012748593628662216,
      0.5707143545150757,
      0.33902987837791443,
      0.22570489346981049,
      -0.07223352789878845,
      0.35200923681259155,
      -0.062134094536304474,
      0.3389885723590851,
      0.3389265239238739,
      -0.12717019021511078,
      0.09060584008693695,
      0.348204106092453,
      716.0,
      331.0
    ]
  },
  "root_cause_analysis": {
    "primary_cause": "Unknown cause",
    "causal_factors": [],
    "causal_graph": "DiGraph with 17 nodes and 56 edges",
    "counterfactual_scenarios": [
      {
        "intervention_type": "output_length_control",
        "target_node": "output_length",
        "current_value": 331,
        "counterfactual_value": 455,
        "description": "Adjust output length to match reference (455 characters)",
        "expected_impact": 0.5
      },
      {
        "intervention_type": "attention_regulation",
        "target_node": "attention_variance",
        "description": "Apply attention regularization to improve focus distribution",
        "expected_impact": 0.8
      },
      {
        "intervention_type": "attention_regulation",
        "target_node": "attention_concentration",
        "description": "Apply attention regularization to improve focus distribution",
        "expected_impact": 0.8
      }
    ],
    "confidence_score": 0.0,
    "explanation_text": "### Root Cause Analysis Report\n\n**1. Analysis of Input Intent:**\n\nThe input text is a formal passage discussing climate change, its causes, and its effects. The core request or primary function of this input data appears to be to inform or educate the reader about the issue of climate change, emphasizing its severity and the need for urgent action. Key constraints or requirements specified in the passage include citing specific evidence (e.g., the 1.1°C rise in global temperatures) and referencing authoritative sources (the Intergovernmental Panel on Climate Change).\n\n**2. Key Discrepancies Observed:**\n\n- The model output omits critical details, such as the role of human activities (specifically, the burning of fossil fuels) in causing climate change.\n- It simplifies complex information, stating \"some scientists think humans might be involved\" instead of acknowledging clear evidence.\n- The temperature rise is inaccurately reported as 2°C over the last 100 years, instead of 1.1°C since pre-industrial times.\n- The urgency and specific actions needed (reducing greenhouse gas emissions and transitioning to renewable energy) are downplayed.\n\n**3. Explanation of Failure:**\n\nThese discrepancies align with the \"Loss of Key Information\" failure category because they involve omitting or distorting critical details from the original passage that were essential for conveying its message accurately. The model failed to preserve key facts (e.g., human activities causing climate change, specific temperature increase) and authoritative references, leading to a simplified and less accurate representation of the topic.\n\n**4. Inferred Root Cause:**\n\nThe most likely reason for this failure is that the model struggled with preserving complex information and nuances from the original text during the natural language-to-natural language (NL2NL) transformation task. This struggle might stem from limitations in its training data or algorithms, particularly those related to attention mechanisms and information retention over longer sequences of text. The model's tendency to simplify and generalize may have led it to overlook critical details and context-specific information, resulting in a less accurate output that failed to meet the requirements for accurately conveying key messages about climate change.",
    "intervention_recommendations": [
      "Intervention: Adjust output length to match reference (455 characters)",
      "Intervention: Apply attention regularization to improve focus distribution"
    ]
  },
  "recommendation_suite": {
    "instance_id": "nl2nl_001",
    "failure_category": "Loss of Key Information",
    "recommendations": [
      {
        "recommendation_id": "nl2nl_001_custom_attention_regulation",
        "recommendation_type": "RecommendationType.PROMPT_ENGINEERING",
        "stakeholder_type": "StakeholderType.DEVELOPER",
        "title": "Counterfactual Intervention: attention_regulation",
        "description": "Apply attention regularization to improve focus distribution",
        "implementation_steps": [
          "Analyze counterfactual scenario",
          "Implement proposed intervention",
          "Validate effectiveness"
        ],
        "expected_impact": 0.8,
        "implementation_effort": 0.4,
        "confidence": 0.0,
        "priority_score": 0.0,
        "evidence": [
          "Derived from counterfactual analysis"
        ],
        "constraints": [
          "Requires careful validation"
        ]
      },
      {
        "recommendation_id": "nl2nl_001_llm_prompt_engineering",
        "recommendation_type": "RecommendationType.PROMPT_ENGINEERING",
        "stakeholder_type": "StakeholderType.DEVELOPER",
        "title": "LLM-Generated Prompt Engineering",
        "description": "-",
        "implementation_steps": [
          "-"
        ],
        "expected_impact": 0.6,
        "implementation_effort": 0.5,
        "confidence": 0.42,
        "priority_score": 0.0,
        "evidence": [
          "Generated by LLM analysis"
        ],
        "constraints": [
          "Requires validation and testing"
        ]
      },
      {
        "recommendation_id": "nl2nl_001_llm_data_augmentation",
        "recommendation_type": "RecommendationType.DATA_AUGMENTATION",
        "stakeholder_type": "StakeholderType.DEVELOPER",
        "title": "LLM-Generated Data Augmentation",
        "description": "-",
        "implementation_steps": [
          "-"
        ],
        "expected_impact": 0.6,
        "implementation_effort": 0.5,
        "confidence": 0.42,
        "priority_score": 0.0,
        "evidence": [
          "Generated by LLM analysis"
        ],
        "constraints": [
          "Requires validation and testing"
        ]
      },
      {
        "recommendation_id": "nl2nl_001_llm_model_configuration",
        "recommendation_type": "RecommendationType.MODEL_CONFIGURATION",
        "stakeholder_type": "StakeholderType.DEVELOPER",
        "title": "LLM-Generated Model Configuration",
        "description": "-",
        "implementation_steps": [
          "-"
        ],
        "expected_impact": 0.6,
        "implementation_effort": 0.5,
        "confidence": 0.42,
        "priority_score": 0.0,
        "evidence": [
          "Generated by LLM analysis"
        ],
        "constraints": [
          "Requires validation and testing"
        ]
      }
    ],
    "optimization_strategy": {
      "target_stakeholder": "multi_stakeholder",
      "optimization_method": "pareto_optimal",
      "adaptive_learning": true
    },
    "stakeholder_alignment": {
      "StakeholderType.DEVELOPER": 0.0,
      "StakeholderType.MANAGER": 0.0,
      "StakeholderType.RESEARCHER": 0.0,
      "StakeholderType.END_USER": 0.0
    },
    "overall_confidence": 0.315,
    "implementation_roadmap": [
      {
        "phase": 1,
        "recommendations": [
          "nl2nl_001_custom_attention_regulation",
          "nl2nl_001_llm_prompt_engineering"
        ],
        "total_effort": 0.9,
        "expected_impact": 0.7
      },
      {
        "phase": 2,
        "recommendations": [
          "nl2nl_001_llm_data_augmentation",
          "nl2nl_001_llm_model_configuration"
        ],
        "total_effort": 1.0,
        "expected_impact": 0.6
      }
    ]
  },
  "processing_time": 135.97138810157776,
  "confidence_score": 0.303,
  "quality_metrics": {
    "length_score": 0.0,
    "readability_score": 0.8191044776119403,
    "structure_score": 1.0,
    "overall_quality": 0.9095522388059701
  },
  "markdown_report": "# Explainability Report: nl2nl_001\n\n## 1. Summary\n\n- **Input ID:** `nl2nl_001`\n- **Task Type:** `NL2NL`\n- **Status:** **FAIL**\n- **Failure Category:** `Loss of Key Information`\n- **Confidence Score:** `0.600`\n- **Analysis Timestamp:** `2025-08-07 14:33:44`\n\n---\n\n## 2. Detailed Analysis\n\n### Input\n\n```\n\n        Climate change is one of the most pressing issues of our time. Rising global temperatures \n        have led to melting ice caps, rising sea levels, and extreme weather events. Scientists \n        have established clear evidence that human activities, particularly the burning of fossil \n        fuels, are the primary cause of recent climate change. The Intergovernmental Panel on \n        Climate Change (IPCC) reports that global temperatures have risen by approximately 1.1°C \n        since pre-industrial times. Urgent action is needed to reduce greenhouse gas emissions \n        and transition to renewable energy sources to limit further warming to 1.5°C above \n        pre-industrial levels.\n        \n```\n\n### Model Output (Failed)\n\n```\n\n        Climate change is happening and it's getting warmer. Ice is melting and there are more \n        storms. Some scientists think humans might be involved through cars and factories. \n        The temperature has gone up by about 2°C in the last 100 years. We should probably \n        do something about it eventually.\n        \n```\n\n### Reference Output (Correct)\n\n```\n\n        Climate change, driven primarily by human activities like fossil fuel burning, has caused \n        global temperatures to rise by 1.1°C since pre-industrial times. This has resulted in \n        melting ice caps, rising sea levels, and extreme weather events. The IPCC emphasizes \n        the urgent need to reduce greenhouse gas emissions and transition to renewable energy \n        to limit warming to 1.5°C above pre-industrial levels.\n        \n```\n\n---\n\n## 3. Root Cause Analysis\n\n### Root Cause Analysis Report\n\n**1. Analysis of Input Intent:**\n\nThe input text is a formal passage discussing climate change, its causes, and its effects. The core request or primary function of this input data appears to be to inform or educate the reader about the issue of climate change, emphasizing its severity and the need for urgent action. Key constraints or requirements specified in the passage include citing specific evidence (e.g., the 1.1°C rise in global temperatures) and referencing authoritative sources (the Intergovernmental Panel on Climate Change).\n\n**2. Key Discrepancies Observed:**\n\n- The model output omits critical details, such as the role of human activities (specifically, the burning of fossil fuels) in causing climate change.\n- It simplifies complex information, stating \"some scientists think humans might be involved\" instead of acknowledging clear evidence.\n- The temperature rise is inaccurately reported as 2°C over the last 100 years, instead of 1.1°C since pre-industrial times.\n- The urgency and specific actions needed (reducing greenhouse gas emissions and transitioning to renewable energy) are downplayed.\n\n**3. Explanation of Failure:**\n\nThese discrepancies align with the \"Loss of Key Information\" failure category because they involve omitting or distorting critical details from the original passage that were essential for conveying its message accurately. The model failed to preserve key facts (e.g., human activities causing climate change, specific temperature increase) and authoritative references, leading to a simplified and less accurate representation of the topic.\n\n**4. Inferred Root Cause:**\n\nThe most likely reason for this failure is that the model struggled with preserving complex information and nuances from the original text during the natural language-to-natural language (NL2NL) transformation task. This struggle might stem from limitations in its training data or algorithms, particularly those related to attention mechanisms and information retention over longer sequences of text. The model's tendency to simplify and generalize may have led it to overlook critical details and context-specific information, resulting in a less accurate output that failed to meet the requirements for accurately conveying key messages about climate change.\n\n### Causal Factors\n\nNo significant causal factors identified.\n\n### Counterfactual Analysis\n\n\n**Scenario 1: output_length_control**\n- **Description:** Adjust output length to match reference (455 characters)\n- **Expected Impact:** 0.500\n\n\n**Scenario 2: attention_regulation**\n- **Description:** Apply attention regularization to improve focus distribution\n- **Expected Impact:** 0.800\n\n\n**Scenario 3: attention_regulation**\n- **Description:** Apply attention regularization to improve focus distribution\n- **Expected Impact:** 0.800\n\n\n---\n\n## 4. Actionable Recommendations\n\n\n### Prompt Engineering\n\n**1. Counterfactual Intervention: attention_regulation**\n- **Description:** Apply attention regularization to improve focus distribution\n- **Expected Impact:** 0.80\n- **Implementation Effort:** 0.40\n- **Confidence:** 0.00\n\n*Implementation Steps:*\n- Analyze counterfactual scenario\n- Implement proposed intervention\n- Validate effectiveness\n\n\n**2. LLM-Generated Prompt Engineering**\n- **Description:** -\n- **Expected Impact:** 0.60\n- **Implementation Effort:** 0.50\n- **Confidence:** 0.42\n\n*Implementation Steps:*\n- -\n\n\n\n### Data Augmentation\n\n**1. LLM-Generated Data Augmentation**\n- **Description:** -\n- **Expected Impact:** 0.60\n- **Implementation Effort:** 0.50\n- **Confidence:** 0.42\n\n*Implementation Steps:*\n- -\n\n\n\n### Model Configuration\n\n**1. LLM-Generated Model Configuration**\n- **Description:** -\n- **Expected Impact:** 0.60\n- **Implementation Effort:** 0.50\n- **Confidence:** 0.42\n\n*Implementation Steps:*\n- -\n\n\n\n---\n\n## 5. Technical Analysis\n\n### Classification Details\n- **Primary Category:** Loss of Key Information\n- **Sub-categories:** low_severity, simple_failure, llm_validated_Loss of Key Information\n- **Semantic Features:** Vector length: 11, Max value: 0.096\n- **Attention Patterns:** Attention variance: 0.001, Max attention: 0.202\n\n### Confidence Metrics\n- **Classification Confidence:** 0.600\n- **Root Cause Confidence:** 0.000\n- **Overall Confidence:** 0.315\n\n### Performance Metrics\n- **Processing Time:** 0.00 seconds\n- **Quality Score:** 0.000\n\n---\n\n## 6. Implementation Roadmap\n\n\n**Phase 1**\n- **Recommendations:** 2 items\n- **Total Effort:** 0.90\n- **Expected Impact:** 0.70\n\n\n**Phase 2**\n- **Recommendations:** 2 items\n- **Total Effort:** 1.00\n- **Expected Impact:** 0.60\n\n\n---\n\n*Report generated by LLM Explainability Framework v1.0.0*\n"
}